{"W1": [[[[-0.6138679459512366, -0.5662308379668032, 0.22915652656565677, -0.26221403600075543, -0.43417891154099497, -0.4642984876831995, -0.04861687279693966, 0.31368295850801803]], [[-0.08730022396824492, 0.0304968264703196, -0.6702493814808702, 0.9360018511786279, 0.3156518101940233, -0.40031742816833177, -0.6255413171536506, 0.6250697792657895]], [[1.0799874161525413, -0.16659364145504468, -0.1639196196984083, -0.43068668647616787, -0.0849217585872514, -0.015777986565533603, 0.49313276744260776, -0.30422319221142535]]], [[[0.024331048638415394, -0.24949878763621006, -0.06806531154164984, -0.839297617149249, 0.2729143080349125, 0.4651685192995239, 0.00020368004483556183, -0.850384493604193]], [[0.3217071992373093, 0.8649023177802367, -0.5067607325442058, 0.016694117116181996, 0.6370259379826374, 0.14766204524338308, 0.3887109957965843, -0.7020952850039818]], [[0.10722077396457036, -1.0042496575839168, 0.24351951488996995, 0.19835638565524213, 1.1481827613081985, -0.3323894593205049, 0.310481949649255, -0.7233318968075257]]], [[[0.8006337161577085, 0.7129746640020452, 0.25670172749878417, -0.3055178275272752, 0.0886981033376055, 0.9963534992128834, 0.3467634268146953, -0.1160472458287955]], [[0.17346640013999187, 0.9151819006889659, -0.7375877277885048, -0.3102285244917108, 0.4398380474257561, -0.5372811287002159, -0.5722804166601141, -0.08168662841335636]], [[0.8521588213845656, -0.5654741557352699, 0.28443907000594243, -0.20106456113585316, 0.07903103907757769, -0.37851065452265753, 0.5805613448463116, -0.6675724746220884]]]], "b1": [-0.10798493772745132, 0.01277356967329979, 0.1194550022482872, 0.21317937970161438, -0.08396054059267044, 0.0004870288830716163, -0.044584326446056366, -0.017857514321804047], "W2": [[[[-0.12904974923569043, 0.24633200705097233, -0.001158345495929771, -0.2478034345435228, 0.23582076375420993, -0.1523454241260026, 0.023243920797960047, 0.004005753329488517, 0.11788692675488191, 0.12477296345236791, 0.03429084173002708, 0.06025524962276027, -0.3247286115979611, 0.025367503230924137, 0.21206437931898342, 0.1512453985077182], [-0.14863480678154437, -0.25008338296150423, 0.11195073107303731, 0.2338604101400103, -0.0930884584648531, -0.08222844655728566, 0.2639825441147656, 0.14684911206571796, 0.19511919636957206, -0.021434969719667248, -0.04902747792373635, 0.2033779140892091, 0.05783588842446688, -0.22266328451241457, 0.31146697080955454, 0.1698848670020327], [-0.26511540606751405, 0.15391357696197794, -0.03310809423523492, -0.05560898678482138, -0.029361069672298377, -0.10989768965684116, 0.32862245217022207, -0.14858053648866573, -0.04074472464879232, 0.009292450703634993, 0.2166428272764786, 0.030777482153964978, 0.283764408343476, -0.07664537954124191, -0.25743494526989064, -0.04472164380134904], [-0.06761952409177127, -0.06882085733227018, 0.1382970765747599, 0.17173665464660118, 0.2873229904718644, -0.07181773244855293, -0.07634271859511432, -0.12156168834579986, -0.1411742741649889, -0.061849151586534, -0.0546288309129968, 0.2679339057692349, -0.10004423718333064, -0.1784173527937698, -0.07430859976780431, 0.2830140032131714], [0.13274740879145208, 0.07845348324165494, 0.15202291507113364, -0.04757253965453118, 0.06899254853069339, -0.26231293089832813, 0.013154229680733516, -0.1811214350567641, -0.05768009754585541, 0.2118139912088327, 0.07374885272818452, -0.1227990948136826, -0.11796566640229643, 0.045205288410856435, 0.3095241510567771, 0.00523212294753407], [0.07632967363222089, -0.008159903607937362, 0.003890170535877966, -0.005740001274796057, -0.12673958372983235, 0.05987424455181615, -0.10678501695538027, -0.1119026557555984, 0.2734782793650055, -0.20113019659432033, -0.031089432965420487, 0.03857450550434965, 0.24282829576794723, -0.184787725368609, 0.016942455269218296, -0.08697996370551213], [-0.11904103555645323, 0.2644889312272081, 0.2781316162839336, 0.1439607607840373, -0.03331181480128911, -0.16468862602928758, -0.14543369543382348, -0.12316647382898871, 0.05310128311276558, -0.07332028519551646, 0.26918070016018875, 0.16943813975581978, 0.22504069932081314, 0.053924490866519716, 0.06801935689021564, 0.05138614754130317], [0.10092709073110753, 0.11346996666833621, 0.19061936869678453, 0.17060446649824154, 0.10417813910170386, 0.07534193429815522, 0.2069568838380654, -0.08097854496860055, 0.10895467483325282, 0.19432724865807385, 0.05077803960884803, -0.0844123674038984, -0.3074275517720377, -0.015737641741541953, 0.04090345792972934, 0.005068054205406911]], [[-0.004087087727579485, 0.13075209295549164, 0.4897887285525452, 0.05233453166184975, 0.1932192183446658, -0.1791832124083935, -0.0154161784357583, -0.06472240465110576, -0.09231076272756959, 0.022867564209190613, -0.057781887315117, -0.029892408562856694, -0.02199624555665367, 0.013938626739782089, -0.3544884444103086, -0.029981569416072367], [-0.00717467196874502, 0.36241477475208944, -0.25006190157811725, -0.16462666151835098, 0.10279008532676391, 0.11049683561864514, -0.13763603199397995, 0.13568693782407645, 0.13865397322203676, 0.0380661097011617, -0.1972604137310515, 0.18620776442184728, 0.13984674727830632, 0.20142734531110393, -0.2696477264469843, -0.0013544977472807968], [0.16159730346510118, 0.3136246629311527, -0.1481387152993665, 0.0279536275493227, 0.20854400173224596, 0.0458639484230113, 0.04782237310834329, 0.08924970367892937, 0.08436534410887103, -0.3334465768950681, -0.05688873671973643, -0.0499241606397207, 0.24232826162611934, -0.048735174821273104, 0.04806592425681106, -0.11102817795508615], [-0.0031829818157404557, -0.2987528946460152, 0.13224035549546861, 0.22299314250442875, -0.1540448629532877, 0.08705586038074806, 0.1593295404873912, -0.25295755263970465, 0.1730705648690113, -0.21818842726618867, 0.04402729221431178, 0.3788681440350951, -0.12334409974475358, -0.023578848263648214, 0.018987978277190426, 0.023065832578941563], [-0.19391890196252345, -0.04697936094106921, 0.04439399700668889, -0.06515562024876874, 0.08304721195237266, -0.06127144984440392, 0.15860493785019641, 0.1704966825475088, -0.12781129472471206, -0.0438601317116836, 0.01565425988365507, -0.09231702277469672, 0.14940582760397464, 0.02459092915236695, 0.050368760916595916, -0.08903926381063039], [0.04983703213287825, 0.05267076193521786, -0.02772161189467496, -0.057000273053279975, -0.07929994514270315, -0.3259375985351968, -0.21733529377120092, -0.038139618157205665, 0.2153525541326808, -0.12724963253873628, -0.08227960985945312, -0.1991644321352954, 0.2238911438107496, 0.16474146701088713, -0.032053827935739715, 0.0551141611140128], [0.015752881997724507, -0.3821000637815497, -0.02407344355029337, 0.17306399092647962, -0.2428735713002767, -0.1450368168129315, -0.05029094764463565, -0.1253057758445851, -0.14043267705302628, 0.1483261688180696, 0.19838571013187062, -0.15089839942361027, -0.13655884229751977, -0.3070095064909386, -0.4518221391620647, -0.14546218440952507], [-0.02983319744099067, -0.0013012463256051384, -0.2610573268392269, 0.10327659065597024, -0.1182669690595726, -0.1944366268369219, 0.0472381518082285, -0.10054151284644437, 0.075426498537818, -0.12529958803365457, 0.1539599491992683, -0.11895969673706515, -0.06010231578171053, 0.13525354106736934, 0.16840876862962875, 0.01705592786660286]], [[-0.10161217339306548, 0.14892713238796146, -0.08292071508990255, -0.016650765476489332, -0.28610861303458063, 0.059391332932607316, 0.3477951236887599, -0.07040308299100605, 0.016241973366968324, -0.188797965626059, -0.22818804363403736, -0.26193309992208463, 0.11340892802536864, -0.180701323388164, 0.0034913478317415976, 0.0709431934853395], [-0.06900618798287217, 0.176952977520678, 0.1914231961381697, 0.08625547374673143, -0.04277629366587208, 0.05320307884824578, -0.01593315061884661, -0.25144295009396933, -0.07969763934026398, 0.05108634767298467, -0.10311150789325238, 0.2862745760600021, 0.42025385339288, -0.056710730377115666, 0.12696483442963605, 0.25350515595886336], [-0.029837944150007515, 0.1504297916591193, -0.04713726349100598, -0.37065974506000293, -0.39213787748798784, 0.3240943933368834, -0.3021604147166739, -0.057630256762674636, 0.2335877439051112, 0.17951360452879378, 0.3962122022410061, 0.1761327334938566, 0.06007254094315464, 0.10232327659105794, 0.05070123244467463, -0.13887055048302957], [0.026802804273842837, -0.28468389246294673, -0.2661201680355586, -0.0014625349967881292, 0.10965223143280525, 0.22468718885857827, -0.2089155895569812, 0.015378624416390443, 0.2529860375846631, 0.10656037197493297, 0.06086877532782645, -0.003957569671414359, -0.09093407909207016, 0.04467392122212342, -0.14851553662460945, 0.11128535365962217], [0.11076163394479431, 0.2186526524907001, 0.08670530041309277, 0.06932311487083477, -0.10824910349367141, -0.20380218348824128, 0.1735581410153093, 0.10872692225641169, 0.3855392435219693, -0.01730287707929084, 0.1990715298375397, -0.005095307548548159, 0.3179085636432067, 0.25043614443140216, 0.041019760735027985, -0.3779589625300666], [0.028627935940870184, -0.04986242690661158, 0.24159005158528887, 0.6303982849519264, 0.08909747512118882, 0.4740332789825868, 0.10936995938398598, 0.14429521489125227, -0.08349504406728256, 0.06460999979007478, -0.03433895308081816, -0.13525074990228803, 0.370114110114205, 0.300641399172684, -0.00688242220206741, 0.3854283455938094], [-0.023116625748314, -0.01259144458285172, -0.020006776612273413, -0.000210538926270716, -0.2334576099665526, -0.04924050525990163, 0.22746680863092394, -0.3526486526832557, -0.15194437554695212, -0.03603564998667897, 0.05143910598950737, 0.11253870431455215, -0.16485468516138532, -0.038485187231082185, -0.030097903968203474, -0.029733650305554533], [0.05330437993383701, -0.040557432534229526, -0.16665612576978323, -0.08251960044987317, -0.11663863938938696, -0.0301359939276929, -0.12032217019156922, 0.13845608170192666, -0.36070061320542124, -0.2590200909883987, 0.17766010781876898, -0.20609097372423002, 0.07473301578315272, 0.08603942978810018, 0.060185627471915526, -0.08237522224015267]]], [[[-0.18159143952885132, 0.1296730429244065, 0.14437980855602892, -0.2221714694671667, 0.430740586065536, 0.07488203823976657, -0.09655633166942319, 0.13178074001444348, 0.12298424568946495, -0.03948783307629544, 0.17520695738017622, 0.1517861541591543, -0.2246421250250758, 0.27959745455999074, 0.20733125781530357, -0.20471235258684792], [-0.025619658781859053, 0.28826796011496514, 0.33336471886819447, 0.051345254173555926, -0.05084100946922865, 0.62444584750772, -0.28222995145737584, -0.21905738396202368, 0.1316521376243865, 0.178883624071474, -0.007789575340272326, 0.004059720992084203, -0.0025684056461123383, -0.1806223579683477, -0.18933035418836147, 0.06760766477202229], [-0.02600425254310099, 0.07500840314388761, 0.04497366513622792, 0.034391429068219743, 0.06117507303374539, 0.11436419219360107, -0.011212929673670432, 0.05752812818862679, -0.09165564950741198, -0.021937028573339457, 0.19806891796822995, 0.38459460205363954, 0.038388159314569785, -0.22516179931535438, -0.1528390330572481, -0.0766209123669688], [-0.3122222639112954, -0.1406879778645543, -0.4096997468494491, 0.16264478484454023, 0.295962065478373, 0.01932204220109366, 0.23210003258504058, -0.25259024151411386, -0.0924872769782811, 0.04733995287869586, 0.1597694571782393, 0.12036625295274199, -0.28457829624522774, 0.03604391817432641, -0.1713583399142262, 0.09620836109734827], [0.25831337005313887, 0.3874279809637096, -0.2960553831033234, -0.12343654515837356, -0.0002293246727881704, -0.09589313581393129, 0.10617767271812614, -0.33087026198547603, 0.22876735871438408, 0.2996851977245197, 0.1843362480769966, 0.3264465904759398, 0.10718029601142903, 0.09392020561675367, 0.09966197567749527, -0.320378114625273], [-0.11476309808541765, 0.14263589676073454, 0.09233601482393015, -0.19854554237561722, 0.09386183603186153, -0.12296986417628213, -0.35417861780202553, -0.18131237624627514, -0.14365050738852447, -0.2262449739967261, -0.15766189683659887, 0.044910757669866644, 0.19893862929986225, 0.1819068695654582, -0.21122717519469378, 0.1365016918011484], [0.0931616015992909, 0.3340714307456024, -0.3540476687998108, 0.026029860273548023, 0.05132240085924161, 0.03161053943790409, -0.023511382828921363, -0.06216274771579743, 0.21269098307855708, 0.15468497900595032, 0.037583250705465025, 0.10789392465748326, 0.010598949715238372, -0.013500967251706374, 0.011527586962440856, -0.04058860932498078], [-0.016693594368448045, 0.015848142778219818, -0.1037237784887466, 0.11569580378898059, -0.023510223074309843, -0.08846658024480007, 0.13832326262426087, -0.249625063551582, -0.02474802069007585, -0.32716707705598597, 0.33829796252750516, -0.14017803024570968, 0.0334335654160993, -0.06212621502106283, 0.014754602839286568, 0.16117217363808692]], [[-0.030393122160164807, -0.2564573594831336, 0.20903506612630962, 0.012377235096188112, 0.09858388922206088, 0.07098952625479531, 0.004004869594866651, 0.07806499181916551, -0.5421253963215091, -0.4185586627970567, 0.18227009137368208, 0.18476585826079941, 0.24399007702305608, 0.041416508512405116, -0.23683315793517853, 0.5131467075683613], [0.18823778795378798, 0.3828361008982353, 0.41572632063432147, 0.059835567823732144, 0.05460868392585498, 0.14003253431542956, 0.32724975431871967, 0.2347330566291501, 0.24964859697194705, 0.00873922245712148, -0.18191495170051708, 0.13612131969060695, 0.2292146513449899, 0.45320031056088456, 0.15624519554195282, -0.011593349639492804], [0.1888757966434162, 0.30675422244644895, -0.12597257228974315, -0.04298158981657963, 0.061670544146396646, 0.2734473845199052, -0.43011604448572577, -0.008541120800216543, 0.2508457581918923, 0.0635045295639869, -0.26794519593291194, 0.17925454555197257, -0.15388393745396525, 0.03951495285267835, -0.09957097298544862, 0.020673781299087295], [-0.17717284438505818, 0.104139862612808, -0.17872283315181975, 0.03397823120569319, -0.05114112355218535, 0.10389493642669968, -0.024524415336627053, -0.144664078583786, -0.3907623118744577, -0.21877445659171288, 0.03083663206339946, 0.05276077337454958, 0.0028211583968264786, 0.07139914194564519, -0.04035356640096948, 0.01050972894869776], [0.20449641041866043, -0.23550950750531374, -0.02141263079970327, 0.18590887898993352, 0.13914801135189933, 0.2400762009117664, -0.032025744213120176, 0.009173350233992792, -0.4587279124072876, -0.028561626634212054, 0.10532836372737692, -0.24256668821878954, -0.0667846508865967, -0.023478540751586386, 0.06454760492539413, 0.16126778708256007], [-0.02026313781000622, -0.13066980363768488, -0.3836990876957222, 0.2874998191507503, 0.12881778443162903, 0.020311006969389298, -0.17688697369220427, -0.12163851586256126, 0.2681358766897742, 0.2710617422808294, 0.08636012342658439, 0.09542418488439881, 0.208783197741808, 0.11022374734392196, 0.23336960251303315, -0.07633077236210137], [0.3600874341245438, 0.05930613727745964, 0.47512191238629153, 0.31903124114207654, -0.15977481289603218, 0.25776338018080636, 0.2771123525571551, 0.12637176407553846, 0.1517845118365342, -0.13177379222709681, -0.02972891748455242, -0.22767522080821295, -0.18699180198357154, -0.2886062918021518, 0.1205982101244983, -0.10683890480515763], [-0.032952063370470186, 0.013828007931733347, 0.31191190193161306, -0.12823586712673965, 0.04965440420525221, -0.2854093208904261, 0.005262232992449579, -0.19049936589101807, 0.12216397989717227, 0.0714134467449236, -0.12594574166391637, 0.2253006004819933, 0.14919779863975835, 0.0488551763756073, -0.04971827959350454, -0.003993899376980568]], [[0.2998721555672126, -0.1844236268615956, -0.2817882614361133, 0.04966376214292105, -0.1491695664946302, -0.10304170110443726, -0.01976848665366984, 0.275710090923043, 0.1453139782304646, -0.07172695907040574, -0.22842017999315847, -0.14794225904667108, -0.13626905087368577, -0.3569941547435286, -0.28509805678530264, 0.05087459001878961], [-0.07216169988341872, 0.28598749880495095, -0.02603827334554237, 0.26304993140308325, 0.05671067041074746, 0.1724533319521393, 0.288884297557224, 0.1618280265172456, -0.17159866791188824, 0.1765510885350256, 0.002958185194873561, 0.17518140343370478, 0.09078104829165501, -0.2594585544508597, 0.2423145168247123, 0.16341462324759626], [0.10820772086849915, -0.2590917123777835, -0.49698651912596464, 0.04172905406277488, 0.009863569347690086, 0.08111558084176364, 0.13142063157871084, 0.18316505167158958, -0.02770744832255223, 0.12670390875443366, -0.08821563663440642, -0.24572182629264902, -0.0982801676781223, -0.052929122371332016, 0.1371291793797, -0.10690625007651494], [-0.1295484209014203, 0.15012873567434773, 0.17111274194747325, -0.17831435425960604, 0.12040533678728456, 0.21247846650041985, 0.06043070263885323, -0.005937249272214814, 0.040181853955201845, 0.11172974620249476, -0.25740769147373277, 0.11926616981058023, 0.154096175567823, -0.1162225662362077, 0.15930963799792414, 0.01627178247969096], [0.4238002064937742, 0.21016104510684544, -0.02044473373933162, -0.04631364100329226, 0.031486736442588224, 0.1800640281979466, -0.2471869469415325, 0.047204412388846685, 0.17856327748107229, 0.09290225128047817, -0.1693982926672596, -0.11348119714811732, -0.3246890828767276, 0.0037907942112912307, -0.029703059611309483, 0.09270000720874638], [-0.20111419106523812, 0.13083536261749995, 0.23876599743082003, 0.37651839664975517, 0.0874824325990701, 0.0631079598940912, 0.13408867789033826, -0.026095170427540927, 0.3546287941536507, -0.2406839953076707, -0.3528183488791973, -0.07604754196226957, 0.18238323446506843, -0.039499396448474486, -0.1231214877587932, 0.527439654501004], [0.4487940750879784, 0.07717192273750456, -0.2437306170795842, 0.04518337742068924, 0.06393331852853905, 0.14577381748561064, -0.17251803784715752, -0.168561341096002, 0.18627617691387557, 0.1899029854948895, 0.2574891787797451, 0.0470851955048282, -0.25341586583038384, 0.1842569574797444, 0.09186484405210014, 0.010159309397836871], [0.10958674662695574, 0.4261709212774312, -0.07327656370930016, -0.2725900886369724, -0.10516368746051091, -0.03397459599458279, 0.1666773786387329, -0.2850476141260388, 0.29025619930071545, 0.19322652761774559, 0.07690673258028789, -0.07321847458176767, 0.08958066917257665, -0.20782846011133146, -0.09129587495117963, -0.2668295389949816]]], [[[-0.3380454017052001, -0.11498557293418442, -0.22289148191211125, -0.18312656591324053, 0.08381684461071964, -0.023842373906285644, 0.08589919113568015, 0.3701022775143854, -0.12331711491693145, -0.06098385495155666, 0.014811850713300202, 0.062388189476009166, 0.26986002165298556, -0.23684352659969832, -0.06759577947905629, 0.03689459627410737], [-0.01704936099782329, -0.012388750671076419, -0.0647104133312923, -0.02161298245540724, 0.29930919226142394, 0.1523262625616723, 0.0854929475428669, 0.2204274601985783, 0.1842044930275989, 0.2981227584920813, -0.018330174744951005, 0.35391963001651755, -0.10346645212949092, -0.25332967909390103, -0.20320039768467502, 0.2868738945139413], [-0.10841763420646686, 0.07559039220947678, 0.11258432975029717, -0.20226986632879188, 0.19875155584368656, 0.12772387116434694, 0.013320872515750813, -0.4415002636205989, 0.23547427009587102, -0.3293897324358649, 0.04863999835693176, 0.10348874484482365, -0.0200424814288471, -0.07258527319466349, 0.2224927800306847, -0.20937584085540456], [-0.02590383541147992, 0.18279437306102211, -0.039773158319976104, 0.11588255186229, -0.0007825070469941959, 0.21364030271019654, 0.002604158962729615, -0.15331755369187713, 0.025529725284258252, -0.18593661946116927, -0.30084184112177725, -0.3853527874438948, -0.12363123379270179, -0.32605780854681005, -0.20224706756708924, -0.14573175835864244], [0.029590456191791813, -0.34725848196071873, -0.12646712154049514, -0.17251943075691292, -0.2508144222583472, 0.092467372220816, -0.1498642318593309, -0.006127102322539843, 0.17466882446281393, 0.05152590076754088, 0.24298292401568294, -0.16006330595899776, -0.052248715561124134, 0.16765034494232225, 0.10042962166242163, 0.10019638391742965], [-0.00019731084272118528, 0.01873583781472544, -0.21859238169784817, -0.07160522408261417, 0.1958559666605787, -0.06033209474525826, 0.13685415924279973, 0.08079396345742625, -0.14560995622271197, 0.10079252854755041, -0.11037656426557037, 0.09756577317820515, -0.1584756939325083, -0.043380661820394996, 0.11948542299708517, 0.09862518235528933], [-0.15454217471779988, -0.00767152913188455, -0.14479678133645374, -0.048811877206807866, -0.12049524296786891, 0.1360657357614517, -0.09854110704564002, 0.029951920301537472, 0.16654552825868452, -0.28853308957095425, -0.04969054566217714, -0.07510327304564085, -0.3593093899963137, 0.056922777388239185, 0.03527460754656007, -0.3539457674919588], [-0.19025284248783786, 0.08402129585643045, -0.12398397658326159, -0.219980765019362, -0.0721028975171843, 0.18469657647726473, -0.2333558305408017, 0.2940029460955659, 0.11115558964334898, 0.08415068489290349, -0.01770369190923718, -0.045379597588229355, -0.3222730142617505, 0.18391885676188363, 0.4091634057845393, -0.20383341428702764]], [[-0.1627129274725871, -0.13704969903410483, 0.09300803397967308, 0.0769832545961034, -0.25931316843295377, -0.13045956854345658, 0.15977402025849954, 0.33206775685801865, -0.26553450750460295, -0.18339621149381516, 0.12335106728227142, 0.0006455315460177468, -0.08302169464877751, 0.03404968894386979, 0.12037210310614747, -0.1596661014957115], [0.1317007376133183, -0.3785824858851115, -0.017951117622185896, 0.018393869590937684, 0.13352316749770018, 0.36435854254374256, 0.29023584241210143, -0.11033119217506127, -0.19523952345263587, -0.33835098123005547, -0.15170926698254614, 0.008886781607927581, 0.06518830088722953, 0.1282913278449216, 0.21038486089278696, 0.1678817569487943], [-0.21861317052637727, -0.15489242622045, 0.17599822710122054, 0.17358336534162538, 0.1733174115541431, 0.03707891900926534, -0.10818399379007111, 0.04208849610051491, 0.0004736624945940315, 0.2099141944908666, 0.1128461618897268, -0.11887834653546274, -0.07785503973186989, -0.0749228218283176, 0.0632657412355451, -0.0486991835824664], [0.2689351104357213, -0.050974288236120394, -0.12652209851042343, -0.0614866046767496, -0.022145469087506774, 0.17447452628291857, -0.1520160986421754, -0.17338297954499662, -0.17617919157918788, -0.3090817140580974, -0.01728887677341964, 0.10881484706181518, -0.07540395865891288, -0.09963905107429193, -0.05716432507243447, 0.12058039490905965], [-0.0931231646588127, -0.2311657519527648, 0.17606901357331162, -0.18146247568230917, -0.09298129800710433, 0.17162142674265002, 0.16074919605720112, 0.06633234962263289, -0.04217549764390721, 0.16399293618062022, 0.035778797638258586, 0.008343997475972972, 0.09121510272243107, 0.04248619627499205, 0.23277496333095235, -0.08289051497617439], [0.2793423067752791, -0.19927948982115049, -0.009517491994611951, 0.2800854966328438, -0.13984784203297454, -0.04409634215233138, 0.1716278251027031, 0.17166755106185286, -0.025078864126547765, -0.3322203549269851, 0.16311056021774886, -0.0877220273691465, -0.06602056368041603, 0.4340877236430033, 0.08766481270456068, 0.3256855423885531], [0.031414831718417455, 0.07191735795318022, 0.3205455642121449, -0.2101475127392344, 0.002456660180661607, 0.14382479853634902, 0.04117249814821912, -0.18731410057257486, -0.02442041551070036, 0.04861898971642618, -0.011179652787498783, -0.03830865597597103, -0.1500002113816867, -0.01772838719560564, 0.16746520169589615, -0.1351343473730099], [0.10641544789554612, 0.359639943549154, -0.050040055428783974, -0.10824232017817831, -0.20341070773055997, 0.20091378229019036, -0.11587859880651566, -0.0049606196301209375, -0.04829557500567912, 0.016236607552261525, -0.004867846800824092, 0.20500818587256284, 0.003644608673784815, -0.022068099924719992, -0.26285015468062983, -0.26481623709356517]], [[-0.1023094951016411, -0.26808110129763657, 0.12892738287437447, 0.3146105076343957, -0.11730385485644663, 0.08137225067869516, -0.2395604633034949, 0.020137350141210406, 0.03756751913571195, 0.06437556223768678, -0.11976817793747453, -0.20191835017165122, 0.03523369142574027, -0.11939061929321869, 0.1347860819256939, 0.13834774352234458], [0.2912201933474607, -0.022798286877179417, 0.1734708903873291, -0.09558560038126741, 0.1446951295980919, 0.2037637816704381, 0.22773446172908945, 0.010207259100049207, 0.005538132527848438, 0.3618620025904568, -0.20120925462623349, -0.017487954485001893, 0.0007792525476923872, -0.12789906806409881, -0.4128923218854532, 0.11285088714652927], [-0.3189437442742752, -0.1705317859727614, 0.14780307781509835, -0.2389365313149912, 0.1550538064962885, -0.03656823559758823, 0.04732706873277399, 0.053486675059925014, 0.2636987280177812, 0.3800859726893671, -0.32549796150993004, 0.25738391086325757, 0.10802535141528656, -0.0479861530058667, 0.012349039719384267, -0.05042049885191231], [0.08207567974571268, 0.06257978928975455, -0.2214897368011745, 0.2581166575166233, -0.17990137365283196, 0.01771130641179785, 0.15953830086839305, -0.3340312116835344, -0.0646463136531042, -0.11356631460581602, -0.12261559003820789, -0.034597215073243405, -0.13570650849104338, 0.053921550254192284, 0.05260987895873779, 0.019799072695737257], [-0.12264705471422833, -0.27176294973360404, 0.009144957696764442, 0.1707201732307571, -0.06450914826734708, 0.09404623237773126, -0.37211324238036847, -0.024879203106570703, 0.18546743034716537, 0.3095460658395063, 0.23580945217103622, 0.1327821542622327, 0.23531282692007066, 0.017499660080412056, 0.023590043384158623, -0.060234440121754614], [0.22617009656068493, -0.24056720001774307, -0.2936786460630196, 0.29415919451207156, 0.11506995614694604, 0.1699384943905499, 0.0017754212703484506, 0.09402886042991505, -0.17963266331426658, -0.10515774723594536, -0.08761122372575875, 0.39053642918086284, -0.016196791326944373, 0.23786949937478463, -0.15725711252002011, 0.23722215327636229], [-0.05228693312670463, 0.008152978845075404, -0.19368844893350673, -0.06768722793938708, 0.1680944523795833, -0.03922333616773509, -0.10990723468065043, -0.06722782477166343, -0.03732330606411439, -0.11621971118239864, 0.02238827736825109, -0.0019714201026568407, 0.06879778438099092, -0.15026733937735792, -0.33172801090937026, 0.12226591643224671], [0.2333029105961764, -0.0018601317969636271, 0.21496634253774188, -0.04616890163433724, 0.16595113612486417, 0.25436627194673883, 0.18014054199529583, 0.25459921583607714, -0.05882872636746778, 0.1376712542723758, -0.12964194497601456, -0.07766940674954728, 0.10859105677645191, -0.2545976890336158, 0.05023944431735173, -0.07202775114103563]]]], "b2": [-0.032703399658203125, 0.07546340674161911, -0.07045503705739975, 0.009359607473015785, 0.017723560333251953, -0.024399230256676674, -0.02458951249718666, -0.02256280742585659, -0.06521375477313995, -0.04650250822305679, -0.06694883853197098, 0.007494829595088959, -0.028593504801392555, -0.012156818062067032, -0.03805021941661835, -0.04393787682056427], "W3": [[0.05909992321217979, 0.11565178773639757, -0.02813428563445429, -0.06359780110769563, 0.07007564072277452, -0.09535300304505828, 0.005074164937227719, 0.016984846243631307, -0.097524565514041, -0.03583707075991525, 0.005592784518167704, -0.05947362114515421, 0.02161609161741449, -0.07881360681059282, -0.006741145319951923, -0.06625969138286188, -0.10174095230757216, 0.0096989905262731, 0.03433765677076335, -0.019421347196680015, 0.1637909004235429, -0.04150843579540662, 0.037012538471352566, -0.06299143321346591, -0.004822371097674626, -0.06255905952065068, 0.01993175608988937, -0.04765996224528411, -0.0027997226582115184, -0.03381677292862335, -0.11878339323965766, 0.06628901899654809], [0.011229976968077652, 0.019984026348634526, -0.04207124351583923, -0.10215764056199424, 0.010802887327353863, 0.04166140195889387, -0.002903896693437572, 0.1263803605206615, -0.043973491466126724, -0.061220335457398564, 0.06909475803303247, 0.08606134344598784, 0.003324781413164273, -0.037405061930208386, -0.07485999973090783, -0.05792353868875926, -0.004254553114710628, -0.09926272771730303, 0.037966275788988195, 0.0007354200129758534, -0.08230706632289252, 0.005367851174626426, 0.034821434848451724, -0.0578269866060354, -0.023465980079864487, 0.08504439206110964, 0.038649329091206705, -0.10709034890516535, -0.07526905877195322, 0.008842182105320881, -0.012003602799141033, 0.023503292575695982], [-0.11747401039385685, -0.06526021050108222, -0.08408297978654455, -0.05402883158726204, -0.028986128026045638, 0.08435382873212138, 0.08993297190375046, -0.12302221889907057, 0.09579952610729622, -0.006840692938494204, -0.042244810197457724, 0.06180060188164, 0.034328868251545464, 0.02367639545427664, -0.11999527300555558, -0.028682664882740874, -0.03840608464517036, 0.03615811488828096, -0.0631765580863232, 0.07387333966565575, 0.10833048543296037, 0.05083406422771424, 0.07083284876760294, -0.029951086953801883, -0.14108756502958628, 0.020791778816504264, -0.0709629177446965, 0.05444520343987454, 0.02520648288174632, -0.04839407901326297, 0.002124557593070724, 0.13046796247364856], [-0.06181137488574479, -0.011914271507635188, 0.01646581759655482, 0.06164811273285379, 0.0437372291701978, -0.05778691081897471, 0.08795571511025256, -0.028918070365478554, -0.07715952811201605, 0.08864282950834786, -0.09936200504786792, -0.0745726626754309, 0.05846692690766884, -0.026685287178727164, 0.0017519541608226818, 0.08496932584461639, -0.060961889935950204, 0.0523658887590958, -0.04314743605844452, 0.0052139195786927925, 0.10109575357960139, -0.04870864306458047, 0.04724203203071835, 0.07150357014772882, -0.020581154827945813, 0.020633537845940096, 0.05983772390034569, 0.0067777629138493205, -0.011788757875727978, -0.013655991251794399, -0.02771112885822977, 0.021106310752717683], [-0.08715979264177681, 0.061597484681511466, 0.034860597412286635, 0.02802116006565792, 0.1119357809493472, 0.05305892971189647, -0.01905404818626376, -0.12790171529493152, -0.04703740161691923, -0.015198082519068743, -0.028564991621659548, -0.0008452389324719405, 0.009523181497377013, -0.09191350497543314, 0.017455598642282286, 0.09688309603814552, 0.0014207392796953384, -0.031362121520838455, 0.0053853293711604985, 0.019157712857529683, 0.025247607463209733, 0.008004048794413195, 0.019278595783659033, -0.040686859935390556, 0.055213589160577926, -0.0685030247134458, -0.03509046317247516, -0.015672273165064136, 0.034929898825764, 0.006012660972706192, -0.14343714727851883, 0.09673837332141531], [0.010311708915773985, -0.030182884944275783, 0.04298854559369687, 0.03230945787365572, -0.031680841828632775, 0.07625815088403869, 0.03921026987596049, -0.04095961949505987, -0.07860555466750137, 0.03586226539035605, 0.05942637307525339, -0.08763873804935272, 0.08756119599466092, 0.005378616957086624, 0.026289185189218155, -0.006143824575122905, -0.055171032631033415, -0.013560838032574202, -0.06881675603527049, -0.025978711653005478, -0.0018299735794972743, 0.11296722402508205, -0.017380840051593058, -0.03389690157188627, 0.0659842008295818, 0.0014536226378895002, 0.12656821593594075, 0.013695341832518889, 0.0033735196135998, 0.05398913985678023, 0.04375463507048803, -0.0540885975897611], [0.051453835151293544, 0.07466305776384763, -0.06966372113323537, 0.06131959158018835, -0.002520968853858664, -0.08007941200662852, -0.046161851612402056, 0.020418611474709494, 0.011964532625888721, -0.1191668062577995, 0.007761270447069791, -0.05817865993385346, -0.08884462854769745, -0.06449972479389934, -0.04460623470246019, -0.018086810753035157, -0.002663831906005312, -0.10706330314169758, 0.059661985629105206, -0.057752978399826946, 0.030343945175282314, 0.07927054561078402, 0.024155506227617734, -0.1446255870237752, 0.011582200378613622, 0.013781700889348087, 0.06152174215707008, 0.1319678273048573, 0.035684214508290915, 0.035163581086638473, 0.03779345425230411, -0.04790766990513571], [0.014159262736476655, -0.034834571183657695, 0.06946959915791265, 0.0538632526152377, 0.011365691056552435, 0.07530840535948881, -0.06536236589314841, -0.04047917623747551, 0.03911631472872323, -0.016118552724252284, -0.06819155649079213, 0.100843688699991, 0.15364646338547566, 0.10805771031100882, 0.06099798119215176, 0.0008650336562798409, 0.014332205732830849, 0.13551250236884435, 0.07416179112300915, 0.11071218553860984, -0.09535143028714792, -0.034530697554603994, -0.06312647072939466, 0.048365660346480814, -0.005072828951548244, 0.05239903749004056, 0.07416550550278898, -0.04560372080663903, 0.0783266211654665, -0.04214766068227584, -0.06527530686343569, -0.05170028051745754], [0.006782275221481466, 0.0547783944013545, 0.06312325662483302, -0.08194280749460389, -0.07446764678141352, 0.031231916735142286, -0.08714553011638225, -0.05446219181859551, -0.032409061846819874, 0.08123634726953073, 0.07908920678811697, 0.03737544477295635, 0.00439606259596896, 0.008945804988594245, 0.005715066592614056, -0.012205472351546792, 0.009339921214217424, -0.09297424651730153, 0.0771398722308119, 0.02985878203461274, -0.007724592347811295, 0.0641674999721619, -0.03811658431274607, -0.0852602459464901, -0.06016019683049202, -0.11980425692486865, -0.16767638312165295, -0.08197731204495101, -0.02553848761746837, -0.026054325437064464, 0.07885031803125964, -0.0024216598428492336], [-0.005204087064893471, 0.05200407567809651, -0.10672694078447337, 0.07901589439260245, 0.054023972726938596, 0.02621791952543108, -0.06231469667146796, -0.031746384546550516, -0.038250255257046416, 0.08902621753199558, 0.05977460593660277, 0.07336257781502578, 0.003306680007120214, 0.08633781145236759, -0.019275908968935863, 0.11593446670932102, 0.0034241499420948392, 0.07702116838732075, -0.061107563909307994, -0.020432729384271514, 0.036490691180110515, -0.054126359266653955, -0.10200048760247588, 0.09346985327245096, -0.010887524947600102, 0.008768142703145958, 0.06414410766351028, 0.03076722293185452, -0.05207605565944835, 0.02661494475599965, -0.01048692522069506, -0.13010384085215843], [-0.007450369710465577, -0.10336808163473038, -0.08838697489663663, -0.03736034095850632, 0.023117874053221073, 0.01492259992817772, -0.07701269741984114, -0.13174990421560237, -0.017872526270311658, -0.09873623214232552, -0.0970124582216143, -0.013526816901475787, -0.00035867063181345036, 0.028381905685838423, -0.11569103749936803, 0.0674100456001403, -0.03366097762186653, 0.0018917261724002185, 0.05787474153720693, -0.02861056016850514, -0.03072552375889224, -0.001353628105055337, 0.011395450495699993, -0.19421919531450568, 0.0075010426138961556, -0.012004774242400103, -0.04195930716944888, 0.007792533600586097, 0.09528263741288033, -0.01652104357818725, -0.031313714777306455, 0.013254630777584687], [-0.11209147023779972, 0.013041979869795274, 0.0919488682248369, 0.0324161334132774, 0.0858206150218715, -0.015470358126087727, -0.0436288706995269, -0.010615869254601298, -0.1665259776339588, 0.05943104615860714, -0.02667845630359751, 0.017043612056671577, 0.0738008468627341, 0.00013278839072974064, -0.056254398610638204, -0.04691295208278755, 0.051211400967660706, 0.04940828922391665, 0.12252879743515563, 0.032204093424784405, -0.08783851940348752, -0.13683921922596134, 0.009273209326915128, -0.10310376536699183, 0.03278287267263218, -0.02190779265994314, -0.04257182040235502, 0.03359573326405004, -0.188610504248129, 0.0007153356599140206, 0.005855181003670816, -0.09717547874778507], [-0.018191389679767116, 0.011659416512992904, -0.13646009940574316, 0.04457099569033104, -0.037069064328427964, 0.0049837572671449495, -0.006154793975448648, 0.03318412486504166, 0.016183215495845955, 0.07113283984926387, -0.06384852118504476, -0.003136934885136137, 0.05775112971042098, 0.10202664269548264, -0.011375027566137964, -0.07425851823833389, -0.08116539505110744, -0.08321747293558765, -0.021788647113391686, 0.08198729505839275, 0.01698631489521464, -0.04003796691897566, -0.06120184392941661, 0.056894118354032235, 0.07117892587974768, -0.07945017597151678, 0.057228958041799685, 0.045360316561007315, 0.08805757092403131, -0.07778314251627405, 0.06834385565547427, 0.021534777787520932], [-0.06626972534079362, 0.04861950350416244, 0.0521068465921043, 0.10767583696669489, 0.023846940249656858, 0.032250964756295956, 0.01833032461253579, -0.0755595635998009, -0.11706123851651387, 0.09509079222717454, 0.06131510473881066, -0.05764397586502357, -0.11106489109725044, -0.025426919025134786, 0.008240658617646484, 0.0006362761179014348, 0.06979891599965485, 0.01241617848177194, 0.12378781362228064, -0.010032154432679382, 0.00103861905727833, 0.0008792136698849989, 0.028005906118255604, 0.046307633967262056, -0.022346769487103808, -0.05053246084957394, 0.012233699946145676, -0.004412762936760279, 0.02325500804100483, 0.09442195141945303, -0.01527125370997583, 0.029761316661477473], [-0.0805308800079879, -0.0421244754547744, 0.04618248871838839, -0.012435582068103324, 0.0860812609100375, 0.0840519067386477, -0.061523055537998944, -0.11234867349493652, -0.047277013493357625, -0.022828061825391332, -0.06948884020897036, 0.07000304031584814, -0.0042516914622164025, -0.025601765097640828, 0.04074610017733445, -0.050610855588418935, -0.07103471247804312, 0.024578436845672316, -0.009404073311612351, 0.023171887397857156, 0.09369490330890518, 0.15845701996650122, 0.012412122961902316, 0.024827921916202846, 0.03629287621927067, -0.10346605320682215, -0.013869519853804654, 0.02884723070987369, -0.026078574344831035, 0.06677156572547988, -0.10679018128866377, 0.037899245106689065], [0.03773862503501084, -0.023718688057180973, -0.026937364391492115, -0.04971655913149728, 0.06617283011642572, 0.10420409276915961, -0.0615557324163285, -0.07831291857028576, 0.006834705512543853, -0.013506319728979099, 0.10049712638193686, 0.03237194837891394, 0.051842555113978665, -0.0689681978736529, -0.008098003404399118, 0.051159834186534, -0.08735676366298004, -0.03917124030468695, 0.08059467138640054, 0.07258332911915379, 0.07869507850340612, 0.050496543680281336, 0.03431713521177086, -0.038072818103085014, 0.12791842355398436, -0.04577689071480985, -0.034985614147602456, -0.00126798823386788, 0.01337060615337168, 0.10896619530635043, -0.014353576523933455, -0.0031643241914534968], [-0.049055578810101814, -0.1493084057632343, 0.02586608794287852, 0.006375173943266903, -0.08230145465640991, -0.028209713836027495, 0.029643851798184597, 0.06919288476281803, 0.07020547524225731, 0.04699887268682103, 0.04848880177299719, 0.004866904986981814, 0.025054932787940517, -0.026115577282192985, -0.07114375777103175, -0.06714495516553387, -0.02911517629417766, -0.015323215347488718, -0.05606180877003573, 0.04724194350274211, -0.006365563249947992, 0.05872395128519828, -0.09077223272134632, 0.07225731494446136, 0.004701402987667693, -0.0028022124444295345, 0.07478867715048194, -0.011698921892180303, 0.026219115355001127, 0.043364819173926906, 0.018243467786535628, -0.04179865910816175], [0.025071718677929216, 0.013059937421082047, 0.06043690581683691, 0.07044151557283991, 0.05090377681820347, 0.052557331031296825, 0.0950521175854444, -0.04026100141432813, 0.12730156992525876, 0.07167216721773036, -0.05729882399419228, 0.012715545856034946, 0.010241401265972975, -0.02340564666694148, -0.10202815442935075, -0.003005074597877772, -0.04699295590421056, -0.040002311116761724, 0.0032240235386477726, -0.028487331999755203, 0.06292243134757479, -0.020717565557052852, 0.03867532734342272, -0.007962852683142027, -0.11462726384105132, -0.07147017064393674, 0.07328913352179088, 0.003136022609296956, -0.054351400709277194, -0.019179237294099514, 0.026503492673494985, -0.08444140381896836], [0.0972234377052839, -0.046771638952008296, -0.020727410254269604, 0.024696115633236926, -0.01245084008014946, -0.020276939902456752, 0.09887005628250471, 0.05331605996220271, 0.023285196587768665, 0.07033571714558438, -0.011744592933320499, 0.03290302267992545, -0.06679066178503933, 0.029828751555977754, 0.01589365916737778, 0.025569195290815895, -0.01897550144200902, -0.056756623094602755, -0.07135090411734074, -0.05935571167686907, 0.07174978213192768, -0.044337923617988724, -0.04745087218913465, 0.026368287567594715, -0.013297695098198099, -0.10462631841520273, -0.02872038715126513, 0.07832591915199323, -0.04253815325362986, -0.010101999164929982, 0.08601231899932972, -0.02126928760191247], [-0.004970592109523393, 0.02496925747394543, -0.020060648586116985, 0.013829696142432315, 0.02924619587213385, 0.04930782207559445, 0.02155045682280437, 0.06779384997764391, 0.035198728613890916, -0.038819795594976496, 0.025841149415866734, -0.01390383849276149, 0.028795640672951133, -0.0035464884750155408, -0.08031797300140321, -0.12524070234457366, 0.09808337066724182, 0.05094778211038323, -0.09383096024391911, 0.02185015405456063, 0.12259906896081586, 0.006065046231788007, 0.0661816981303491, 0.04364518561439545, 0.03789025826780595, 0.010537419660766762, -0.010348324378458378, -0.04355613518824133, 0.0054415875794638245, -0.0032883483096776598, -0.12626882980695914, -0.14057495564936376], [0.05112707057635163, -0.07203000555521263, -0.055493499214261235, 0.04243532137821643, 0.10119720151595152, 0.013259358816849342, -0.0211888429889883, 0.03906627667290482, -0.03888840637369474, -0.01664823350929463, 0.082128428799125, -0.09134881984536597, -0.08788123311442278, 0.06800794235783386, 0.07764682933847702, 0.04786461240614225, -0.03526680059680011, -0.012750490801576711, 0.05564329157674507, -0.017726916446438878, -0.07433880167632298, -0.08929459506045766, 0.013739659027402035, 0.027591996578548543, 0.03471816987273055, -0.08128453097650806, 0.0987196347396688, 0.017618867505229955, 0.03600079164910795, 0.03416920464003647, -0.08761399074853, 0.09999592551763781], [0.01875615079584013, -0.0696203841547402, -0.012858612700602692, -0.025970043990735468, 0.18501470460457253, -0.05098294764846667, 0.057568793831384524, 0.15047527444215744, 0.020436563372995646, 0.03146498570721101, 0.028776713987128853, 0.09288368956231757, 0.038471691217455826, -0.09583452778212721, -0.027166113774560335, 0.07127675067823759, 0.01533804857138839, 0.13855193846296363, -0.05284849024816149, -0.12250917691880732, 0.07338509692252843, 0.021905254849912386, -0.0056242665425825945, 0.12824524737663606, 0.02972221371830417, 0.028913088442912432, -0.037028016736357465, -0.04220616075041522, -0.04830914338792229, 0.037773685034312054, -0.022893356256686332, -0.04558072655609548], [-0.05084542420453451, -0.0024234448953131043, 0.024583973110120252, -0.1037765782422291, -0.07119622754570554, 0.06580810529650771, 0.11554615669996023, -0.03009986010320086, 0.014031691367815213, 0.08862767486036159, -0.0023850258115587666, 0.0009965315189812496, 0.010433902209583255, 0.04470887377387847, -0.0036950935226280892, -0.01320177698309582, 0.02939504782178554, -0.026628016549813966, -0.049807852298344536, -0.03355421849863511, -0.0019932965352596546, -0.07762827535448999, 0.02951883120952611, -0.0454994192544347, -0.0167288233449722, 0.05456670757456366, 0.005260883889715685, 0.02364281566191547, 0.007037362286336647, 0.06272336675131757, -0.0088876421324136, 0.08179234711236451], [-0.029401677952741723, -0.026640766358962988, 0.019033733198071633, 0.06399184753600333, 0.0077273617417716, -0.046413918835786716, 0.06297527999238335, 0.010025255545497512, -0.050990384188995985, 0.02440673773411477, -0.03153121867987031, 0.04850879246358819, -0.02431889310577045, -0.02547650379210953, 0.030898247564588633, 0.008775650851134437, 0.03629319630625408, -0.014856541713913712, -0.04226250252144146, 0.03311236908567348, -0.017224694225562047, 0.10394993999750754, -0.0035491569374553034, 0.08218372317099527, 0.05567588073939527, 0.0903852225844908, 0.020926155264800805, -0.14022097610566267, -0.033524410501359306, -0.028650480668788326, -0.03617252753686801, -0.05603533465000828], [-0.0031607174752407226, -0.02148053594717177, 0.07179347936155929, -0.052461163363702476, -0.04047664618590425, 0.07698263966248804, 0.06137362315437197, -0.1279126583111292, -0.11084308148648726, -0.14198276942793175, 0.005386069262553081, 0.0923428483204549, -0.04368320539266471, -0.028730546528771776, -0.007947434426999083, 0.037437071958743816, 0.0015714288962544807, -0.0731823458498786, -0.04843643355199275, -0.06177779627317591, -0.05043939170194651, 0.006511667621586469, 0.00025885340540769686, -0.06839950994596597, 0.053987143918017275, 0.05700016354724311, -0.10450847728425909, 0.0025524012304442224, -0.010679315119184206, 0.048168632538116554, 0.018855204363482172, 0.04532506028232176], [-0.06561330086234762, 0.081254159871305, 0.08841465806180722, 0.013026916901841669, -0.001500719249745675, -0.07081528808962903, -0.01318547311859112, -0.044898358384698564, -0.05650323084086211, -0.017045008474939033, 0.051102023921863506, 0.08471344445304135, 0.07865672042782688, 0.0589024315403329, 0.13623630523060987, -0.0056104369621569955, -0.029855360629821758, 0.02866606524775503, -0.0374053366477529, -0.005985903322350513, -0.029381206430369535, -0.020674295551430414, 0.03006542541153861, 0.0468244118281054, 0.048117464086205854, 0.0771361567133896, 0.01906661190968105, -0.0393849173079286, -0.01587255322237149, -0.048064504186018445, 0.06224027272385668, -0.03668025258785336], [-0.0823398932898527, -0.10056631894709114, -0.07195050522323401, 0.007428248295626346, -0.027157001957901095, -0.072183333718503, 0.1050740616256768, 0.07569364358736919, 0.08007430698618295, 0.007922132754149668, 0.06296592733411661, -0.016462599091919026, 0.06545978977361624, 0.054349582001302084, -0.03846876715831257, -0.03111149763766328, -0.022526449634389233, 0.04408539009774303, 0.050435112002926, -0.05892570207661991, -0.004146857838946839, 0.050553064484887694, 0.022739327398246245, 0.13971219325269027, -0.1259821648655687, -0.05874420253010402, 0.08181590444197674, -0.07261965650730469, 0.025287272239213645, -0.029133455934065303, -0.04333821264669518, -0.019898498728677053], [0.01507736946902618, -0.16712718696133827, 0.02843966381073393, 0.03673817707702843, 0.013403235733183385, 0.04825769686557412, 0.05729193264610789, -0.03896304699495103, -0.028760124984846577, 0.07014226870656474, -0.09707484426889604, 0.07555711874063925, 0.0036864076037677086, -0.031637040517155664, -0.03412156098463238, -0.08345768811959411, 0.09581632487249318, 0.09658439764240494, 0.018093959780270553, -0.05218004460865138, -0.07183987812219966, -0.022908104104851435, -0.036811688268702396, -0.05255787991320038, 0.0319988365170732, -0.04939733831292303, -0.0851866335522816, 0.06468411439306627, 0.02316947333725585, -0.038759239865067664, 0.06908431897337883, -0.02930064624510352], [-0.0685042964591854, 0.006878505457102665, 0.08709823802651866, -0.07318566934846522, -0.001431147787090235, 0.06054324167443746, 0.07511834553309901, 0.15328146961926553, -0.005359381983836012, 0.006763874338238965, -0.06482150094544814, -0.06371244042308909, -0.060892036717567925, -0.073349913432815, -0.04358221017569645, -0.05650714051011512, -0.058503934544086984, -0.044329415769105235, 0.04088915982969835, -0.06370514342590432, -0.062070931952190454, -0.06181107851060251, 0.0380995292691092, 0.05599172276291604, 0.0887329198689781, 0.01711283233964475, -0.004459290671065696, -0.03261933519894425, 0.05169070035075578, -0.0016967316887878715, -0.0780956049651547, -0.015727661891311823], [-0.04365774873314059, -0.014314297294604943, 0.06781947193343975, 0.056505652225959394, 0.00906323189560096, 0.001955662204550236, 0.10300831656933822, 0.12625214419724914, 0.0041396529359050225, -0.14908188914772427, -0.13209772008167758, 0.044112450561481956, -0.022318570781204375, -0.04201305013818851, -0.05659609224116923, 0.10726842026175061, 0.025638579606745336, -0.025416822925026852, -0.07333179993346414, -0.03806663432252012, 0.08243934503491851, 0.03900454943461052, 0.03462156269611286, 0.011276776414435011, -0.04008824748848544, 0.02753422192054728, -0.045098832529530515, 0.09118580394933043, 0.06777330415343882, -0.10054306459664168, 0.04954149252274713, 0.006086671463055772], [0.020541480396392343, -0.028523597750958266, -0.14186293548322926, -0.048354890138349864, -0.10417852453281728, 0.01633677741913032, -0.13907240302410198, -0.0874122951792995, -0.02612706308763194, 0.029315416667164695, -0.10023111149697832, -0.015099537484329966, 0.06846020682933023, -0.1314457123875265, -0.018603978230162417, -0.08200752073607041, -0.05966168203961007, 0.023546901435295926, -0.07189213345733202, 0.006138674267375871, 0.01411413561123478, -0.03292828920021659, 0.045906793574091415, 0.04078744367211123, -0.0146734512782642, 0.04227048194848818, -0.09961938274384359, 0.027030121269883547, -0.015049506345987514, 0.03306249162823388, -0.030370001539745353, -0.07454277841854827], [-0.009415371075910358, 0.018103713408132563, -0.01293636106626305, -0.09344622654531934, 0.09077622740690673, 0.021980324086176745, 0.021174328989510684, 0.09887095306130549, 0.014614194299562054, -0.10447735674881742, -0.14858846720325228, 0.14321880278006296, 0.025125965298906327, -0.06496130678940637, -0.028584996060263365, -0.017841649389348763, -0.025457847435163092, -0.012396175772195244, -0.045959035633805316, -0.014038032902345964, 0.18193287029351735, -0.08772919226701095, -0.05418223376086, 0.022920092556186416, 0.05493012378622247, -0.04622632339069201, -0.051033953368064155, 0.010329706888991805, -0.020526309328475437, -0.01739351904782962, 0.03235387670913929, 0.0735952110412889], [0.07271429231738467, 0.09106447407254147, -0.10110865228163293, 0.040110154463073006, -0.20757118555221968, 0.004715604382824078, -0.031521991624235385, -0.04855282607891416, -0.0899967718193385, -0.04874238614615177, 0.031814595034687865, -0.05547800377579826, 0.10178030933921273, 0.07987660073880037, 0.006879329927317789, 0.013108732540613708, 0.12863303586826685, -0.039288395220346856, 0.02591099674751935, 0.014060411764029048, 0.06271170714749905, 0.038064784590131615, 0.029153830274928193, -0.04094501793367397, -0.12751416083163924, 0.057019977528276464, 0.021126661262684518, 0.1292427646130241, 0.03268019970531617, 0.004475801300620296, 0.008713824717429555, -0.02644887565182569], [-0.004345330460628868, 0.034378555417415746, -0.1949877406205855, -0.040858379624939184, -0.03050186006652227, -0.047863361357434075, 0.016733180703889607, -0.18853274267021822, 0.1446202673258924, -0.07586481926211244, -0.03464497430639874, 0.061183511983199046, 0.00668686095896696, -0.008919465565517651, -0.10330399870862038, -0.0021174288261856054, 0.1523952082798784, 0.025710075926211117, 0.005403659473544541, 0.07491971055132755, -0.06475109357124514, 0.014804277500897122, -0.04074953932427486, 0.04775650875112717, -0.037777028070815864, 0.013641992527365202, 0.04216510618242908, 0.10768591047257327, 0.05875970180064075, -0.026526302956642524, 0.04211982847006306, -0.019201862710886867], [-0.037965647117028115, 0.06633283221504152, -0.006838770761308381, 0.07442816163904335, 0.030278726576725954, -0.011308772301815137, -0.07335255791069023, -0.02609578035672614, 0.0003902710705517102, 0.04838378844162406, 0.009147126885260105, -0.005593472892154375, 0.03008052532758231, 0.0069817337610649614, 0.0719726269773225, -0.07484813462433444, -0.05112777922501344, -0.11049379597321651, -0.02733204231988204, 0.022564836523838113, 0.030672326210303715, 0.014460506562500341, -0.04915389196613984, 0.013653287011182002, 0.08916912008825485, 0.05921415996300888, -0.05261963537393412, 0.02953890051780609, -0.024759143036550028, 0.03920098431238358, 0.09318737598424252, -0.08439018232483123], [-0.026884471505605256, 0.05726156361270706, 0.0774202166829762, -0.009585612182245075, 0.054733046004149855, -0.005947115974871239, 0.0048584445088315515, -0.06447627210071412, -0.025065160701837137, -0.00888637352850987, 0.00036257214640775536, 0.00037229138449992785, 0.058303946613897796, 0.024527397027143974, 0.10828132339198517, 0.06235786746956737, -0.004558021629785549, 0.04120877347852201, 0.12042743438667633, -0.033450290901015235, -0.04802748707056574, 0.03202659001861969, -0.10170300746299883, -0.019814960024767972, -0.036873362929700206, 0.10764188685352853, 0.06137403126502921, 0.04775019008792376, 0.00036208503722371613, -0.035047397782628165, -0.041744929956171524, -0.013351394462091541], [-0.07006458375668362, 0.045821610175480317, -0.019408762946784744, 0.045125860627201815, 0.049877956010663596, 0.03509089881587967, 0.07334590323627642, 0.010292977665042263, -0.14546459839354262, 0.022845350105885585, -0.029042968844383264, -0.04304943779020969, 0.078125709102346, 0.07221927430943066, -0.044041166729560974, -0.09675647340907598, 0.06091998651051806, -0.09749228454517542, 0.02894162866480309, -0.03724042324295088, -0.06439695342392651, 0.0021658570997705805, -0.051441770883116286, 0.027171659013256022, 0.0008709794220913932, -0.007125447847478829, -0.026298872361478726, -0.10928352170171689, 0.05650419846186814, 0.06927095156545089, -0.016673167014733446, -0.0029816085087501177], [-0.05156603361197252, -0.031009111089215186, 0.000536602891105185, -0.0442236224640339, 0.10981031882836306, 0.004955522175363773, -0.02136368292270836, 0.09160884162055871, -0.07586197138641085, 0.04690364249483535, 0.034488637334655244, 0.017368029944970192, -0.024775589678058766, 0.05920716587386769, -0.07017487881165319, 0.0160096198187919, -0.02171981335186078, -0.025974433244975642, -0.023409387027294056, -0.07335719968169602, -0.07035405879713605, -0.011890081060305306, -0.020626087793599614, 0.04963684493536639, 0.0780651307229176, 0.030175404106478412, -0.011112050421451868, 0.13217620928995197, -0.12477239875669012, -0.04048723369611264, -0.05407238729472085, -0.024647823690242335], [-0.0528051445996235, 0.14980964839337274, 0.04439473336297229, 0.08147927207754875, -0.09595248228730292, -0.0016378771433914901, 0.03437430580058474, 0.09658057994731802, 0.037298387504022305, -0.039275579104545086, 0.0390694609626385, -0.001280093420024767, -0.18775096034613967, -0.022117141923052072, 0.034780137054695966, -0.07568707507766953, 0.005599223115258385, -0.06489066018183257, 0.15239671518340703, 0.09915557453898864, 0.005379346239080083, -0.047147113143256654, -0.0788286387191157, -0.007618744916909656, 0.05025856812037782, -0.013611296941052228, 0.08216844923138811, -0.03962196911350546, 0.033250970976733525, 0.013039798927517828, -0.04080088756366294, 0.0015517365730445254], [0.010944083033159057, 0.034376375761143864, 0.05303168009544783, -0.10411469296420633, 0.08899499813427174, 0.006554810670535327, -0.04118803990562959, -0.012857958848726793, 0.025776911652219354, -0.07551356478288748, 0.11865898719298984, 0.015085958784189259, -0.07608648896552324, 0.021810494676841347, -0.025989848161071062, 0.045570229114992436, -0.07786454999484099, 0.04785824939715771, 0.07167423465491922, 0.009135101095068078, 0.013967487270839393, 0.08710940410518528, -0.03339860909795409, 0.054039444211006996, 0.005446620816810349, -0.026196044888343272, -0.17122353432509774, 0.016936114792465557, -0.05414871576473792, 0.013658952129366632, 0.11813661134485846, 0.04636523238368941], [0.04768703587822301, 0.01993244462726661, 0.022163218996551628, 0.05413875024723451, 0.04787043736755741, -0.0028999523700233344, -0.03848134906161171, 0.11668712807418945, 0.09628618340101716, 0.09327720779044471, -0.032234917695047695, 0.04837593784189858, -0.06720267369344436, 0.03811600124420783, 0.034880899756161675, -0.03549301866501078, -0.01747860330036745, 0.02532745911123235, 0.03592206542242454, 0.009437968575272753, 0.10780424444874022, 0.12539291529598268, -0.038599236165063444, 0.06433741470508511, -0.16877527183203017, -0.0829224295740821, -0.01676245459080271, 0.060992143959650115, -0.06976587908080557, -0.13306668252092416, -0.06949720370725991, 0.07754677745390219], [0.09522956424668491, 0.06267281251118582, -0.09303754984427912, 0.006754679334446361, 0.00526269885383012, -0.04061841524991835, 0.06001221634732893, -0.014223308592724927, -0.05930780450944651, 0.045980224933479356, 0.013020162926083274, -0.04448833501122645, -0.04004416117271904, -0.04401473992391471, 0.008681151121136266, -0.09225014007497224, -0.020316441127242235, 0.09867605762328867, -0.016284545218755938, 0.04699216295073839, -0.03342214839377317, -0.03702310741211872, -0.011971938046444513, -0.018842173223985882, 0.013751164242751633, 0.15018049665438063, 0.0483066252976137, -0.07399984445207626, 0.04901601925407676, -0.010272356684844, -0.05058337965505354, 0.09669740768875752], [-0.04584234695003034, -0.037480644742149925, 0.09518995666614909, -0.020706357547515715, -0.018999843103159178, -0.06085212624219171, 0.02526722266217963, 0.06979819915481818, 0.021138480354291656, -0.0701222383539544, -0.024387398946939476, 0.014875624994912946, -0.004444276673548903, 0.013116783498345117, 0.023196607732622172, -0.008222386383756556, -0.08062753365160544, 0.012045370020658034, 0.014983024089056666, -0.043748284955809215, 0.011954326008804403, 0.003487196627986337, 0.03648502480863754, -0.002209771263006521, 0.0809574908486221, 0.0021492635127016014, -0.043045306996142986, 0.04800707082579412, -0.007398674304038279, 0.007029234278756527, 0.009626709587441967, 0.024580947401059167], [0.11632075834280504, -0.034268212340724656, 0.006639695119278001, 0.01220145701573013, 0.08818077459800491, 0.12237680625674627, 0.063981973789691, -0.01641129498547877, 0.042068751670226646, -0.010848094547162289, -0.11191189992808477, 0.09494076777434, 0.02160262274143458, 0.015032156370453693, 0.024232759998846082, -0.0030519536194167263, -0.024661863177293686, 0.03624847826752478, -0.004156126930906076, -0.03502631782683465, 0.026220063652330317, 0.021927915886952518, -0.08046149260737151, -0.016908470297169097, 0.09881425141824836, 0.051620925887286076, -0.023451034960641482, 0.07707208306265334, 0.008153705959901027, 0.0684117546258145, 0.06532461147634325, -0.13634695501660424], [0.020421147658374703, -0.08667468452299812, -0.14485907427627948, -0.02421990357489659, 0.09235057827895192, -2.0825646856464834e-05, -0.029014951386432095, 0.011162478621134899, -0.0076634555353251865, -0.048287851932441346, 0.0547166326849846, -0.042499671831962384, -0.06488303819599783, 0.14148013942418103, 0.04125979971291461, 0.0853650698066341, -0.03330033074324906, -0.039200199529938425, -0.030606206748233854, -0.02668730937058306, -0.026503108191613063, -0.021941994990298936, 0.011326489198516008, -0.021617457541605465, 0.022395823959648866, 0.0027377965182161946, 0.03307441423832594, 0.1083506114665547, 0.16615045023249697, 0.05777696269604616, 0.028668254709632333, -0.06572418354339987], [-0.09120440895653398, -0.07390298507044293, 0.12804549840263282, 0.055564465121698194, 0.0693461997939792, 0.028294816993282297, -0.05141137139300766, 0.054478077727260564, 0.04741167395627328, 0.05746848180161016, 0.07917023780304286, 0.09437892648933346, 0.023379730706383554, 0.00800897399556752, 0.05743863809706445, 0.09352452498173196, 0.06240804391464014, -0.12767506967572975, 0.06953739097587952, -0.019729504816883334, -0.03398815536899424, 0.040670201966659214, -0.015377857597100008, -0.03341971915237032, 0.03371483913482031, 0.04131295545488255, 0.007504529229234589, -0.004504237144663028, 0.029716968132054586, -0.07073234840562687, -0.032689488115889606, 0.059387989170360526], [-0.07447246764221166, 0.023615170231962312, 0.04152447668894218, 0.053557183645821335, -0.1438367303392532, 0.013293091829173001, 0.03085137667353368, 0.05362240620645923, 0.07614417842413825, 0.002381456462102184, 0.024441982046958393, -0.03643485313063583, 0.053373446104367415, 0.10553325270529308, -0.054408394025003345, 0.01970656285217809, 0.008934444516980134, -0.003120936885023854, 0.02220414320018057, -0.02161210103445365, 0.005534376361638442, 0.010238151338553814, 0.034303266728219935, -0.0003967893755800186, -0.1066264099472203, -0.031217841508543846, -0.044827701734119096, -0.03866711451297249, 0.05855031909223398, 0.004457951577402977, 0.02888445602176857, 0.017771419294585113], [-0.005917855731875464, -0.008490710361562898, -0.02413867376925431, 0.07643223653687889, 0.025186148047881572, -0.04422156568792881, -0.0025262817558726015, -0.047790973776859945, -0.0339026297182482, 0.010190152060175392, 0.08509267265578405, 0.02183353958324472, -0.05215876288362179, 0.08107430405658954, 0.07117574198950428, 0.015323794895043097, -0.015556663500095637, 0.002632260822324071, 0.07335871237919302, -0.04307018323588042, -0.05321301424862779, -0.03298127193068694, -0.03934833147989355, 0.01101202404038558, 0.011127203869913891, 0.0016332428873534841, 0.09519052139927084, -0.01164736094579646, 0.0057193033032838314, -0.06743569322871532, -0.0313205410820235, 0.05642586654990995], [-0.07153280963797769, 0.07317052309945193, 0.04961735475827966, -0.027233227941791446, 0.020480534832816016, -0.14270649397256185, -0.06621532153510573, -0.06847922484549891, -0.0959705539071777, -0.02160792456331246, -0.06110446137543859, 0.0007031205456789356, 0.033908797921651315, 0.14935383073690486, 0.021792762211864998, 0.04874749312132833, 0.045187742809269085, 0.0505126055940984, -0.04150004056163731, 0.01877764682727921, 0.0782648538365616, 0.06694888795807949, 0.047141622807197615, 0.002467886271914773, -0.04856905038899548, 0.04625059327619285, 0.07553982851757401, -0.06758546429886539, 0.06899384626635997, 0.008440054977875545, 0.05493387446727982, -0.012816491225258585], [-0.12453165688401677, 0.04099445694199387, 0.010468240559305318, -0.043749194333617715, -0.02806247425484308, -0.09181766460062439, -0.1001056951215894, -0.09719280166117318, 0.010279028930105934, 0.07138123596607597, -0.08175498995855283, -0.041974054552262566, -0.04627103393812196, -0.02723044744036093, 0.08001569136379358, -0.08861381380159623, -0.004318097690636043, 0.004423237250273528, 0.04413065746108452, -0.007119531892694887, -0.038931197694457916, 0.06163532859875043, -0.10778883585677106, -0.06933869602881379, -0.05492181982394077, 0.06669197007074651, 0.0020588237777812825, -0.04262505389884089, -0.08275491045782168, -0.03205898532358819, 0.017982818932074412, -0.03671242216672972], [0.004990114175730148, 0.05866627123869887, -0.08557326792662542, 0.19701616010651146, -0.0062632823316524835, 0.036459803347657437, 0.08104682854906999, 0.1149048154419121, -0.028078066940240547, 0.059983043356600395, 0.0006012744659260588, -0.11047438643109547, 0.0012568594001677094, 0.017435958010533752, -0.023597247996714057, 0.011657756919073347, -0.009419170500623188, 0.006519101784322209, -0.00038765221956004413, -0.12484517472988196, -0.019785175903648335, 0.024046168950687345, -0.022253998564947586, -0.01515292347011967, -0.058673630786199756, 0.0758975977026174, -0.0437507331972258, 0.03329306490059019, -0.05773875971650409, -0.04005242411194684, -0.032131206887981885, -0.02021355704047891], [0.02126104848415042, -0.009282609826232384, 0.03790657886654808, 0.1267521036137404, 0.14111273332032276, -0.040411836442651845, 0.1146286375757028, -0.029975365521706838, -0.016422467858432557, -0.0386024008445589, -0.0155179934475703, 0.09796411451539398, 0.01989443464132618, -0.09910818048596771, -0.020582701433291464, -0.06414453565938628, 0.10800312154240092, -0.010186981640701758, 0.0388688230272348, 0.03524342782553013, -0.018147124776340163, 0.025749133705218624, 0.061454670055986156, -0.07776519308624696, 0.053754706848955905, -0.016442462571155406, 0.01582833621262802, -0.05692630436577806, -0.13063843055676466, -0.03909972772033314, 0.015266015212121826, -0.033046802801230436], [0.05565413031874839, 0.03240547644549136, 0.012189731135957522, -0.007297940187602174, 0.015473988509236949, 0.052574648877754766, 0.06941772895407457, -0.1149224193091496, 0.05544507322409669, -0.056118527932486076, -0.042489678473027245, 0.03868170699001526, -0.07197286021920797, 0.03700450497816073, -0.000830649191771584, 0.011567760680743168, 0.06825839131084643, -0.0062247409228167044, 0.09674598207331037, -0.10554291043345823, -0.007732260471603877, 0.07976047388327227, 0.04040337159397853, -0.015296968261894318, -0.06399648578876267, -0.044236506740802616, -0.08366416717771098, -0.029061471293401215, 0.019771796851041655, -0.009286277712312371, 0.10918013405503937, 0.012565413413915068], [0.08930339327035901, -0.04288306719851125, 0.03998018333942248, 0.002236044427793236, 0.0007173300657579285, 0.11641802224290601, -0.009111955044353887, 0.04002969213737206, 0.03820067301919799, 0.04231616947022215, 0.008072052760353407, -0.02736427651111745, 0.13376017991708902, -0.03797932169191445, -0.11218399393691683, 0.04938828332962214, -0.0798134963297171, -0.08718064624233189, -0.08336822178622157, 0.11889064700984281, -0.016871491823087347, 0.03262148593750252, -0.002779547110474962, -0.03432933618388738, 0.0043615535513099575, -0.021667986172259793, 0.0033097318536748385, -0.04559735168829431, -0.026384949153507305, -0.06277254420311659, -0.0072289908916690305, 0.0675174471658696], [0.006559552469959929, -0.05643038163853912, 0.016511950916747353, -0.011555988665772987, -0.1611573096665285, 0.015756023006431828, 0.006918750645843107, -0.09681653913288302, -0.048403951898581495, 0.03884364367047374, -0.04381304996412836, -0.03175423727545847, 0.00768371889614726, 0.04148558841520987, -0.03707810029449903, -0.048904779463894786, 0.02928827564435684, 0.1250964999649124, 0.10384429349036071, -0.057249677798921754, -0.016061278286526485, 0.13214083298635776, -0.06971707268131797, -0.019478134124620742, -0.019891732433361873, 0.00027249576311829066, 0.04741836561001218, 0.023488370825105322, 0.050070021841201566, 0.015977535776760268, -0.09889685893334992, -0.06446507792296932], [0.01731233406432633, 0.07315179612415658, -0.03789942344309683, 0.003334900992328186, -0.09932529766140957, 0.02035208211688514, 0.03664616560830373, -0.05881627811662806, 0.08803573224671986, -0.023663809438480066, 0.08793349052018137, 0.007761930336410785, 0.10528398954320205, -0.01469648649588435, 0.010778410091963285, 0.029957669636870198, -0.12857926421541946, 0.0004643619083027132, 0.03666368546079566, 0.03644778059747534, 0.0372547955414189, 0.03883783049128598, 0.04957185387906544, 0.007405441949171637, 0.09280057537870237, -0.021456776981195066, -0.027324862634947544, -0.040633116001810986, 0.05438286431766122, 0.06072620158073519, -0.11417255465297092, 0.026292576671220147], [-0.026954816363167915, -0.046421981206583224, -0.005676243509349422, -0.10949483394128158, 0.08190529509422101, 0.016705633236450947, -0.03253690814318081, 0.03848150071773081, -0.019903713327915233, 0.0609630982985396, 0.0027814950743226415, -0.14405163290960973, 0.0022827522949483594, 0.08763484942791307, 0.06686008741987876, 0.03525972000670781, 0.030243216030273235, 0.006054177580196017, -0.031595035533332094, -0.031845042544037756, 0.07910107127206373, -0.04471360145033908, 0.0020372273185928756, -0.009618002147253979, -0.025807203848001777, 0.012040150879485716, 0.04809035124780833, 0.03194888704325338, -0.03911489720260076, -0.03524393749572889, -0.022775310812387685, 0.054641918707332246], [-0.038542814999091235, -0.03645104361056995, 0.14036401086905853, 0.05083422626118649, 0.08407833538303902, 0.002152962942571797, 0.04488178507244837, 0.015567460224750888, 0.010710511781538505, 0.04951251619214581, 0.08973614982959284, -0.010873086414112354, 0.02860197882069327, 0.03863715107629147, 0.014453286393080475, 0.07525925984465076, -0.018629995450194017, 0.009495399108986804, -0.0676575734753307, 0.012390118095163037, 0.04734604845530053, 0.028666125710885393, -0.04157435521393898, -0.04671013647237932, 0.10393025005549611, 0.031301253838430146, -0.056456758121782115, 0.023111752879443708, 0.045621246690954756, 0.030512236104116637, 0.044610199187400536, -0.0250387495752433], [-0.060238695597829676, 0.0763711880906735, -0.02245022420273732, -0.005988891744698345, 0.03013876072610117, 0.08239267067481945, -0.035822657793191534, -0.04110670668782963, 0.020352633051705652, -0.05191978124887882, 0.06982630510468708, -0.13923153369788077, -0.0017657037965523184, -0.06487106228918235, 0.020084377458644574, 0.09015246824690927, 0.01494227796354994, -0.005314718303140387, -0.09992874503507299, 0.09470418332162531, -0.04039032360788182, -0.007352347017857462, -0.018712843811947672, -0.022817287210348734, 0.053954461946130225, -0.08705376446461627, 0.039307930529486224, -0.07682867828507504, -0.0935376237310452, -0.016402944861150785, 0.04074269156948728, -0.0189029650293638], [0.10284143320551926, -0.10844879756523683, 0.022895221775809528, 0.11169560454723627, 0.013866341943721631, -0.06128877773316736, 0.05420138266744026, -0.022409571814934793, -0.08904052185842518, 0.0574495378850684, -0.09168562128302422, -0.014568119528876645, -0.017076727166146645, 0.15471590623793274, 0.026638580896704303, -0.049545694178899355, -0.050061217773591925, 0.00971161899989618, -0.004667555795137227, -0.05837521973901627, 0.1191627185932306, -0.026418427695143624, -0.04971227781313199, -0.03895680240883233, 0.04025728491357373, 0.021411259048443612, 0.005150698167968724, -0.00121943575996571, -0.03444942177363353, 0.04846927696853893, 0.034197601572520976, 0.10406871114669307], [0.07026367109279862, -0.04756018836267937, 0.001677231237764003, 0.022972462457692435, 0.12493030926927533, 0.00898473585251482, -0.027356688675275787, -0.0363732499728614, -0.06699235651750964, 0.03631527163573641, -0.0031878457614101957, 0.02899777309615004, -0.10943537977961046, -0.07475725083127295, 0.015820408356208317, 0.05346827575536866, 0.050054077535888856, 0.07895092265003718, -0.06644856868481387, 0.09203276348872023, 0.07651920041837734, 0.08070592963488794, -0.05032581818118598, 0.03521869154331485, -0.02307327216750512, 0.03651487162390324, -0.04373822340745624, 0.06837554812132045, -0.03153421676535618, 0.03556329990248613, -0.17500253259795306, -0.024051820235156715], [-0.014067744560485934, 7.854420121125289e-05, -0.03237288495305603, 0.048760334280932724, 0.06380215831236072, -0.00031633753486552847, -0.1072820614564976, -0.11496144854969005, 0.010646775242121554, 0.016739988053485026, -0.08143898198566842, -0.10086603266292495, 0.028121645474111716, 0.07686038553030053, -0.026486865970997427, -0.02379110853688153, -0.05112393108625538, -0.03720449337816012, 0.0262567410991856, 0.06794640907866152, -0.07085293293774304, 0.09375484177890842, 0.07245662792491729, -0.02451741373640652, -0.07831534462521743, -0.09652013657854494, -0.03554528594660922, -0.005453594500888572, 0.0006684134541806169, -0.03324525272933904, -0.014585501546264357, -0.011541979965937988], [0.006643119682242978, 0.02399093203703984, -0.04172645687761144, 0.004565804326362886, 0.08658984370012678, -0.008503931356473694, -0.046138936890704245, -0.07011409316604218, 0.14211621567645663, -0.023208760928422487, -0.0010677100297457095, -0.018475968942707807, -0.04044215400423832, 0.019305154596388475, -0.0774756056463618, 0.0659817939852143, -0.013086921603493954, -0.14607556510160993, 0.03829402671797247, 0.013832801496463303, 0.025834110579155262, 0.10849192645811297, 0.031005416777571675, -0.021884867885362234, 0.03934782923328995, 0.019300715107725606, 0.04392179539249671, 0.058285818042509624, -0.1055803969354878, 0.011576912148427343, -0.065505234245073, -0.057363977769816034], [0.042363358215460556, 0.053299395821833635, 0.04288727947744184, -0.08376127098077348, 0.04159660570137292, 0.02393438713031947, -0.04830427182515242, -0.0016823919865894524, 0.035378360973331156, 0.040701017752366404, -0.03060035107162939, -0.031943018437201695, 0.017092331714334507, 0.019348401029279472, 0.024956413486838212, 0.01673359284605941, 0.038408134264463954, -0.007401735499379534, 0.013707041218410904, -0.0389296983354028, -0.0252651911349834, -0.007628538246463539, 0.048376704470898514, -0.02876247874262696, 0.005445182456578388, -0.11479336030375911, 0.019647173661284465, -0.12081440485837483, 0.013305167892917632, -0.07667005762843838, 0.06760839494599923, 0.07845637136260866], [-0.0264606871412964, -0.07627534113293685, 1.2408089541022512e-05, -0.002470636069835284, 0.03940311887772813, -0.0077233128421103706, -0.0498725050131004, -0.011326090137494598, -0.06779682971184856, -0.04025735941454528, 0.04619694699708155, 0.01936112328488073, 0.07871668953441463, -0.11576357917319179, -0.017494402227578375, -0.06014359635594859, 0.09614912729085437, 0.04035643777696875, 0.09305510914022022, -0.06560677781255993, -0.06686899237801044, -0.07951225930383458, 0.07569448897061908, 0.03943440209830392, -0.006547595520705295, 0.005654968058526467, 0.06220520651603049, 0.058444778703694966, -0.0002889729147370595, 0.027468644385592895, -0.007818944382394891, 0.09204635777943802], [0.12188509628894777, 0.042965366353159326, -0.02275359304274319, -0.05812603572905268, -0.020157608141469417, -0.08585541240499822, -0.04173473631558136, -0.03818174176583852, 0.007156645073597476, 0.002669336989376597, -0.010091887431081314, 0.02945759975566347, -0.04378279580979395, 0.051797765775007984, 0.019335763109650957, -0.01743885572627083, -0.060542364710322844, 0.027145320121149723, -0.03478698531932547, -0.02136666089363001, 0.06984527738342439, -0.007436156244403783, 0.09547621952614652, 0.053704354104132324, 0.004734695557970855, -0.013010548082798999, 0.08130275915351816, -0.01240711037669509, -0.0730277565330663, 0.0703494985512004, -4.671475125710729e-05, 0.0231845848158734], [-0.07878951771590402, -0.0776789207829899, -0.034392310525061316, -0.034844935255104785, 0.06028445589221967, -0.04219898109869377, 0.03274140510193939, 0.09173949209565928, 0.04062295034741079, -0.04848231352084672, 0.02738168863509757, -0.01977931747695992, -0.033116283134782126, 0.0002602341320263545, 0.03288930896716123, -0.051850941455241495, 0.06644339406923117, 0.04160225927634005, -0.049030550501265126, -0.10971848027161926, 0.0035470801701717436, 0.04820727040863954, -0.06822861817461155, -0.1396478877199924, 0.1184555838521647, -0.05442232439723192, 0.08206502852908472, 0.025363442468059442, -0.08249174712170575, -0.05593189961305319, 0.05841346056687903, 0.000782774328074863], [0.04989393808902337, -0.10475528463181359, 0.07308709022546837, 0.0655817038136605, 0.13846143197757713, 0.06770504232715906, -0.0022032203664802104, -0.04451062561379171, 0.07670823067989917, -0.1013196734427032, 0.07286280848147966, 0.0017718058030625284, -0.08016550622606926, -0.020906098309168484, -0.06191546018633412, 0.05029981815656053, 0.019502267822848474, 0.004208814918164987, 0.023967367470210804, 0.011455079203275048, -0.06794238197500484, 0.0916242611539706, -0.014509936558962884, 0.08981069355431615, 0.001518564025496792, -0.1134588302681892, -0.01829217814604306, -0.05804678468115408, -0.07604699386235232, -0.032996491782476454, -0.022701568891300646, 0.0515997456073188], [-0.0041835943762422384, 0.03908921980371511, 0.027221451427311603, -0.11330559689652524, 0.04796322334838199, 0.07011527524481657, 0.015640172531642696, -0.01101958135782535, 0.0516574253668723, -0.011771276648109617, 0.010168007465132314, -0.04610726977498737, -0.046143579950097255, 0.04125495653314469, 0.04502774518047233, -0.04563436896502004, -0.0411014997119223, -0.03445567676645458, 0.07735504485057816, -0.004393823364347908, -0.020694491511502214, 0.005831397819928694, -0.0580444787348059, -0.012895069467057476, 0.021086358535290672, 0.0012495685049473582, -0.03618812090550429, 0.1513828609726915, 0.1075998398305676, -0.04906747385779112, -0.022429580068676316, -0.03572212124050098], [-0.11522989658434267, -0.0804048348498239, 0.02279925080414236, 0.013869464985904021, -0.03967109615838629, -0.020908268886940064, -0.001671069207515324, -0.06895530489717842, 0.03410392777865744, -0.07061265798859091, -0.16390829139227162, 0.028468685296636296, -0.01454274884761126, 0.040372940834999746, 0.05430443411813505, 0.09545705672683172, -0.07612442042136726, 0.026787503038779373, 0.04161959165513288, 0.11351679775717233, 0.05897490414216098, -0.032019077203356, 0.004017569728652228, 0.028685512090132422, 0.1445100878968725, 0.0661911610487918, 0.038293669236184026, -0.017021839312483803, -0.01760913940712382, 0.0029392863799855445, -0.050166746784741104, 0.10551668843748929], [0.0425323122379217, -0.11209736596441952, 0.010697357915034815, -0.020989073066416144, -0.03498656628420295, -0.009257915287806302, -0.026252241107347824, -0.10432072933400474, -0.01843095620416569, -0.020622092930980305, 0.08555580886128705, -0.01927507570477363, -0.011502573036078897, 0.08402666733369764, 0.05843311794655554, -0.08523274759243157, 0.11606732680231352, -0.01232383705050811, 0.10873672530007418, 0.027613479293592383, 0.04187443863581617, 0.12085504260755331, -0.03614984347240043, -0.0740987055724765, 0.058639992687242494, -0.01803292420598806, 0.005179511425150517, 0.002041059632876051, -0.002566302004731122, -0.053151052627000456, 0.0104353774131183, -0.0003041739721208879], [-0.06490820453452098, 0.05962592080362609, -0.07243235244940899, 0.014976445538232875, -0.09295847628949801, 0.092880685205354, -0.14072041812152436, 0.011662042451445948, -0.05636149236225635, -0.017466371183038537, 0.0739895984890333, -0.15197799852396993, -0.04179395110401684, 0.033194770389766405, -0.09787807675566863, -0.04647834674356945, -0.06779101505610444, -0.02689767008137798, -0.08963018800102981, 0.002789034100420816, 0.05885617191338537, -0.04493847610746392, -0.037391430302169584, 0.04337602314214627, -0.004692700583080038, 0.06739411494333965, 0.002923629717467422, -0.058439237203665874, -0.08401660741182389, 0.08100612297518606, -0.016634733405890386, 0.005075626981640258], [-0.008927835665154397, -0.05986286037331599, 0.013331308431157924, -0.029199604019636012, 0.12974756772850204, -0.028380270382790104, 0.09997028189068162, 0.029436468786137062, -0.10906477070858604, -0.08550699880004933, 0.05479678376917444, -0.003326618813555785, -0.11909946291727479, -0.002651753423778243, -0.07934248934528533, -0.03648450827674063, 0.03258715392288707, 0.06198713979688145, 0.007359564432238201, 0.0733351264814533, 0.029391453140444914, 0.09764848500760022, -0.0807474559254709, -0.023271857005864795, 0.057035124964066625, 0.052772715065043115, -0.01155056603576938, 0.015868220085900275, 0.02185696878996028, 0.023420965915198926, -0.022021402310452628, -0.05379143099176778], [-0.052117005067061455, -0.009919499153754171, -0.09063482849898993, 0.1230207666569332, -0.10004330168102525, -0.0222417891778861, 0.07602476930404004, 0.019861021835217686, 0.04847622069263326, -0.06807648843111708, -0.01451887905101168, 0.05423522064693336, 0.021589375189480033, -0.09484471512063716, -0.014001123913273081, -0.051732446662342474, -0.04718531766237788, 0.0086498300475693, 0.011991105624135067, -0.12298386101575583, 0.1565049483450106, -0.03570166315764797, 0.09530556385007652, 0.07379414863120173, -0.035716462242999535, -0.015140955358035512, -0.026459479185597913, 0.0157125392430374, 0.030729946227921894, -0.051013881430237766, 0.03837693503637237, -0.018373743032865975], [-0.052675750145365186, 0.10317414625609832, 0.0249054857687406, 0.023772108367537865, -0.04194690282638106, -0.016831214746194246, -0.008035425658177976, 0.047951560506907354, 0.014360362539234407, -0.04656593034115518, 0.028221353833971917, 0.04882562715251314, 0.08516886521823294, 0.03162408605975734, 0.09089139606131451, -0.08165006246724663, 0.02847615308118043, 0.011587442101308592, 0.010712290066891061, -0.0945824453510171, 0.11749850479518145, 0.04059950897170326, -0.10817720019291997, -0.025309415270656926, 0.017607511052356823, 0.08876455580029517, -0.013199533367525707, -0.0038108133454654316, 0.042255052590677925, 0.09131368827306419, -0.023391450644940352, 0.08503383880562153], [0.10703198227899427, 0.011903125067081721, -0.06791808821461237, -0.07489697412570857, -0.03167517030226454, 0.023950202443017352, 0.024976632291186237, 0.08177652382176866, -0.008764170172144991, -0.007646457527763974, 0.009484725195378407, 0.016618348436483518, -0.06462391928724566, 0.03677165164209022, -0.029749869046985074, 0.04878841641785507, -0.1707642195049982, 0.03177686998448327, -0.0340930765115286, 0.020425810414968777, 0.12832421132744146, -0.0778190855642868, -0.02341267137865696, 0.017441701354699, -0.008463483741637499, 0.049125165697391136, -0.06489051139725012, 0.011871094555690525, -0.0800845159097437, -0.052845498716814925, -0.02448623271248649, -0.06792197546778429], [-0.04033879212267029, 0.057862786624665825, 0.0011978544973725977, -0.09909616197601584, 0.042437567294024356, -0.043201188391725785, 0.018512671444966478, -0.047281068016843675, 0.06911414477891749, -0.13378085769744133, 0.02176380648394551, 0.07065025667447634, 0.0028716702725155494, 0.06010753812761924, 0.05201838505899223, 0.01770405580645202, -0.02162365988857467, 0.015423334167969763, -0.04519346111035405, 0.08576344718940711, 0.008422793576907998, 0.07115187368312495, -0.00029788553608846514, 0.044922032415940456, 0.023460506414556277, 0.03718927210637779, -0.062323227793056345, 0.0041128542023176244, -0.1041381823958289, 0.0005076177990926354, -0.011944050499441954, -0.0635586647803197], [-0.08377028052696149, 0.03276788348954, 0.06946190990978549, -0.0076757830407678945, -0.01838996199328469, 0.08040374449273548, 0.09851376237762338, 0.07885471628712051, 0.024948048828043308, 0.042683354907747155, -0.0006641923046264311, 0.0002096224331375339, 0.0769740390745929, -0.03906113399747071, 0.061917271545800935, 0.05747442548166097, 0.11147877496701661, -0.007720875384581458, -0.01605581132512608, 0.014046239548582274, -0.055127883840572, -0.06973080536684, -0.006289622641027125, 0.009219508635247033, 0.023110185290920616, -0.04945610860011534, -0.0009101075361888977, -0.014506286939598673, -0.04858045739493706, 0.024134003435476056, 0.0821191964473448, -0.06204757272870708], [-0.06479680695851316, 0.05172978338281057, 0.0028280125223206555, -0.06285416439764539, 0.03899922528030649, 0.05578814585282361, -0.03418309384114143, -0.050760681439522504, -0.026633647079000813, -0.009620291927033288, 0.023424559500190505, 0.07894071330710409, 0.00655002134429174, -0.07914179424360239, 0.08027534547288653, 0.13231305012613337, -0.0517664503376256, 0.07092048570218802, -0.03058148662851451, 0.061999127653757986, 0.08273147406122133, -0.041414816130166086, 0.014018047806184123, -0.024861717235760528, 0.11478295858243294, -0.06954903763463033, -6.900965786065673e-05, -0.12269309810577685, -0.05306750616381438, -0.0382271165553112, 0.012536862340789646, 0.09298124984957569], [-0.03718114595363941, -0.051282546192702214, -0.07155888380202767, 0.07207814360420078, 0.02972349984304586, 0.04405237336570463, 0.04022507436743358, 0.006500163766570338, -0.033501189577766946, -0.09276532166311681, 0.03717845849016462, 0.01486974555453959, 0.030589809267855813, -0.05439550583045557, 0.10058106362417961, 0.0012488256859524273, -0.05173584339953181, -0.10287746539515172, -0.012357468806132227, 0.06104817706237601, 0.006681114986851886, -0.007972312618178596, 0.08042500419988988, -0.05341116160949067, 0.028863934045087178, -0.00858633235262664, -0.027374074681727156, 0.015346961450672564, -0.12090304848463403, -0.0810503345519892, 0.07015005634153919, -0.06710355933077543], [-0.00957089228992008, -0.04983716512454065, 0.10699076176622056, 0.04420299605620827, 0.02397159711888252, 0.02872384977104024, -0.023491960647275573, -0.14649602955090868, 0.02239699631177942, 0.021669136041603247, 0.02053599850344251, 0.09045630586283743, -0.012384994058819779, 0.11769408260309368, -0.0557089949570469, -0.01685858931539085, 0.08538466928166838, 0.12140743111015005, 0.02816620032400309, -0.07890179650360153, -0.1657315965698313, -0.006844477352487114, 0.06563501146504909, -0.0239852063940254, 0.010202468359065691, 0.031120747316034807, -0.02868563138858598, 0.026567218176247645, 0.11722415875931617, 0.08894461704024471, -0.05571239374998432, -0.08153154104671906], [0.01076168518654459, -0.09204148485958925, 0.03615584292036315, -0.0747159780328375, -0.0776673653824036, -0.09664684942718589, -0.008782503783099254, 0.11863144710315211, -0.08585303909851937, 0.07252564847058822, 0.0826707449346209, -0.06261139204774137, 0.08509392561390484, 0.033667883711425324, 0.03890882745704921, -0.0362613708288851, 0.04638044784143287, 0.06566352736878242, 0.12275942204368545, -0.029200294305673776, -0.020377230978203174, 0.040887454217272946, 0.015255625745587082, 0.08319641555074696, -0.03516460776856589, -0.05331931785202745, -0.03832009877497028, 0.03299940205228958, 0.019856870129707542, 0.06973096388641496, -0.033137345802432376, 0.001765044190771802], [-0.030302479494983332, 0.08384127475896537, -0.06357163823605158, -0.02489810223159203, -0.06528923324117412, -0.037595101353391454, 0.0029098098535505603, -0.12117868960039507, 0.14011458425362203, 0.02713155823950816, 0.04492066534215214, 0.022024228173447482, -0.10601002646929417, 0.015502405895948484, -0.02831054598852275, 0.07130240004450407, 0.021058925804957954, -0.020679501724123892, -0.09039193087751567, 0.026451070806631505, -0.009458236251490348, 0.04369029597828334, -0.03651468141210937, -0.04328207056293567, 0.11219896562011429, -0.07687887628365123, -0.025166823696704935, -0.05102698789417899, -0.07960377708037795, 0.06650204765748922, -0.08422426614863009, -0.031844429935898845], [-0.027826373891976033, 0.05733552962807765, 0.05408998233176483, -0.04251550002103316, 0.016319737889549733, 0.012057195696829589, 0.0819378059653434, -0.03981893043489682, -0.008682074281701667, 0.08655456929275192, 0.03869080445923671, -0.09939107280933343, 0.040742818671487144, -0.019904099256321323, 0.09157564880757194, 0.013984642306073066, 0.044725959424578784, 0.03654313638140607, 0.01091988940513025, 0.05410438975851886, 0.019918510859959975, 0.05271239886311652, -0.050559935252774045, -0.08713443210279151, 0.04481803556238756, 0.09686100936902649, -0.10470145819430725, 0.04910537343871632, 0.06347179782264838, 0.02738413827627991, -0.0015694212206190956, -0.008429749537558416], [-0.09769313196431163, 0.02748335530536435, 0.009974148293188096, 0.02048180685000713, -0.02589237988421406, -0.09103613495920229, 0.08419406853277311, -0.022893781581283374, 0.06569169155993611, 0.02483803392469411, -0.0281078863102844, 0.0428717649542763, -0.016027215229836297, -0.09515395985446255, 0.009255640171544231, -0.01153355884975322, -0.030565875473984812, 0.024252626395592485, -0.0930154346253948, -0.08636142033667463, 0.01641102209609449, 0.03414022902055262, -0.027159490298840346, -0.04920476923069301, -0.08863492146851527, -0.004273553679793093, -0.031176837289174912, -0.10357179488574408, 0.03233760687463417, -0.017685879810971295, 0.07321196888572504, -0.07730482525844908], [0.056797440243264975, 0.008528026039511296, 0.041846083120709844, -0.04322212957602886, -0.011930387043006311, -0.01621181903781244, -0.04312514250017524, -0.062495056594235564, 0.009692429079633207, -0.0028660975399754447, -0.0010595905099876361, 0.03751272779970736, 0.08009008642915759, 0.002594374815168477, 0.02209609125160022, 0.039531507056894274, -0.06425428941617556, -0.11018303865424087, -0.03853076780915777, -0.014924305414160727, -0.03698316235999436, -0.08016003433036538, 0.0792724435826292, -0.02997720140406486, -0.06614904777940406, 0.02738693888276584, -0.1144806370978298, -0.0035993801879425423, 0.03619822370354594, -0.0657837798932338, 0.04300810593109048, -0.005534993306221161], [0.08103290679325334, 0.09101965497783543, 0.01282064639737565, 0.07806371621949112, 0.030916056214372982, -0.06570563454641523, 0.030758526251004708, -0.054933056574478466, 0.019220293487639026, -0.02049481203769721, -0.006237456873193009, -0.025072882348564956, -0.10169276232319759, -0.022276529655843907, -0.10940246329788116, -0.0025748211700823984, -0.10050961096304507, 0.015118276709960824, -0.061960667778226314, 0.028142912505215542, 0.12215770485654981, 0.0472722587250097, 0.022931738105739854, -0.0774863357113224, 0.02006950815466969, 0.03931251229129995, -0.01873610367839974, 0.041663394047415585, 0.01741215611868305, -0.0615462317185754, 0.03639738097321222, -0.045817310194602105], [0.027276533655251615, -0.015383981468373721, -0.00011447536271199929, 0.021819429110077986, -0.04910701203289823, 0.019607294396123274, 0.07114798403404388, -0.07666728347441323, 0.0414789335563847, 0.05663707070380329, 0.07598568151629113, -0.022105042032069883, 0.10155280296567498, -0.05116747837119651, -0.024970979944768625, -0.027582970323111553, -0.01379514757456608, -0.02735590383856331, 0.052197927415627295, -0.07068282587912564, -0.0022388393600772582, -0.07256789355239453, 0.0530379743168601, -0.016860308401519326, 0.02315197140412454, -0.07463408024900323, 0.040241228607592855, -0.046233394358161616, -0.022280096616872247, 0.0007084033675470808, -0.03925981619769807, -0.02813632533514472], [0.005293698917235804, 0.05399540516752971, -0.01685769382163033, -0.039301633386308855, 0.06170485656842109, -0.01901742707382014, 0.027632396011612822, 0.022306911949580982, 0.14081827798608196, 0.11221814779299981, -0.06288825813275088, -0.01675822981774539, -0.035660853685612975, -0.04011672048668571, 0.06176182786583148, -0.051860814516736416, -0.11001912998180337, 0.11227677283889245, -0.00812999508176319, 0.03217433114879771, 0.081017937012587, 0.10860564436759401, -0.03512311684731781, -0.09630565659956385, 0.02454239905787958, -0.0588358801372722, -0.0799777757850826, 0.10325934680472863, -0.01953802069608541, -0.036385295060760804, -0.02580663557650136, -0.08931434381650045], [-0.013336697742836617, 0.037733790729679646, -0.02541718702869211, 0.004170362588073772, 0.20518700231799472, -0.05943039069164379, 0.013526279855037935, -0.12351342242606515, 0.0279261632808925, 0.0588116906390223, -0.027469281997347484, 0.06450876696602706, -0.03494514244801757, -0.03734662508362457, 0.027006123361217407, -0.018232393487280084, 0.010697754016737632, -0.0911561312089434, 0.09657941865854111, 0.006525534423360818, -0.005101906486521672, 0.2221403629067277, 0.13102101829435753, -0.03273380400252285, -0.04527037863996713, -0.032356637321547824, 0.043159893854373986, -0.049595902638436266, -0.10731174666413093, 0.02256697043871126, -0.06476357686277741, 0.07853134580511051], [0.03060148631129024, -0.05589763269910526, -0.0136354751635006, 0.11270071266888193, -0.0592814877146219, -0.06236197053255214, -0.03360953900742217, -0.04318342834087783, 0.1406045696163869, -0.09213832419353112, -0.06744944962858489, 0.014217141670317079, 0.07229016688495299, -0.03776427545745706, -0.02161148178893344, 0.004736515419263243, 0.14181277697454267, -0.025391296489838545, 0.015000519794724816, 0.030856989347135155, -0.07639289012300632, -0.12839169045730606, -0.12281139525075385, -0.08744820124097129, 0.06329091283088678, 0.029608819808488417, 0.035497499371390316, -0.056903330115271884, -0.08212579580859293, -0.06721452443459683, -0.07987553857195676, 0.08348129967273568], [-0.1613884980403949, -0.03937324128298763, -0.03699080803722326, -0.03647219594200182, 0.024201466229658696, 0.02589089192716652, -0.053190663255253894, 0.13468887860471424, -0.04334934813446044, -0.11082015888348525, -0.09854212577523898, -0.055101901601682476, -0.060158912704424077, -0.010272320780746459, 0.047414565252177146, 0.1150818689644726, -0.06851605951546837, -0.03462376426249759, -0.1141601967576096, 0.04050867245036406, 0.04723036838537945, -0.016637618433262606, 0.03795922620268419, -0.02950441956925803, 0.07317866474084438, -0.006487506875071204, 0.03066866527541954, -0.11564496120181884, 0.0288716836954869, 0.007113036456455549, -0.08096821401005691, -0.05816953838273039], [-0.07027297883012291, 0.035918527343239574, -0.039858936884206414, 0.13812738257760823, 0.19059095338081009, 0.039713486601440466, 0.11664108606735799, -0.14560752147292777, -0.062443969676919904, -0.0312877821655496, 0.021543993304890076, 0.0029416637273522767, 0.0010842250936132737, 0.034684520192948626, 0.07932280072123106, -0.03586016422756891, -0.09681749482508636, -0.03296026931538166, -0.04634148893164313, 0.06850920458072525, 0.0194779788170299, 0.09326416834088393, -0.034614210192495665, -0.052126304108749334, 0.05236080246750278, -0.031099560257924007, -0.0975346944526725, 0.03412954838115629, 0.06508660179726808, -0.04880824378653346, -0.032819320216769046, -0.026961124882946552], [-0.06364130470992706, 0.04968889444551109, 0.0452143315693347, -0.011895258520670433, -0.010286390243035409, 0.05547974550323233, 0.044598396141214455, 0.060277206322065215, -0.07988720184901471, 0.05825407599714103, 0.012149175519472184, -0.09439132162763052, 0.04838124219012108, 0.01620412401457274, 0.04269546763408902, -0.015589396182233277, -0.0503140230794765, -0.018458560449130485, 0.03140863307832213, 0.01616724054796681, 0.012256953458088601, -0.004569279587343712, -0.15031138337251257, -0.08569240098480843, -0.056651759112872596, -0.014636422710596429, 0.04502164680521283, 0.151457041593338, -0.012269918794882553, 0.049856798795784946, -0.02471318327936945, -0.07014704926068023], [0.027255122272207097, 0.07168061941716579, -0.035359820389240314, 0.037687248929466316, -0.020115409402026326, -0.018666720320299302, -0.08811787977802273, 0.13234831218750984, -0.04768726493588125, 0.03570315001206134, -0.02131502330092366, 0.0125155482259802, -0.0237985356673781, -0.07297467188610585, -0.09539602836321638, 0.04717432940802277, -0.10968974482230583, 0.02517512707138989, 0.03640399301393138, 0.07878940509342879, -0.075064377184423, 0.09183831139322023, 0.055693578315048516, 0.07857683894070328, 0.05347185900169751, 0.005242940832857897, 0.024814305960264665, 0.036076094882921246, -0.038324132151524685, -0.13798581986213426, 0.09731834737360774, -0.026608512710319963], [0.007783286937216054, -0.05986280582756976, -0.10067823815035574, -0.0629415681608304, 0.13191128733051108, 0.017421015705834986, 0.01032676549036514, -0.003914841505270971, -0.06603453734353482, -0.002898651553898616, -0.001352233351790539, 0.05370533735987511, -0.031388671915426665, -0.15632219595493355, -0.02075027110717609, -0.06829984107821321, -0.08802522940317392, 0.015895161753714204, -0.01847339781078983, 0.10437634221683534, -0.012774753906332178, 0.01168466439177152, 0.010332639852458728, -0.14713123514481882, 0.0035379223600198505, -0.09024404766183959, -0.0894088029817037, 0.012762369577000478, -0.021530448602463854, 0.025963784385952288, 0.011685545035976503, -0.14393680307883722], [0.105810147689231, -0.036820403921421885, 0.040562501871151076, 0.009370278394362457, 0.07892751262119992, 0.036019470052939935, -0.0040523906686718465, 0.07554481590849121, 0.020238602900395992, 0.015339193079506467, 0.05087691075259577, 0.06519982452757447, 0.034313349324600735, -0.013702032530470169, 0.057872230959466774, -0.06982044116162014, 0.023510151876115527, 0.009603748709806051, -0.0005373651895536858, 0.07497119936405526, 0.07409438560164916, 0.14035050608992078, 0.041768466784286126, 0.03477174045093166, 0.036931420589795615, 0.09866101503831602, -0.039516871348175824, -0.09844017862297653, -0.016751565515446452, -0.025334198371295247, 0.0958236408530716, -0.013068764756801873], [-0.01662695316220928, 0.043423919457968814, 0.005710973802834528, -0.053320212845485916, -0.017553892812320098, -0.0895088489012418, 0.09538595621352422, -0.05488530500683649, 0.07410461806562396, -0.08269475310149194, 0.04198259901370895, -0.10643025868106007, 0.04371863131836988, -0.020854898024904856, 0.022749934365186103, -0.014942811639173806, -0.10086094838567397, 0.08728639458593966, 0.01882087234779881, 0.06329826078734709, 0.012283896766597224, -0.11092644686562252, -0.025907666206948232, 0.14886447408383954, 0.04429662896095663, 0.01538606002568947, 0.09862227521001342, -0.027848884148107825, -0.001267704334060162, 0.0170214451759701, -0.028449207371223126, -0.024279914872223914], [-0.13500298874239408, -0.029383131810093263, -0.030444378886731568, -0.010254464488327958, -0.1250557117320407, 0.025045457443344396, -0.10036670643029438, 0.10785702916194397, 0.003709956494047683, 0.07008490079263062, -0.020003139840815247, 0.08440859352488074, 0.019832947014547832, -0.018579477426213162, 0.049907350240337996, -0.020341045564260946, -0.011793455040548946, 0.06452225364976068, 0.014326029987689382, 0.06492851570955645, -0.0889052847942473, 0.12700263008563623, -0.078787230513315, -0.008341594854494157, 0.03169694313619457, -0.0027588264597494016, 0.07220138656671396, -0.0677759645920198, 0.03401311810535756, 0.02210428449207321, -0.0007650231099734972, 0.04153054017265189], [0.12073171127446503, 0.04289946210371742, -0.007351847830647711, -0.15490148831987646, 0.12252716792982236, 0.08439887883178915, -0.025546994583696723, 0.09566982030320673, 0.02920330952484958, -0.10546384481978274, -0.011152325354348841, -0.0487911232726659, 0.1437714684415555, -0.035302803739062215, 0.04437305232287197, -0.07858800919825248, 0.07545696535301798, 0.06472062374042066, -0.032487640724607865, 0.025242978936018706, -0.023710366652951776, 0.005607166389767817, 0.04767807899715277, -0.028183273618689268, 0.004203181923583614, 0.01291096882829694, 0.008562239683788084, 0.04087681206934717, 0.03645600427203089, 0.03912247520315278, -0.043257547921939, -0.05368094362749356], [0.007021934931483763, 0.05652633679210292, -0.020781294887762022, -0.10149222127292586, 0.06131064131710247, 0.022716462439912516, -0.10575051556432483, -0.15767599534706406, -0.0006129162123411419, -0.010950738423303318, 0.04740805591075961, 0.09056494335565293, -0.09595624586320048, -0.06184601025468169, -0.038355276316502866, -0.012376865691039567, 0.023037412341006813, 0.03841805254227471, 0.05065619177229188, 0.06577954836028092, -0.027439945454758103, 0.02326979808192847, 0.023898237865482445, -0.04279858440983525, -0.024531797275273947, -0.0004963247846413518, -0.047056169626434254, 0.020581747200244128, -0.01889138466183418, -0.043969270553815505, -0.016543601070364306, -0.03361503247072571], [-0.13921673412949012, -0.05598125362392135, 1.377019605473015e-06, -0.06012944325607963, -0.0459798457477604, -0.11147019615944002, -0.07405712418892216, 0.016642915592592063, -0.03021315169652443, 0.01629920056196366, -0.022487909092282442, 0.19217538593274328, 0.08023237385354891, -0.02348573955058184, -0.05819323895001718, -0.09733746084039338, -0.04845194297651824, 0.0036859086283511696, 0.03645682393570553, -0.055824310519943854, -0.01589664677584652, -0.05876524943717977, -0.05752603547583468, 0.02430516376221831, 0.003357760593317866, 0.018408998233327617, 0.10542404310436403, -0.06668577220010276, -0.048163604605602296, -0.008404461426529109, -0.09298644558035589, 0.001748413010215212], [0.053569514474413306, -0.01126579190557517, -0.10036354262274778, -0.03586878862951517, 0.030633376506929443, 0.05417786084173566, -0.059965730095120594, 0.05214207680929374, -0.028606029817503986, 0.028945113158875033, -0.025763024503229412, 0.007440746032074342, -0.045152565422850705, 0.018851887677903766, -0.0010002034066009789, 0.014050435609200112, 0.01911578536385101, -0.0986543823381877, -0.11199206182013004, 0.06989568218092668, 0.13658265527629357, 0.015000219894207618, -0.024674568999239782, 0.02975035683917018, 0.04002856491874643, 0.010909796356720467, 0.11613811580013854, 0.08207320840599566, -0.009187246844777371, 0.04897008064890126, -0.008725163870546357, -0.028896009385532818], [0.004446612744014145, -0.05838257584410579, 0.04900714814287513, -0.03256922216649315, 0.01506419524783428, 0.040536081648298805, 0.08510809563790529, 0.08371321346966161, -0.03528215033676185, -0.012537316811412813, 0.05742871238734637, 0.008634001710640181, 0.010924966944391268, 0.03154232291968762, 0.019107622137423695, -0.07538892205411599, 0.02176626656757955, 0.03675113014083049, -0.1142712699451988, 0.006767058660537497, 0.024519768059696315, 0.11156781225913075, 0.07545965258367572, 0.067975236120242, -0.022835382610439242, -0.07234514901843886, 0.021899484941516948, 0.008150657289178222, -0.02819576988417413, 0.1036272235477493, -0.04882792490041707, 0.0813309798693183], [0.018712333186873015, -0.02130544469550105, 0.08016802208070489, 0.029983156894626224, -0.001525202446890787, -0.12951280366165221, -0.06246259760439988, 0.003150347974891467, 0.00020147568070492128, -0.03886855808112883, 