{"W1": [[[[-0.48985016349189964, -0.5710437716679837, 0.1313624969820253, -0.20729870329829392, -0.42288705109704877, -0.47399169040051375, -0.01599805170082402, 0.42756027752130255]], [[0.13788355185031914, -0.20748452160762174, -0.6657113700366254, 0.9638361050223218, 0.14215564266454903, -0.39970200048540283, -0.5685571371541107, 0.7251458489173193]], [[1.1327919783158558, -0.1633129067776731, -0.251690548902642, -0.48187456771977855, -0.283421856510907, 0.06130678548384175, 0.4615276355809045, -0.20257633561930738]]], [[[0.14535761801183825, -0.42293895480775545, -0.1224414276708149, -0.8145653645036475, 0.37821830839413473, 0.5331195722621055, 0.00335215168320497, -0.8435402042548398]], [[0.3772829380668101, 0.5781083288596134, -0.5202716946045832, -0.020173629769977268, 0.6853026141667603, 0.38608332606238777, 0.512467224302147, -0.7099384905187589]], [[0.08676716391038888, -0.7738882432268112, 0.13305598568016266, 0.07560123251587465, 1.146215382243244, -0.14311209610033077, 0.2390057930793917, -0.7147120919793667]]], [[[0.7847226745095243, 0.8388049827163625, 0.19993213129498325, -0.2603092164881812, 0.2346548428966231, 0.8569462363705971, 0.39581054439671515, -0.09112370420017495]], [[0.23228893071191795, 0.9744123353606319, -0.7242194442756406, -0.2759575244419101, 0.5533539286463236, -0.614770305358633, -0.5341643802107153, -0.0526276822520409]], [[0.8251912739906423, -0.2660374082144319, 0.11363605781202421, -0.26085788954102623, 0.07956082444646081, -0.32956804329862077, 0.614647540952219, -0.6551009130012008]]]], "b1": [-0.16065743565559387, -0.0010689633199945092, 0.09351473301649094, 0.1156449094414711, -0.10214023292064667, 0.07943353801965714, -0.07903467118740082, 0.011947829276323318], "W2": [[[[-0.08656947964214048, 0.25459237268736035, 0.026493640971602003, -0.18960370383299688, 0.27978163642057347, -0.16508602957808421, 0.07095888656739306, 0.03636987186593805, 0.12256002525742422, 0.07636463700063939, 0.06263689935052627, 0.01603437752510681, -0.2233300322252261, -0.005390441890740168, 0.1462061434546355, 0.11685252888613351], [-0.08846757175825308, -0.23095342365317012, -0.04193936462614197, 0.1552686435923834, -0.1408297234999713, -0.018874950110715633, 0.17758101783167754, 0.14006612100534127, 0.24498345597722856, -0.022482883053006473, -0.069655351618678, 0.10989505124058055, 0.052053244713811085, -0.2207237775350768, 0.3036435838630015, 0.12510403647855928], [-0.266083010417316, 0.12497355016852052, -0.05442395663382837, -0.056475713013245624, -0.03918788640430448, -0.10051579788742813, 0.32995762656432276, -0.149418808717922, -0.03888235939155484, 0.025094529575150393, 0.24073945130981483, 0.01869147679647001, 0.2541427643042426, -0.07878181915381584, -0.25802023928858425, -0.0656194377107355], [-0.07885168726503418, -0.0747102118401243, 0.11122945131275125, 0.21222570284234626, 0.2955235138326708, -0.025265549477362124, -0.0589921745742898, -0.11528933955514727, -0.14162232272708508, -0.04551401810168344, -0.022829489183789867, 0.26701665324571144, -0.07956398817349401, -0.19770533641616153, -0.07129802728841433, 0.3160887492541559], [0.2153450186355504, 0.07639075267191284, 0.13986120210426198, -0.0792535233360296, 0.13331134075251672, -0.2454265237088661, 0.10597160153270953, -0.17878599653416205, -0.016788070465570848, 0.14513936280390022, 0.04308146891993437, -0.14163303440431826, -0.037946803836183714, -0.004933951194771501, 0.22538309578822086, 0.05687374221383159], [0.1628874337339799, 0.01405576173085323, -0.13646763919036597, -0.042594682812350564, -0.16327439394353085, 0.1604492763990079, -0.1331393380299569, -0.11116514641280738, 0.2919761333886594, -0.16086869314449337, -0.01968808707666823, 0.0576096049689277, 0.18969957790014375, -0.19678606624028325, 0.03328237716331149, -0.1259804282140356], [-0.09359646680980073, 0.24234708212285236, 0.23287217169932795, 0.14504009017639422, -0.00870200968024239, -0.1525835614467806, -0.13163357135215195, -0.11415875132860047, 0.05956536830396909, -0.09582128880731206, 0.2666466301908357, 0.15078009620264665, 0.23657311060768804, 0.03545683568833417, 0.040458677365686306, 0.04451107141091735], [0.10655617638889076, 0.08984489412349, 0.19868227293573226, 0.21930438574538025, 0.12637208639715156, 0.13506158867178816, 0.2147475513517755, -0.061593978618811766, 0.12117950240545919, 0.18649079144395495, 0.05284978917321868, -0.06989504592876038, -0.239701595999448, -0.03298361653814012, 0.027840976049238398, 0.04123754241797152]], [[-0.02466193590018442, 0.09498456922519222, 0.5332389383832133, 0.07628620589404375, 0.2278282393208409, -0.19439741191957435, 0.09638011714039, -0.07175363783399, -0.15243969118972384, 0.0009320577399996954, -0.06633506443617775, -0.08404857292845686, -0.14216917655545466, -0.02889626803389874, -0.41099417827144885, -0.02115891225706206], [0.06444369971343263, 0.31602528954180703, -0.3389142985095351, -0.17441720777726996, 0.02345395986349478, 0.0651119440221933, -0.16955574205625562, 0.12050751975362234, 0.10071482795153094, -0.08299777587865553, -0.18361135837788406, 0.1151168357632407, 0.15980133027590662, 0.1606014800203197, -0.2793680372621694, -0.031381466412150116], [0.16506420118881343, 0.29548464789568324, -0.15779853836970706, -0.008970666436752013, 0.20508227161519518, 0.042252905898979606, 0.02753612979154803, 0.07798514328851944, 0.08924690416567188, -0.33306868934394446, -0.05177999714617155, -0.043257787993719696, 0.21888432328246862, -0.033161291383688424, 0.03906122787259369, -0.12049791592592758], [0.049879551485588015, -0.29091507866988975, 0.09855030654200587, 0.22045717340909823, -0.14387840272173916, 0.09873806811420399, 0.17004438854670645, -0.2640985299347944, 0.19034546772294578, -0.182076202208194, 0.040613314558304664, 0.38003998102739844, -0.12015357355541242, -0.034228471626864064, 0.02904087745541455, 0.030855500629312166], [-0.15257238629519784, -0.06366238012990891, 0.0035213191349853248, -0.049259399691357945, 0.09942058060206686, -0.026348314542266486, 0.2527442366856777, 0.154032181846405, -0.224679338193648, -0.09168709762077638, -0.00759554354060406, -0.13906212184062922, 0.18096329389069923, -0.03076155091053072, 0.010039370510649952, -0.05116775951689788], [0.07374946496999854, 0.03285823944047504, -0.10905651838659934, -0.08134983263355422, -0.07517421588490875, -0.32585347242863577, -0.20603870796722873, -0.07446377359854128, 0.13708060834558067, -0.22696764825998486, -0.0553455085638303, -0.25157679048716136, 0.2452093628344729, 0.19546711749793744, -0.08757229737652875, -0.006058354307448286], [-0.02537004247549634, -0.4062818516029147, -0.0956108993941404, 0.15090826710637825, -0.23424139605350813, -0.1341499647220504, -0.001353830824546369, -0.15933996561051705, -0.1944925776153317, 0.14083370414731616, 0.20818641578545802, -0.1809858569486556, -0.13431514694473837, -0.2971145695536674, -0.47274554878501507, -0.15775961007299444], [0.03975772984799055, -0.003213296335797549, -0.2794164633449262, 0.1292324430412103, -0.11361277075178339, -0.14475139160055275, 0.05153698924450377, -0.0966976005939513, 0.12687769754772393, -0.09870821827310113, 0.1397095088286136, -0.08445420098516078, -0.017167340748378293, 0.12959731566852664, 0.1728944286847136, 0.05882008192607824]], [[-0.10193120255566945, 0.07418874131607711, -0.028101296019827873, 0.019468402982886535, -0.2587543984203122, -0.012608084742761712, 0.4889580470246634, -0.07686609577346715, -0.07487601398650505, -0.23595034734405831, -0.11458895880007115, -0.26206012006297275, 0.15404032910299015, -0.268600387772361, -0.015541131129348228, 0.051142362944276924], [0.02205101940565833, 0.20625403316139013, 0.039001022077917696, -0.04912437042411452, -0.11669400063733411, 0.09593085077471651, -0.07690530841717894, -0.29033306507740475, -0.054473376489099556, 0.05182900928022884, -0.08860441961480225, 0.21897031197930575, 0.4265330397695317, -0.07154966831988577, 0.058903233372111445, 0.16076058450785738], [-0.014631187242399394, 0.1573733738225057, -0.03962108732998938, -0.3569800114261169, -0.3836722380481412, 0.28129666212158366, -0.30519395852851444, -0.06667028956375481, 0.22529655108260985, 0.1718775572708468, 0.40856376141395756, 0.15532461640456738, 0.03492327228655192, 0.10366995705513964, 0.07042016597724236, -0.1394428801534484], [0.04637718426036767, -0.2991658034870484, -0.24235617486920025, -0.027585216776785326, 0.11063780825164725, 0.23418478514928434, -0.2200309109683626, 0.012751710366999647, 0.23885134466935654, 0.13923881770907512, 0.06636952745931517, -0.020511932729294618, -0.10165858831515177, 0.0479924486545311, -0.12744399917600166, 0.09756920161571077], [0.09236410000209118, 0.13806242841078153, 0.024819007744391865, 0.08343329736323038, -0.1227559817902838, -0.16578403867035368, 0.2746917573210488, 0.1370040290370468, 0.2868774097031812, -0.016796992079461583, 0.2285444828232535, -0.07771219326683672, 0.4670542609590546, 0.2178382735220485, 0.04879008485878077, -0.35656436879150405], [0.06263868858922748, 0.051427281612301604, 0.1551476386704416, 0.516653741320085, 0.057523217047328476, 0.4197321330033996, 0.060705904749292876, 0.11650831422338377, -0.09265899561285623, 0.024450313334817095, -0.05962231138536416, -0.1471754709222377, 0.37353166606833793, 0.2436399012247532, -0.052433192395261924, 0.3401107843971729], [-0.03384559419934802, -0.05247303238836391, -0.011163692862044923, 0.03477400945857543, -0.22896748401577954, -0.12750113554639114, 0.224184765157468, -0.3331480696217008, -0.2152598797671814, -0.06046960612323447, 0.07577541146747975, 0.1021544792797759, -0.12169272169724435, -0.08802743179890306, -0.019824569826147515, -0.004932214380127076], [0.10930631396410365, -0.06376674787679473, -0.1522188951842219, -0.09143938411757373, -0.10974599006623824, -0.006363977095615288, -0.10353197211309989, 0.15054931427219473, -0.3138945130160855, -0.2394066732890818, 0.14724948500677343, -0.1926793294528827, 0.06785612812255239, 0.06696052853954705, 0.07988336522297504, -0.09297040942263159]]], [[[-0.2588063891279972, 0.13951949360432317, 0.24253229772119617, -0.1893937073066765, 0.4404908681226266, 0.07834522586606688, -0.11883614907652029, 0.12129872774678714, 0.17124207828702503, -0.1790845735214762, 0.17482501195648034, 0.09092168396762365, -0.19859898945430535, 0.2832475060967097, 0.13922428985690816, -0.24083522374641933], [0.07715121070499584, 0.3310525252948112, 0.21307166129545724, -0.03359222681075269, -0.06342855016076993, 0.6113056810218584, -0.22787138560108425, -0.19149155414125144, 0.14031421196894994, 0.07104596338394684, -0.019304585642069296, -0.06950752603809507, 0.0709681467231773, -0.12415427321301545, -0.11320100297583928, 0.0125128009439433], [-0.01799929145461594, 0.060071461576477074, 0.03537739411808344, 0.036201197377413036, 0.055621324803376615, 0.0954430536961661, -0.008078233418245763, 0.04587295535752907, -0.08911951458953643, 0.0005410507698290676, 0.2084357974467376, 0.37591530881789625, 0.005392168263579525, -0.21479455768203987, -0.14130311375763843, -0.08223878058034134], [-0.29270458499359686, -0.17313576648731813, -0.41363415825731903, 0.162416116811318, 0.28889667716399886, 0.018066936059545294, 0.27849659022525636, -0.23669138090076572, -0.12493341345855805, 0.10011280496722207, 0.18057203361431218, 0.14267100866913138, -0.26306847569424746, 0.057869771440898554, -0.13389454927481553, 0.09245301012785812], [0.24070735611418762, 0.42456715331451517, -0.23606481735339988, -0.15675380618760906, -0.006910069548929442, -0.0052850771331686705, 0.09762534728883096, -0.2947715254468416, 0.26619370968799577, 0.23278557077168097, 0.09731734800822492, 0.3284696017598885, 0.1894389152616691, 0.07675045451879506, 0.04001804230554883, -0.325601733119473], [-0.036250603074251146, 0.17777643093488316, 0.013299595062535887, -0.23326324425239298, 0.06533944058387477, -0.09444070712604637, -0.3364005766323375, -0.19022892474942124, -0.10776261943726018, -0.2231319857689043, -0.15643132592609932, 0.03467707919710018, 0.21267802362219335, 0.21747846976736615, -0.19276519564212052, 0.08300989290917667], [0.05374363809241784, 0.3174227963644415, -0.3246712400982889, 0.010189428511240294, 0.04060699269984552, 0.024384510201824205, -0.052929743773285486, -0.04949259632936151, 0.21962811489396045, 0.12534303354976473, 0.03685391876662914, 0.10158029992937267, -0.009428851184502584, 0.024033811589315415, 0.00738676441433118, -0.02513673158314514], [0.03481363480559902, -6.95474056532197e-05, -0.12823461578959972, 0.1507797323222572, -0.036013730506761286, -0.079162051057163, 0.24186874740062758, -0.2316467216564088, -0.007007064437673462, -0.3049186247574891, 0.34095483242704905, -0.12649831924008553, 0.058934251790913904, -0.061692806466727, 0.044878699529029675, 0.17545655156245912]], [[-0.014616457036512258, -0.25285104301715056, 0.19691699635261306, -0.04504189572671999, 0.059282265997218433, 0.03102636129042288, -0.09724912120667929, 0.046520509755899324, -0.4732834501675581, -0.36404078541571394, 0.12903509513749511, 0.21012710775654922, 0.10244390056507278, 0.03791351038727671, -0.1971589313042846, 0.5406139535016269], [0.16639128012905766, 0.3543246506778235, 0.3569500495327196, 0.005927547626690599, 0.02022488868896757, 0.08808195143370905, 0.24160775555527364, 0.243049258669629, 0.23939712148817416, 0.014390023893407974, -0.22560999112621846, 0.14987420571011603, 0.23478959750846748, 0.4334657149147805, 0.19506271291897986, 0.002337700281446758], [0.1609663436740235, 0.29742456216676, -0.1555858744440856, -0.06549906187823187, 0.060898175477807306, 0.2530761970543801, -0.43719666837935406, -0.011040191999675092, 0.23830979728208107, 0.03853535034542229, -0.25306581285586016, 0.17228443514275965, -0.15786214520949077, 0.050139642899872904, -0.10091957097686423, 0.006661735074163224], [-0.1839175878515822, 0.10318209234028085, -0.2087829107463751, -0.011103184176216235, -0.0533162542372271, 0.10216060083349664, -0.004789303559125026, -0.12815101024533368, -0.37648968734317523, -0.19423628334707427, 0.06494599108246064, 0.07395826121041148, 0.020586267453019027, 0.09971457056364291, -0.009738245254873552, -0.023365439483600606], [0.24395174523513335, -0.23313412474046769, -0.019074869766498147, 0.09080802041571134, 0.13175200705083684, 0.2657289341418239, -0.10715995489385778, -0.002399994137672629, -0.3611399147778882, 0.0033811854608061286, 0.08555554630384442, -0.21490384204845298, -0.17309683112691643, -0.05511115198476731, 0.09883970683442782, 0.2190319382771863], [0.008305967128114246, -0.0845363944036269, -0.36129781718029813, 0.251557383108026, 0.14231669408231584, 0.027015763091623037, -0.1973598807079609, -0.11621497449366675, 0.24170030419562777, 0.20765948506563164, 0.07273988373522378, 0.0989400770816619, 0.2723450688622527, 0.09614155458242875, 0.24953402526049914, -0.08549393739962555], [0.3665096177161571, 0.04588728235576793, 0.44654733816491826, 0.2606214667331446, -0.13822177231433144, 0.21388109314232384, 0.21329154203465858, 0.09825841055023639, 0.2141882016123764, -0.15393763303918004, -0.018445056361356738, -0.22452713755928075, -0.2494143332762414, -0.3039547341904321, 0.13453816118197945, -0.11912671682737944], [-0.02816369980848386, 0.024109525461519243, 0.27599744114462654, -0.12441884297105081, 0.025748948059808634, -0.257162687970483, 0.06074205649825055, -0.18345141474494917, 0.1524624416058663, 0.10631421779333305, -0.15401067087614842, 0.2555171175192857, 0.2259483441830614, 0.062038834746411343, -0.04066152871243309, 0.006973093741249875]], [[0.33131435753011923, -0.2731553906661189, -0.20841780693761394, 0.0771435447996656, -0.1721870321078822, -0.22830234847777722, -0.0720314249177142, 0.24368594543453564, 0.14593099947223206, -0.09878861774839626, -0.13807401766484342, -0.12748201526820926, -0.2119234095350442, -0.3452463199818167, -0.20228271836026393, 0.09259973371988407], [-0.056286248905508734, 0.2725669765907175, -0.03339328208982044, 0.16563793634974366, 0.07336550517766029, 0.11966443170610969, 0.22125650719222548, 0.1433954985030479, -0.15192932101601167, 0.15387798397028865, -0.01854721912767605, 0.21090613692001017, 0.13664004741727648, -0.17127276099270744, 0.20740738010730536, 0.11829396237159914], [0.11238734029990198, -0.24493453914957647, -0.4656366444015704, 0.029375956033530676, 0.0009977073157708437, 0.0682598328532258, 0.11986349600788047, 0.16674180724544016, -0.045847322742675375, 0.11694633542729954, -0.09364566022614837, -0.23738867971529917, -0.11990050610184783, -0.06520770781076472, 0.12050773517012683, -0.13126640542216975], [-0.10937511634263929, 0.1172938770103486, 0.2016115688506779, -0.21915292283707818, 0.1400515986499849, 0.22285165266512402, 0.061648119265938287, 0.024644791354113817, -0.007322045584108318, 0.13468814451516148, -0.2741945684931444, 0.11172441002318846, 0.20764687861761894, -0.14193162574006632, 0.1489904461164757, -0.018909897981009564], [0.44517213369111464, 0.1796397949291714, -0.05521316978302447, -0.04978142663218581, 0.04415092463194345, 0.1612074955352364, -0.24670207870196018, 0.04739215742326987, 0.16041453117857704, 0.10492954152795489, -0.09947952414434176, -0.07521442348484118, -0.38055113395608725, 0.02666424210354858, 0.04233897249499978, 0.17260576082846593], [-0.18334306709401205, 0.1893909819562442, 0.18403020266028813, 0.3344459221369248, 0.10571920148165868, 0.055324895401246896, 0.11722846006372144, -0.0628723804645864, 0.35177311084486285, -0.23678096089267348, -0.35904018508235913, -0.08795121153501, 0.15261653243141737, -0.004980250459375349, -0.18869765026639812, 0.5061251620821933], [0.4730798986172699, 0.06670515175318818, -0.20370617159310325, 0.044986195119497044, 0.05621273890732638, 0.0931213312917047, -0.16518633049749573, -0.17685215919806285, 0.14923877941989086, 0.1479576930019243, 0.27686253119638254, 0.059226389580394646, -0.29686223698237724, 0.17291914802217592, 0.14686463004896771, 0.04830760443139326], [0.12124441477579338, 0.424773081566018, -0.05214504219975615, -0.27884549776820555, -0.07575238022188886, 0.029258259590073818, 0.22886831339180216, -0.2740855134845647, 0.277351385020328, 0.21991938323900873, 0.047542748772435854, -0.06903671267537097, 0.18859974014574846, -0.23007349976475935, -0.1027969088785801, -0.27682358132482743]]], [[[-0.273949800464705, -0.054586961505455826, -0.14779424881698472, -0.19427867623773526, 0.08127928869973108, -0.005282299326455122, -0.025845087878956608, 0.30627641967480074, -0.15250498528176187, -0.09422655720163821, -0.093595398090482, 0.08099337006988862, 0.18799045235819642, -0.2145750475093866, -0.08699323852324113, 0.09269370633757207], [0.12947711916047397, -0.01662911289177001, -0.11935427752205581, -0.07349342064710422, 0.28332718150131786, 0.1300608372750194, 0.18855582296931245, 0.20583325462164762, 0.13881420917699477, 0.19006590421537087, 0.014988219247859353, 0.31237124976778063, -0.10326640992896098, -0.21254084124968567, -0.15231307932423258, 0.30009942174349513], [-0.11156102520643627, 0.07027283184133094, 0.09827625816106715, -0.20463074052493913, 0.189342221053836, 0.12962696560919368, -0.013031920528637548, -0.43484224207763383, 0.2421906216938331, -0.3154279264484975, 0.04712154691428113, 0.1003876291045358, -0.04353089197637695, -0.07870386522369806, 0.22792934972788317, -0.22739346728830728], [-0.04483334721106976, 0.20389427162529264, -0.02984627878111628, 0.10620793905336472, -0.0007116213976868877, 0.16939979910347014, 0.00021530109618636502, -0.13699444978072212, 0.010770215890343975, -0.16581578803388422, -0.28471493000479187, -0.3855502918217699, -0.10668465916885063, -0.32946345477409067, -0.17476421826247687, -0.13905524570550512], [0.10288261466206965, -0.28709680529781384, -0.17644585323975348, -0.21341858095212607, -0.20552588399551405, 0.12907275913077612, -0.18153728895335722, -0.050579108138348754, 0.14984911343856908, 0.02792097006716473, 0.15577244235993143, -0.18344499948149112, -0.031577108292494944, 0.21021313167567046, 0.15093803316358528, 0.2127476887439724], [0.0546260267434278, 0.04098613582755152, -0.2677709054199828, -0.06205510178541379, 0.17875369936609448, -0.042599592874081355, 0.20895934515835368, 0.04303078445385296, -0.09931339841748488, 0.05288687200607332, -0.0927989771226807, 0.10171990570272388, -0.1469517625363829, -0.04158978905245509, 0.15698695912338417, 0.1004980593383159], [-0.12052019958835128, 0.03629326152925688, -0.15314206154280194, -0.0624679443961849, -0.1005467636373771, 0.14959005284514687, -0.14354280526251922, -0.03337491531964318, 0.1861629972233744, -0.2645435601800557, -0.11413244924928383, -0.10395356531633246, -0.40317883747768707, 0.08006135608465721, 0.06383762075268704, -0.32838776332438163], [-0.20341598580307435, 0.11275502004200742, -0.13057323186639175, -0.18830985783219364, -0.08993512512795096, 0.1827875425797409, -0.2317606403789268, 0.29775957830571614, 0.14306606458245105, 0.09103120317777794, -0.028194751207835347, -0.023979376996552088, -0.2981990968301945, 0.17400634230891648, 0.44640361470635964, -0.20448376401171087]], [[-0.22788117304291847, -0.11821741584235916, 0.0652192157765379, 0.03937597629136721, -0.3142839812104506, -0.1873188659835253, 0.098842358453239, 0.27065614346336664, -0.2880071216427453, -0.11489773850573515, 0.1040016449948583, 0.027562597411356395, -0.16027510177306362, 0.1385032093521096, 0.11876478731822349, -0.22618508998058898], [0.20177212666831737, -0.43011695751926315, -0.07633369604706314, -0.052079782120562974, 0.15751015709315885, 0.33095215081293194, 0.26631105915384334, -0.20244963339200828, -0.25909383219758164, -0.2593253381556484, -0.12884140775848923, -0.004627117109229031, 0.13875177655834497, 0.12660055454765975, 0.2316346734589162, 0.09967105000700688], [-0.2173576001204431, -0.16379739490761142, 0.16817281397501185, 0.16865563425698532, 0.18897347946306914, 0.024692590975005337, -0.10662942389157698, 0.0391410505714838, 0.010759621442869544, 0.17611764133744853, 0.11821793569360654, -0.1181868379167988, -0.0777697669564769, -0.07225108950203137, 0.062362819042597155, -0.08282221492327374], [0.254943290531295, -0.08211868888271534, -0.11708270296784841, -0.07001729576819479, -0.046102325076515877, 0.18418281940867068, -0.15704489082335502, -0.13424287444766864, -0.14815700935047948, -0.2863749389506184, 0.0027968828780311266, 0.08558345951683409, -0.061389085822042194, -0.08948093528287196, -0.035878907096008945, 0.13512766025440853], [-0.0920201358868263, -0.24890437944743038, 0.16349054746593666, -0.16036250292134502, -0.1576537452437437, 0.19408847838973387, 0.16318009376937756, -0.006952216702958486, -0.08434039066262967, 0.28743858186032833, 0.022650552983329998, 0.02420510521528842, 0.14690595026588912, 0.10005883405992519, 0.23127197908777325, -0.017364741649545493], [0.3217710587043798, -0.21562774037835428, -0.057812894220156195, 0.2059218556833208, -0.06307495221317205, -0.05236312118143512, 0.22858591088682095, 0.15981302021525032, -0.05836983431582562, -0.33518543786655997, 0.21658157877719236, -0.09755539075832094, -0.021104823483604943, 0.4690471918361888, 0.09764266932830741, 0.3234234614148442], [0.013990204473025448, 0.07830263164807645, 0.3337378498043399, -0.23457375718946838, 0.015780387889940215, 0.1120674975064689, 0.02789134925776054, -0.2591282024963575, -0.053897541607100766, 0.06402090531200985, 0.008503290781268859, -0.038834850353509184, -0.11387784902979887, 0.0249178232665903, 0.15965667431452663, -0.1694250078829643], [0.105780906466868, 0.3613832342616702, -0.0756391144318657, -0.09724360006996773, -0.23500756723289312, 0.23517406399396537, -0.12248130802522497, 0.01365761245416838, 0.003308917589270555, 0.01476915888548749, -0.03154286475197202, 0.22834374497921112, 0.03569392418528254, -0.0291236457337743, -0.23683138406829884, -0.23905263652211897]], [[-0.2449654584203192, -0.23239669724954265, 0.20095446332347838, 0.3072821471910503, -0.09799493955975402, 0.03435908382784214, -0.33064646634270084, -0.005292864535248026, 0.013635843170447883, 0.19044257628414346, -0.06976736115492435, -0.13652899952157876, 0.0710885420168334, -0.10584731179582807, 0.2199061765422231, 0.017496785453677142], [0.31793607334139623, -0.03288292094329988, 0.1888570015495753, -0.052471467441126435, 0.14865022392734858, 0.22184057870246027, 0.24699804083861662, -0.01569041119450436, -0.032748594581338615, 0.2965635017317911, -0.21881184453855596, 0.03726667856235498, 0.15633236320293278, -0.06828116359333877, -0.5000524420303576, 0.07992463045548609], [-0.34054658224107404, -0.16579700833283398, 0.15089418734828441, -0.2496164979788627, 0.1556715504091547, -0.037877124374722855, 0.049684864516678286, 0.03716450132365269, 0.2562649312686387, 0.4172276607074363, -0.3236532171886608, 0.2507548341370711, 0.08645142568858223, -0.03463415029301334, 0.013179524065647897, -0.04099168869498783], [0.08358515904901756, 0.0632421238110613, -0.2276597572733942, 0.20957191327733274, -0.15098739387418947, -0.016644368872359795, 0.1528559778874924, -0.306182054331767, -0.05538894548851026, -0.07174652774831873, -0.10745675096661668, -0.03264497582599308, -0.13987737226586527, 0.07220383605103489, 0.04241587444630083, -0.029391461853764643], [-0.1928490082063463, -0.2201978603532901, 0.13012920025488403, 0.1756119484312262, -0.06013336180978294, 0.03049323253453713, -0.38291237277125073, -0.037782175748199996, 0.2215548713651638, 0.3561742438401082, 0.21415303786879278, 0.18562582823009122, 0.37389899596910947, 0.05701071751238313, 0.08821833341392311, -0.16628439093670558], [0.2639447608050885, -0.27592920506934554, -0.29442084550025954, 0.2982933856789216, 0.09560610253708746, 0.16329301179627811, 0.0068057166466029915, 0.0921351462922139, -0.2077913237771472, -0.05174649235101932, -0.11688114521740504, 0.4087319314712082, 0.1349205457364035, 0.2463809922518529, -0.2180801698346421, 0.20247208355917906], [-0.10110108606066086, 0.05104521536651704, -0.13688607628693733, -0.0944944983016648, 0.18718529347110666, -0.05589964769661696, -0.13773158602717442, -0.06459743322441491, -0.06922369401747801, -0.07352036579648709, 0.03561093150171891, 0.052015574009523564, 0.13099436201699718, -0.1683254568694812, -0.3106868972139607, 0.05439062512911707], [0.25349658356676336, 0.011902877639308392, 0.19037646693148205, -0.021991036115617164, 0.16665548353478477, 0.24446496283388297, 0.2029436943044674, 0.30080633013832875, -0.028856978281344963, 0.1695108915036383, -0.12931286462963715, -0.06284818102718717, 0.11354472666739025, -0.2423535671604834, 0.031067218793967254, -0.044359138252538274]]]], "b2": [-0.05535750091075897, 0.06167889013886452, -0.06968477368354797, 0.021186379715800285, 0.008802694268524647, -0.023327600210905075, -0.03662460297346115, -0.01047078799456358, 0.06406687945127487, 0.005014444701373577, -0.057501502335071564, 0.03987305611371994, -0.04235685244202614, 0.01835709810256958, -0.08369133621454239, -0.0549125075340271], "W3": [[0.020922842472714445, 0.17074512164567282, -0.026077718979232327, -0.07030458497661089, 0.015226656664141271, -0.08842200962621068, 0.024979484125374724, -0.09207340569372935, -0.09229846626686884, -0.05520075262463151, -0.003832346737196364, -0.04358649081681482, 0.01677302203324804, -0.08401714914541658, 0.005271784499487953, -0.06601193390954145, -0.08255358897423824, 0.006674319262951839, 0.05175745826029217, 0.016636572203423444, 0.10717804560971214, 0.016012295440226133, 0.05192552147731512, -0.10980697141279087, 0.013472338103835588, -0.0568174798554831, -0.006742488697388258, -0.026339189656617024, 0.06217942501435754, -0.031530121856970156, -0.11981425783601946, 0.11012788857498476], [-0.011053331129454511, 0.02455759961088014, -0.04270040955655462, -0.09531717222681638, 0.028525822341900094, 0.04151125341610878, 0.009521577508096488, 0.10554591462921997, -0.04503368304056324, -0.06858168916506453, 0.06735832327362574, 0.07782641765623591, 0.0037201411941669964, -0.04004421188264251, -0.06931712074742398, -0.06174433052712513, -0.017746810533809096, -0.10071594242090687, 0.039319682056249694, 0.00805333140300796, -0.09913391510395805, 0.028507846050396184, 0.043461471562679176, -0.06683717471201556, -0.03322384803379283, 0.08455021497520278, 0.020835411680242003, -0.10920297320866418, -0.07154401675462965, 0.008584877317379922, -0.012867391639364682, 0.022215103622684213], [-0.09450625077610486, -0.03649644265272423, -0.08305499149048759, -0.03714721443926425, -0.08049420388980598, 0.14501937512294416, 0.13445209595584193, -0.11394614597583731, 0.09136785104567877, 0.005599673284703557, -0.04347335536976363, 0.02049859957296315, 0.019978033246475894, 0.023459667287529146, -0.13137826083570994, -0.029747403487968314, -0.035323887372471933, 0.034121532923532746, -0.0662062279372445, 0.08337125670750722, 0.09745837195566984, 0.01009792974049389, 0.067503957118045, -0.03576127536885106, -0.12899510165834996, 0.02467124603491999, -0.036667655090603726, 0.05887162072391507, 0.052221815633354374, -0.05243075579719994, 0.009134102940499843, 0.13994027301594125], [-0.07723602271926304, 0.05058297285275972, 0.016678614629853195, 0.059054270021942114, 0.020008773855737114, -0.05457635192377801, 0.09147981771678841, -0.10123921765032236, -0.07092739670737809, 0.06788572715082562, -0.09876480167515087, -0.09148800688233513, 0.04606001306035098, -0.029487658538102226, 0.004945009782014993, 0.07968179136196912, -0.03583672189079066, 0.0480579805048527, -0.048840447190165566, 0.02169423340452542, 0.07854840884001243, 0.015210578511660218, 0.0633372046300894, 0.045809437556262225, -0.013115720373613658, 0.024110532984443205, 0.03207032595323731, 0.009616325085595442, -0.00871186241383038, -0.011595620505995517, -0.025887577225992508, 0.035365182651858396], [-0.10092475897394745, 0.04794720362009235, 0.0341060779032833, 0.014945572074665445, 0.08566472764288054, 0.05986063878628322, 0.0028455919478334746, -0.13190380791346523, -0.05003001770465924, -0.01331974883367372, -0.040077608134610636, -0.03544836781564677, 0.0009858412204100553, -0.09277721147362698, 0.01826532215783439, 0.09527836769718216, 0.008830156339510493, -0.03294511707104419, 0.030739019743886965, 0.03629235853109751, 0.0001367019178984607, -0.005867282895762859, 0.00983164013649749, -0.05002154180123214, 0.04791836301128262, -0.06838883339640321, -0.010455459732176382, -0.007990560397701144, 0.05773785373886192, 0.004147164664320402, -0.1439271727733008, 0.13273850617337105], [0.035508556525099155, -0.0007679753811608416, 0.04837386278606176, 0.051701585758997984, -0.03467290618388105, 0.06537917574921841, 0.025871110948717458, 0.03380213361497357, -0.07507222620596907, 0.04364624721143402, 0.0805447538548228, -0.1325740731216393, 0.0639820235993545, 0.000616566416793089, 0.031652597856202835, -0.001956537266923352, -0.09742518566418504, -0.03279664720381909, -0.10248379005866616, -0.05725206379745072, 0.00973586152484067, 0.0841414678482798, -0.00810194523048242, 0.0018402450457142522, 0.02904360977278334, 1.0217665222936911e-05, 0.12392666709337133, 0.0021446329206276375, 0.015819095145373278, 0.05682457056900558, 0.0480153766997474, -0.03438172250308342], [0.024499705501405337, 0.06726454622239719, -0.06790964338491372, 0.06520081076515839, 0.003662572913037517, -0.06596397714437471, -0.013154749041782971, -0.009418720811935618, 0.008721625371976412, -0.12485691591203014, 0.008069405514348397, -0.07235377157360635, -0.09940077924649901, -0.06521658467770224, -0.04120222448890691, -0.021219730557463443, -0.01386519171119778, -0.10948974125607822, 0.06057313828190473, -0.03618060705651741, 0.014491886818804981, 0.11499424164921389, 0.03420094163754066, -0.16345095902243167, 0.02047142606788159, 0.01576654961548023, 0.04993915721153964, 0.14191048363709324, 0.04934447630365739, 0.04051242583639972, 0.03841288886594816, -0.021506841504323585], [0.05802824118631945, -0.0060251155868930855, 0.0721616355277175, 0.043618131239939115, 0.05059937070817446, 0.07034773187974723, -0.0661073115599586, 0.028915580886909084, 0.04187025737693597, -0.007319579051824083, -0.0551861544351973, 0.0868256025550681, 0.15114614844868768, 0.1023650837943479, 0.0522008440547768, 0.018469095821902357, -0.012839255348095206, 0.11853078447541138, 0.033160530161898474, 0.06434763911704934, -0.04814887574919068, -0.06465486617925194, -0.07648156568911683, 0.09059355133671164, -0.002742549434582655, 0.04972787978754466, 0.07596320354771371, -0.05151564136780541, 0.07008014626289531, -0.041027344614765086, -0.061198351678012235, -0.03427571542245436], [-0.025972535648351693, 0.05497998100096689, 0.06683383276061927, -0.09849678263460519, -0.09769151789586446, 0.04288272380680934, -0.06686644613029577, -0.05022747859174105, -0.029689581891772433, 0.0881695257720041, 0.0689607501977323, 0.026687013535389045, -0.013195313558191117, 0.019881779881028194, 0.01227189469391312, -0.012074359234907558, -0.004628626223811392, -0.089384408962429, 0.062186417702005684, 0.03777379541219229, -0.03988605129089765, 0.0434771137514472, -0.05052520345082139, -0.10044004068940968, -0.07142365427665248, -0.11521133480309316, -0.15021314933723792, -0.09029378822511983, 0.0018386231803742472, -0.02082626126601682, 0.08028178375681212, 0.042585529495240394], [0.0005098429029231244, 0.0553224354086477, -0.10641091825636134, 0.05429987034568289, 0.003752965060871909, 0.004064531064965236, -0.08053228853368674, -0.022204808055421802, -0.03042379546793281, 0.09205611376889127, 0.06028795198736632, 0.06627776377232988, -0.0038674074349867435, 0.09212259653486884, -0.022105325466363276, 0.13720185158092638, 0.02604062850616955, 0.07677968497861744, -0.04359117697685614, -0.02365625312003656, 0.015600771396159976, -0.10601521454675432, -0.12488127055046355, 0.10703697167074268, -0.0048826496718601346, 0.013827273528380856, 0.09492325919819157, 0.04555744084107656, -0.002042854218297463, 0.025953155528073573, -0.012860054513589703, -0.10373933151374065], [0.027446215641252054, -0.08950306502478875, -0.08624461568545748, -0.025815635070956123, 0.01543457993571373, 0.049072448888849936, -0.049077260153623535, -0.08331433192208096, -0.02343231403582566, -0.07102884414089133, -0.0884587615564619, -0.019001141636186235, 0.0010716362855931764, 0.019818444663181493, -0.12360653438470535, 0.06845318181488068, -0.0512158038760012, -0.001498495393183946, 0.04526874631304953, -0.06186020271791967, -0.020216962062300437, -0.053896738042443174, -0.0020365051254869183, -0.1752859599913399, 0.011471849596733454, -0.011772579175835421, -0.015542854820133152, 0.005145812183898972, 0.09163368964196744, -0.018491993524870333, -0.026943828030226324, 0.009301447306562214], [-0.12119446244017236, 0.023307647377849933, 0.09111357845219406, 0.043487968977327186, 0.09544447563658184, -0.020883928763894135, -0.042603692727918675, 0.03952755279471527, -0.16628567643025183, 0.06762319025472378, -0.017086664579764037, -0.006598102984886702, 0.0623927545182034, -0.006746608256676945, -0.05334991177948767, -0.05137063405143838, 0.02841675360648886, 0.04061747014800141, 0.09541218071674935, 0.01593313444046571, -0.07197914090438248, -0.13942959638762653, 0.011488818066575288, -0.08608712605101557, 0.016220727678507976, -0.025119292225181628, -0.041226896664436664, 0.018411893515150213, -0.18817886304377757, 0.0011698664143938611, 0.004742260093589189, -0.09946222217006334], [-0.019821528141870434, 0.0196180605782985, -0.1341010581681635, 0.052320795909738975, -0.038619880342240516, 0.014150705338603383, 0.006828627307058038, 0.021819103120658285, 0.0169049563452951, 0.06002938570857125, -0.06459494427246397, -0.025433630751925222, 0.04760494876981624, 0.09884321746078328, -0.011521866207209809, -0.07589200868763331, -0.10653606520573373, -0.0908710477533072, -0.040103143389971736, 0.08935182777805852, 0.003949713193161542, -0.023699804973487504, -0.062019288582502906, 0.05066367791989311, 0.06353305318734782, -0.08017444980027337, 0.04982632398440364, 0.03992661390754339, 0.11969219011404897, -0.06450232789289663, 0.07151235226444298, 0.0646482686226904], [-0.05601650778308824, 0.03280550180095785, 0.0526321579639963, 0.1175815292473341, 0.03221484732594912, 0.027149541897860015, 0.012115770617767906, -0.002215239187138334, -0.11691149355841428, 0.10642119941575004, 0.07240389489719667, -0.06502504398907555, -0.11520042357673602, -0.031008531443492072, 0.009504207671540569, -0.002477398597505577, 0.038943937908570765, 0.005305596198870033, 0.08354543649761426, -0.030520199693942228, 0.035475189067406196, -0.019876213481096014, 0.028836554085535447, 0.0724993138618058, -0.03155092240492594, -0.0546142533160239, 0.016972196596835444, -0.01531881496763464, 0.0028265093714565743, 0.0958360122929544, -0.01589415993195562, 0.020164169403022333], [-0.030309487814315923, -0.052089215052839276, 0.04803477110641748, -0.03329194727191984, 0.07613521838986062, 0.08411968525537566, -0.04815859967530634, -0.038113624802652075, -0.045341127707595054, -0.007104419879909007, -0.06532359183980291, 0.06631474853052051, -0.014205249165253966, -0.02250643862279859, 0.03183587333609208, -0.024265413657493594, -0.07884732910619216, 0.017896605343241574, -0.026179164550888985, -0.014074100554427241, 0.10889080861480176, 0.07619650580655582, -0.022808672934293044, 0.05573543933343382, 0.01523830177158859, -0.10792946479430895, 0.02906914184165951, 0.018761624123901435, 0.03337262075441402, 0.06154672629722348, -0.10558100119918047, 0.08930069159651664], [0.038162414067155204, 0.009625954318656923, -0.025916592990292798, -0.043618458266665106, 0.06463040085647219, 0.1159043492547829, -0.05558799667217325, -0.05005506763702232, 0.009026841234328712, -0.018076655302645944, 0.11160738703588276, -0.01989306226618629, 0.03443870855858751, -0.0847176024265445, -0.004360600850638072, 0.05152752745767465, -0.12028119298282698, -0.0528129817530893, 0.04866307714410303, 0.050572176479933874, 0.08578789164049849, 0.06672110047777176, 0.04745220204048414, -0.020391306998969284, 0.10385689400914172, -0.049686014526840946, -0.04612846915749022, -0.024543487411729188, 0.005980432548415873, 0.1119113851729182, -0.011277448270355076, 0.0007343159729588005], [-0.10196037971182904, -0.14429453225494565, 0.026549878747577436, -0.010165436836099283, -0.14339310892129065, -0.038418697288242626, 0.045262670263459884, 0.030132020593201504, 0.06292244596797698, 0.056360194166608805, 0.04434271024833097, -0.003621631359504608, 0.022535138792421833, -0.028916313037649095, -0.0532899833309743, -0.06522706493434637, -0.023241523594307485, -0.014773693078221042, -0.009832904082705308, 0.07877950746144063, -0.06684478476045881, 0.037114415537912615, -0.08075226540724982, 0.06025544187332539, -0.006360927938473459, 0.0014568179312832994, 0.0889610740932138, 0.0006599397987761794, 0.08650978075281572, 0.042040107268048826, 0.014226535414012448, 0.04083267972256546], [-0.01604419978862416, 0.01900702081502942, 0.059936096083592114, 0.0591326528052526, 0.03974262809747156, 0.054833032923937576, 0.1166381957483956, -0.07048853593870415, 0.12413870691799364, 0.06442297865620143, -0.06626482377724198, -0.006740303137968345, 0.01179020857376076, -0.014148235154510903, -0.0966844843395831, -0.0020551719279050936, -0.047166613777915756, -0.040225598121445175, 0.016225370904415302, 0.014185215452997257, 0.04395408209361831, -0.01430526022506243, 0.031139139687663103, -0.037458208991719956, -0.1191558688420641, -0.07084923992302304, 0.0741477772355063, 0.021457369339778487, -0.021587894086597892, -0.01845165642071023, 0.025690396517575168, -0.02573816704931927], [0.1253120085924175, -0.06621767842361155, -0.019037770212845664, 0.014343254742385273, -0.05671273750782794, 0.0029938304716238505, 0.09754429712362692, 0.025766214602066604, 0.026165142612989908, 0.07293513576369699, -0.01633519572595759, 0.018926191963131108, -0.06577165937110947, 0.02922128071031267, 0.022138202384708257, 0.04718710354006362, 0.005199993786041848, -0.057229343751322784, -0.026052646757184435, -0.043188804376866806, 0.031917211456883476, -0.09575856451214124, -0.061042245270685164, 0.03614715594089213, -0.02982151556617564, -0.09944395849714821, 0.0020191394866549603, 0.09220986305927173, 0.010576738746969017, -0.009831447094320902, 0.08818948283090425, 0.05435277035594162], [-0.019239294624142304, 0.012077309113467103, -0.021449988817469654, 0.01970312125685424, -0.00894949491495881, 0.03988670699021365, 0.014246369347313154, 0.037683102058845286, 0.03763475786632731, -0.04226005320850154, 0.030471044714605298, -0.04170121913058281, 0.02318284416939957, 0.005008004999213988, -0.06543523507362473, -0.12849558466192343, 0.11768034897832223, 0.049824920273583054, -0.07062185569423303, 0.03526387027668564, 0.08183907502936312, 0.016454661653156146, 0.0822586902898442, 0.03526975779521518, 0.009480866145088111, 0.013174755592155751, -0.018491684580270257, -0.03284110276973746, 0.026632879940093782, 0.001635156517270394, -0.12676975435554885, -0.1313847222526566], [0.026398522670750726, -0.06490596754421707, -0.05523880025843104, 0.03317522143834537, 0.08252227462566533, 0.01532609986472654, -0.003492298292467691, -0.013848588222864016, -0.04346978529939597, -0.03305173784924884, 0.06890553215869989, -0.1083975708987198, -0.08845664933753764, 0.07763353804968265, 0.08135096685360156, 0.05158817873246433, -0.014944737358045674, -0.012928991485387379, 0.09916822211134425, 0.026783775496151747, -0.10550814115817507, -0.07981863781452413, 0.0009440180586823202, -0.011828692892386847, 0.02821397307945279, -0.08202581554527534, 0.10505803753638823, 0.04224865323343526, 0.06585201563831727, 0.03331213272840054, -0.08774569000170791, 0.15502987490021203], [0.004770594982666584, -0.015363944059036745, -0.015429102792873713, -0.03012168523240631, 0.10467293175054704, -0.06474435067733375, 0.04951570848925509, 0.06916976008488267, 0.02490644282779993, 0.004291793173192872, 0.03785977341035142, 0.05269696828388883, 0.02331280862393751, -0.08761096515936101, -0.030119778372630798, 0.08608695187252254, 0.0641190504607426, 0.12242578635236893, 0.013421939976552994, -0.08818242309501799, -0.0018387938254542829, 0.050179195277470875, -0.020059233203757913, 0.09798878571906725, -0.03011379964534745, 0.03133072190469287, -0.044894999541944335, -0.025387567078664276, 0.0684465193475399, 0.04015408668511979, -0.021894352124880664, 0.033928741979669594], [-0.08617060152467998, -2.6766972109658752e-05, 0.024125393263818223, -0.11215942580646826, -0.09307332767650409, 0.06581024565578596, 0.1377179780246712, -0.1299705749404597, 0.007260873322453491, 0.06712432437732524, -0.012013016147889556, -0.002135385724673718, 0.02348904995799308, 0.04387416416937621, 0.0032901899756441855, 0.007338992453798606, 0.05841272303225542, -0.018666171849528977, 0.02515342205634584, 0.024565902076136608, -0.04764917007653987, -0.05352298165321403, 0.01907537169699592, -0.07532674883256064, -0.028102044144775115, 0.05691455150230646, -0.0025142675315335495, 0.05196323931611769, 0.04915830770303167, 0.06139449901997295, -0.010892162412434422, 0.1874460698571251], [-0.02159820271560766, 0.02714671849582635, 0.019673625462807126, 0.07729088060723352, -0.011888178359106544, -0.04707139051647715, 0.06555235223415642, -0.04106325218336607, -0.04703282153254204, 0.011950720986120619, -0.02575241839426781, 0.04676624449052684, -0.02691298596195012, -0.024064761583248627, 0.02628075315856321, 0.011306035042662454, 0.0407030448471383, -0.021708573983978345, -0.034832278515932645, 0.03555336520317732, -0.039776547090594666, 0.14191742167801422, 0.00037629692355407385, 0.07260874467815749, 0.0665968827161231, 0.09531317276842742, -0.006063809400516573, -0.13865102409515967, 0.0015409885978443063, -0.024761853870746645, -0.036424290812235874, -0.044929744753408114], [-0.019502015144916146, -0.0027957652763474826, 0.07293280060552935, -0.04927723502705594, -0.06353030114075607, 0.0847834047700231, 0.08174670544702883, -0.15110173014545328, -0.11227750608860314, -0.1515901959033256, 0.004159926717920966, 0.040047513558387794, -0.05205183002905935, -0.02490683590608545, -0.0023087019641503275, 0.039492179245911196, 0.006108449398314232, -0.07417757245211282, -0.026672731631983897, -0.03560762430844215, -0.08642125600547468, 0.010157010013343725, -0.00979662848534217, -0.09161286932286432, 0.026768740915218775, 0.056190331488291265, -0.09944099144036452, 0.020954188606993763, -0.010011570638892709, 0.05368827734353224, 0.020624549270282014, 0.07928830995945227], [-0.08406260783050223, 0.10941339628714529, 0.09014324400295591, 0.02389583741821914, -0.02342723962277845, -0.07569898654539421, -0.003711798863310973, 0.007119844431779871, -0.0576465055350741, -0.0028766957533310263, 0.05693251468787557, 0.060619064751316655, 0.07439103164938146, 0.083764617766409, 0.13919341937186572, -0.016173503342286812, -0.05647579950813622, 0.027588600560278433, -0.07276914393751586, -0.007469613731970669, -0.017999688540704818, -0.036922523728045456, 0.03652875420855653, 0.0413148512847359, 0.03526591486109859, 0.07891709656405747, 0.027315689734417187, -0.03266944411895448, -0.04224134087598608, -0.04909277759579787, 0.06303808454840265, -0.03620868444615486], [-0.06881697249972558, -0.03506192146679258, -0.06915885050071438, -0.006575932833861623, -0.0386648941193734, -0.042976175699730085, 0.13086153733866895, 0.0034661693896051757, 0.08195309351765315, -0.0010802982677645258, 0.05178095366582225, -0.001736782820385127, 0.06213092437617666, 0.049087257739546176, -0.037467757177067795, -0.022961195604788407, -0.01600159551256082, 0.03929208300560363, 0.05758196809952937, -0.054956322924045294, -0.03109751434163611, 0.07483353947321496, 0.023581441494745375, 0.11314611443559143, -0.0874273239168676, -0.05353755888075794, 0.06751352330391737, -0.06935238337303239, 0.044703096014137654, -0.02961101549721183, -0.04188422170510366, 0.008733955627296555], [-0.0009209243877679252, -0.1488121893517764, 0.029421483878635468, 0.05031792107740005, 0.0003550499687072337, 0.05467063943640429, 0.06579421671499563, -0.005467149111629769, -0.02915069261604421, 0.06995195212630237, -0.08535805893755705, 0.04839710672898884, -0.002851266956269803, -0.028074747041592563, -0.03795452452982406, -0.08753750730524654, 0.08762101508499798, 0.092108668677706, 0.013932970730220602, -0.05498165277349575, -0.06744738783522156, -0.032989610757000756, -0.036851164109289784, -0.05057931791325678, -0.00820625814833599, -0.049545232899261674, -0.08560263220475034, 0.06379627416277901, 0.011492173536046363, -0.03965636754464979, 0.07035588995631434, -0.0443289402008844], [-0.09281760898519972, 0.05690799277346496, 0.08550687535117826, -0.08559539291982118, -0.015080908511009563, 0.07534999887558909, 0.0958390355173824, 0.045750727160586355, -0.0034309479004953733, -0.03421839716319379, -0.08487054763878189, -0.06965763793524211, -0.05054752801663883, -0.0701821040740489, -0.04793564876688201, -0.03939574304491345, -0.04210140661128365, -0.04926430706323108, 0.0745197163130101, -0.01178134898348937, -0.11847193246860692, -0.01811841086092543, 0.027521365080783323, -0.005342532886836347, 0.06651542119070411, 0.0179711217902383, -0.017021397039462132, -0.010463448906929119, 0.12125301610413931, 0.015237196887422573, -0.07883297894952454, 0.04731976236921119], [-0.038196698035127756, -0.020599125786189165, 0.06838280622160584, 0.051313301085961625, -0.0013812969460254877, -0.002359183007166035, 0.10348818827861452, 0.09661837733597817, 0.003857619918440779, -0.16599289686863378, -0.13627680085926136, 0.037069210081258956, -0.013021247774016455, -0.03946085384926206, -0.061138494457994116, 0.12167444816038703, 0.06048641036630068, -0.023302858763371175, -0.02126150338345868, -0.02735766170393789, 0.0518582818338321, 0.027860820689925344, 0.01005159453604616, -0.0010296090308398846, -0.05611558096482274, 0.025979149342523027, -0.031856000652801725, 0.1149233416178601, 0.09919816044617907, -0.10127573556066681, 0.05000240802155393, 0.037080610725266513], [0.04579552846220561, 0.00994693140494282, -0.1408824699590495, -0.03268953582355803, -0.13604885513280496, 0.02150594359061476, -0.14713919669652747, -0.07356514601198269, -0.023545578891554658, 0.028249080701660725, -0.08932732496571999, -0.03233665738534331, 0.06862767543539117, -0.13581495210437206, -0.024119583552914343, -0.08079708953608704, -0.06606920139764154, 0.01987360177739081, -0.09108720916140031, -0.02304035615791188, -0.0007123487962332467, -0.04765888638750769, 0.04238557956648418, 0.059926210566136055, -0.02385692744642925, 0.043026688847462025, -0.09460890886425885, 0.019393607324518416, 0.004457362366810588, 0.03545159659367075, -0.027047511842994115, -0.10341072306537986], [-0.049750304209409894, 0.058596110470390414, -0.01407157868318754, -0.06535591416982661, 0.007941224380344954, 0.017253761359387658, 0.03454011866213459, 0.0571205797426889, 0.012962481659265175, -0.10947987503803727, -0.13675445700038513, 0.10878317885750821, 0.019780055161816, -0.052974882286984604, -0.025256552765001262, -0.02694832018986997, -0.004073099483013926, -0.013863421305320643, -0.018430883090218956, 0.0004576561788172544, 0.12889551701142168, -0.07219034985137572, -0.035895083294939525, 0.013864364517570244, 0.015921851541580406, -0.04305086880022835, -0.06433095766641123, 0.016762572798321697, 0.011769936341948313, -0.008743922518241859, 0.0326695953780952, 0.08507881221088814], [0.019840568461850196, 0.10608498940081772, -0.10192057528575316, 0.053872476312344215, -0.1688303559340327, 0.02117862492245726, 0.0008126414064867076, -0.01025883062531601, -0.0954110127430533, -0.032266321849344776, 0.03551851388546426, -0.04493525046312736, 0.08971658826300548, 0.09603584967992584, 0.017169911276303976, -0.00903732238409231, 0.07974711429960596, -0.04301431398261482, -0.021514191266113526, 0.030091181766307314, 0.09601885112421185, 0.06543650887383506, 0.0732187099936559, -0.0576661999175629, -0.11388887012709314, 0.05291031851973503, 0.01132453714052013, 0.12024359716977763, 0.022565532839453235, 0.004170905696368896, 0.008038165201704072, -0.0011897059587332743], [-0.04845476547071476, 0.07085404670211277, -0.1958853590398256, -0.0513213024197851, -0.034936816473032206, -0.04625437455145546, 0.04587187254283416, -0.18861792519871073, 0.14428136155653035, -0.07971432410160068, -0.03832615723345427, 0.036773922603639375, 0.0017895560658319045, -0.0022432215738588425, -0.11194245654160997, -0.0030006683176458794, 0.14227628755968794, 0.02924735870209037, -0.00012300753483708313, 0.10597366512164132, -0.05066131289286822, 0.006908097242994857, -0.041349925191208475, 0.030468725845521797, -0.04115778961198329, 0.01172828202124019, 0.04418992599598643, 0.12606434985081877, 0.039740445525906505, -0.019810903002216513, 0.04170059287515064, -0.0031006994774458053], [-0.0113456011736395, 0.04888377426635952, -0.0072091080749744785, 0.062421684605122325, 0.015695185673019862, 0.005962410682186482, -0.07993934327954484, -0.011035674668960093, 0.00023280403448295285, 0.059882732760842106, 0.009550955930595875, 0.002396715898585548, 0.03799490272726239, -0.0005914514232020152, 0.08042479050845672, -0.059421959983308924, -0.0680042254339085, -0.11107772350843291, -0.03672961618962075, 0.03411640469700804, 0.03347380138974374, -0.01109673864334852, -0.04024760419640916, 0.03157930499055362, 0.11594552908290971, 0.0577013430149786, -0.04075664514538273, 0.02142105070872536, 0.02845222384372952, 0.042099252268235354, 0.09021897671257352, -0.011813029072243521], [-0.02301920531793725, 0.062153894134694104, 0.07655610129534413, 0.002176316061767919, 0.10784347213162877, -0.008604405895189793, -0.00029261546687238784, 0.016814596533417523, -0.024913811586328785, -0.00490113267237758, 0.009377588022400633, -0.006453432485792719, 0.055675481120708886, 0.027700934782832184, 0.10896630381319254, 0.05609157644723633, -0.04620560556569172, 0.03470100233275038, 0.05790748454879953, -0.04512116270286693, 0.004206936580631874, 0.03535917015156238, -0.08559642447018209, -0.014484634696130058, -0.03228821636726757, 0.09884164499129929, 0.04589572837846474, 0.043638529430289556, -0.024114854473910683, -0.034618327350744785, -0.04177191722041924, -0.045676037615497427], [-0.07376296395868137, 0.035467191365862745, -0.01923266117980843, 0.044604621591770366, 0.048382243917974146, 0.030989982278307186, 0.05800302810479212, 0.027045392017872292, -0.14878342869310038, 0.01907763697221062, -0.022119051030693386, -0.052528781102389954, 0.08062552704324837, 0.07462919381494545, -0.05185479323757594, -0.08870498725446593, 0.05616575995309385, -0.09620909338815326, 0.04958084320578953, -0.04042644041976651, -0.054771301987913766, -0.018973989430707987, -0.05737860169961514, 0.042218837346248136, -0.011056084839049478, -0.009006984779644482, -0.02810797913767411, -0.10614065286500965, 0.03149970942167107, 0.06794036379436406, -0.01422338754628063, 0.019293891813736825], [-0.07923388467636816, -0.009754904850347607, -0.0002845478571731476, -0.008155108862345295, 0.07065066613163834, -0.0029107504069174994, -0.02568747330933893, 0.15358441536742298, -0.07480362566424632, 0.05089991540700554, 0.05668601642117647, -0.004537644737999229, -0.03861795688221932, 0.09190987111943233, -0.08227288435634467, -0.0016128432360945255, -0.004151353205896029, -0.037972087142848984, -0.024805272269305886, -0.08687401988286257, -0.07480871594625545, -0.01743466465967365, -0.0034156040303995176, 0.052692131289146356, 0.02598379849668118, 0.028770037245374427, -0.011043335412710362, 0.1264139934567552, -0.09580897022182241, -0.035366054382425106, -0.05612553892141547, -0.05677014028343957], [-0.07075166291751449, 0.16357792564547377, 0.04365791192660839, 0.043782890105034916, -0.09220796962736805, 0.014878330851603732, 0.046207315115592555, 0.02882556836877139, 0.034615738727033656, -0.06192736117543711, 0.013976175570799427, -0.0013361403998476422, -0.1842030536911824, -0.004910841569753869, 0.03140787156479533, -0.05343873165079661, 0.03360164928842582, -0.06807214953967163, 0.21472742206593823, 0.18002790279655315, 0.003408717662952718, -0.03232726140166683, -0.0789490137832573, -0.05002936947714164, 0.05881890703373111, -0.018260795926074363, 0.09041879886891022, -0.01484160367274512, 0.06099252961531112, 0.015184225339246103, -0.04043716187717518, 0.06850485582969738], [0.020679428865707377, 0.029606025183154548, 0.0532828306774723, -0.09320154864656745, 0.08813015593818789, 0.003873703391414221, -0.05499732375118059, 0.05000704435134516, 0.023961890917373718, -0.05847808227444201, 0.12018632923364725, 0.0015401135832730833, -0.09741009459998007, 0.027656000828186932, -0.02706705040793516, 0.03973272634016783, -0.10608344746319966, 0.03778120167002198, 0.03741124728668929, -0.010216360507409093, 0.03869457612708394, 0.07080126315360602, -0.02482296697798977, 0.07752251384607685, -0.005881678496627314, -0.02578720413987532, -0.1648263843772133, 0.0021251877107086132, -0.07403066726305726, 0.013025788672491824, 0.11961644065079703, 0.06055433630492069], [0.025792656760940197, 0.004655008019845353, 0.023274115603070303, 0.04971159053595995, -0.02560210487967469, -0.0027728126618038087, -0.0336913760993844, 0.11383123417464902, 0.09591531540714072, 0.09089718920167501, -0.03685523090770545, 0.01193455353206645, -0.07628888439681429, 0.04294442717335769, 0.0212559166684822, -0.01816145322256191, 0.023727360865506173, 0.025392288987912, 0.11530122866545855, 0.030949127644312607, 0.06198689774647415, 0.06004544336802792, -0.05615153803623507, 0.05405251519050063, -0.2156950693798026, -0.08292669545590413, 0.022616077286052964, 0.08542884710602401, -0.01868971511694236, -0.1288918391283911, -0.07281274999118352, 0.12662056240977293], [0.08615219093149352, 0.0783200267150711, -0.09108010569652762, 0.003419706207310278, 0.029480636812208152, -0.03640111193439248, 0.0587491784229337, -0.028149127241272838, -0.05956236266203049, 0.03387365878634522, 0.010693800596832184, -0.028528132280743204, -0.0491822056624691, -0.029247795820453722, 0.006786740063544572, -0.0898580908412883, -0.030027778386154415, 0.09487100476687708, -0.022580820760436722, 0.048225985490783004, -0.019240300611303857, -0.006482574593717727, -0.016375074265692742, -0.03900447471692049, 0.02373522640357954, 0.14718033076433526, 0.026909691475457638, -0.0663428289679932, 0.04523315145632153, -0.010025495418960495, -0.05201599280232937, 0.10699897982448907], [-0.026010053251077303, -0.04301644795672931, 0.09727040427624967, -0.012352243368266888, -0.0537410321909252, -0.0447250288190384, 0.03773526945754498, 0.06707775508658004, 0.022908476413919913, -0.0498639468318715, -0.02401036666346726, 0.012553153242543453, -0.00824689562883461, 0.0066184227223955085, 0.03555079382776893, -0.0072621480670005635, -0.08332957654123084, 0.005546664050753167, 0.0031686633278033647, -0.048524864032424134, -0.009102198217954762, -0.009895998440337015, 0.05538429206622506, 0.008404219185144286, 0.09881688788617568, 0.00609672644835164, -0.036334832028631324, 0.04756864876251937, 0.021515960773717674, 0.008085260371295715, 0.01076067670228583, 0.03983020665093364], [0.0939617417703647, -0.0239711302340223, 0.005621192282681305, 0.01524564901737523, 0.032324610510737435, 0.12860291679476885, 0.07334784491233645, -0.0077836917053542036, 0.04204675608727333, -0.013762913018159972, -0.10444542898096248, 0.05823692071658471, 0.01504184144861361, 0.022558502909008012, 0.01638487142106447, -0.0066219819623813975, -0.007575380746296611, 0.03666880130131379, 0.019272293801888385, -0.039856093049660396, 0.008180104896748126, -0.010423574385837815, -0.08799702558087401, -0.013164669972442393, 0.060012562415385017, 0.051945321169959535, -0.007654188496015711, 0.08443046263298448, 0.009613285778548253, 0.07068225479014593, 0.06512003878286522, -0.13658111379559768], [-0.001125110534905042, -0.06993328355619786, -0.14229216784005871, -0.01099625542097581, 0.07014219248109971, 0.005866961827315856, -0.03279686386885961, 0.05801431100437986, -0.009682174861515165, -0.044123279970942085, 0.06419330303283254, -0.05066914325358809, -0.0658885256488948, 0.1464507298830714, 0.036497027109710395, 0.07667564149659042, -0.08234685092602162, -0.04322234793071474, -0.07233545388388185, -0.03718573326176736, -0.02277194295568597, -0.03456535344905239, 0.027248363780761075, -0.010632055697544144, -0.010451196889683472, 0.0004430610941968183, 0.03969926485516477, 0.08798654782176317, 0.15151103413030315, 0.06614023636121916, 0.02778958423086998, -0.05818338230189313], [-0.11098037825532994, -0.050447154138435576, 0.13083129000920052, 0.06424953613134726, 0.06963849677543399, 0.034741783984052886, -0.03244740753211776, 0.047548236355840615, 0.04679811771568862, 0.05045855006882786, 0.08177564006773583, 0.06886640508235545, 0.024485085201858353, 0.0241493661489599, 0.042376314938781516, 0.08733720570773204, 0.0488348479870391, -0.13303920957378287, 0.06623436393403392, -0.012538882073853197, -0.03263019130722819, 0.0527183144866344, -0.010718019342775581, -0.04140745272815118, 0.01913242224696294, 0.0395903865073208, -0.004369424285787967, -0.0008821269737694379, 0.005112895605755334, -0.06403504565378754, -0.03227938751942869, 0.041041719798647736], [-0.11453563357219353, 0.052608159957018695, 0.04281469297592058, 0.06758117714521673, -0.1537378045214257, 0.028698570172219648, 0.05277036874811531, 0.05636996087101082, 0.07680992357269949, -5.099721538857326e-05, 0.02818737283577426, -0.0467956322367966, 0.04210008690341524, 0.1256034006952295, -0.05738718951464136, 0.010653322158821008, -0.017852550750495577, -0.007265003386061725, -0.007351543431036549, -0.0302276123159147, -0.0003694562788016618, 0.022865856116730237, 0.0559670399522943, -0.01845806430432198, -0.10925102706313053, -0.028195772412383933, -0.05666265676334286, -0.04534030712095132, 0.062130241942416994, 0.019759031161904854, 0.02879093763629428, 0.030994282902414415], [-0.0005221510977163286, -0.005846851073738186, -0.0256517990806842, 0.08432635824222075, 0.005570663197742968, -0.04824423980327569, -0.019155188655652935, 0.01396381106223863, -0.038691060447026214, 0.010444563957168926, 0.09616834342750974, 0.008684239298695287, -0.06108269894622738, 0.09728223369950384, 0.06330351157991576, 0.015767906291437553, -0.02609066058492426, 0.0013047457578764187, 0.06502238062597471, -0.06059886217329945, -0.035446547437797564, -0.05835891308566016, -0.03322091416332865, 0.025416104615510696, -0.01307056441196735, -0.0026359908522292485, 0.1032005069580349, -0.017791292611516858, 0.03185645239921892, -0.06426789892532152, -0.031136513110065708, 0.06510504427860936], [-0.12850861035235756, 0.07849007585131189, 0.049988302327636784, -0.03443549901008436, -0.0027347012077958005, -0.1441339518801793, -0.04767615340646794, -0.09332444455165631, -0.09775375094855952, -0.018662510994248118, -0.0740610648469305, -0.012040648310107295, 0.020496083501487444, 0.13698374659646542, 0.02351406635650403, 0.05094553273761228, 0.06357558335536875, 0.05276703722925411, -0.02274448348525284, 0.05377835932551565, 0.05214640587923358, 0.05527159396919535, 0.06774263818533552, -0.016797138587503268, -0.05513580020335195, 0.049801930101825875, 0.09652143969958389, -0.039005460513945975, 0.07751460650943626, 0.01058519988181984, 0.053916936918266586, -0.034139467111498095], [-0.1342304527523502, 0.063314722714571, 0.011236734714724993, -0.041609411608496225, -0.021098860977773498, -0.08207638646966549, -0.09654568973595135, -0.10497436653664727, 0.010654806266125024, 0.07199494629291874, -0.08151544617350501, -0.040547199998036805, -0.05148074929015201, -0.028046338242195355, 0.07576771239994655, -0.09046602282446488, -0.00152583135379896, 0.0035535299618487696, 0.026588599725696976, 0.025792344621905845, -0.031702268667649074, 0.07028243705646953, -0.08880668104023232, -0.07675960123528912, -0.013803447166444004, 0.06393505122412373, -0.0030105903864527327, -0.03499436355237082, -0.11099081389965974, -0.03474725281206816, 0.018355963734751356, -0.06989157340091848], [-0.008261420756633962, 0.08451203962852184, -0.08633834535485088, 0.18919241986440719, -0.023387725586376484, 0.04736107506805175, 0.11984358716460101, 0.004125207163206322, -0.027052823124419083, 0.04740937192888177, -0.015152307556498401, -0.09283238312368856, -0.0003598876538164896, 0.010292603114893124, -0.007071207157699497, 0.02312863325323537, 0.011131376069054136, 0.0025129986097884405, 0.011533240283328023, -0.07333867675820872, -0.05895915420290159, 0.08412376501954098, 0.014496881208240588, -0.050898608039759576, -0.037707331094423806, 0.0781403342234119, -0.05932050436506582, 0.05126807332215127, 0.03234377160376602, -0.04164254644423027, -0.03396137010281948, 0.015364651547210083], [-0.010107601213138613, 0.019731657224758507, 0.037340108433415724, 0.1266485925795393, 0.10554686978019981, -0.03595900117816052, 0.13549039326258816, -0.05385172336112465, -0.016382628340003254, -0.04839430421154184, -0.016171177925739782, 0.08614749103116598, 0.0070662216442953845, -0.09895994253079232, -0.02484695018470841, -0.07110605717733218, 0.13752767877570926, -0.004391968933669944, 0.05412034841746461, 0.04081703111443822, -0.04071024462324733, 0.037855550292194264, 0.06941498329500626, -0.10291336257483213, 0.0428696611262676, -0.014055473082513186, 0.018358054587271744, -0.034455484320268015, -0.11929981503310716, -0.03698626400113691, 0.014312847779244693, -0.08660926947683809], [0.0388932420034337, 0.031063702492551727, 0.013350025779134031, -0.02698394724902426, -0.0029456354037450143, 0.06394551437686107, 0.06797833652393567, -0.11970255618368314, 0.05442695770266949, -0.056861693459783764, -0.04797804626498396, 0.02371544994739252, -0.07085223990475178, 0.02976024227336883, -0.0009895015237350458, 0.022772134737671854, 0.09956491251819141, -0.0034546956338559302, 0.11069305557529045, -0.07925072900496381, -0.006926351975412329, 0.05797183170779223, 0.042707357965027844, -0.01890737945717926, -0.05730120083472981, -0.04508926220346908, -0.061903659400967224, -0.018457981228040377, 0.007952736244818447, -0.01037152657868253, 0.10939825113112989, 0.022287251855530127], [0.05805735375681741, -0.03359765111522453, 0.0382476499498058, 0.018202696517894405, 0.03284955223278575, 0.12211262213654335, -0.005657056219150696, 0.12363776521975121, 0.038642172595341376, 0.03832496621745441, 0.030012107609874085, -0.019421393325683014, 0.09729863580412626, -0.026069800428701686, -0.12513729132228346, 0.03683803912208863, -0.0810315202615443, -0.09536827198295866, -0.1212330461342362, 0.06531291227557504, 0.015344212016874971, 0.04515652074914769, 0.011182428180713981, -0.015176050752350281, -0.02383669658007018, -0.026334669991336688, -0.00744549736126114, -0.06124376693658103, -0.03021260951508444, -0.055876165373598206, -0.013221139350269232, 0.02052551613866517], [-0.013695698082792973, -0.07010874375182057, 0.018709311215023765, -0.0445384065897107, -0.12218889703994379, 0.019929227797323406, 0.03342475226791445, -0.1717876858098958, -0.04980105609198401, 0.010431445852227347, -0.07618849305184865, -0.0479764896081886, 0.003307776532615378, 0.013419237144407488, -0.031452739831267014, -0.02983284924105548, 0.06871751452595729, 0.11234299177398523, 0.12511703001754412, 0.0335578835431392, -0.013927786138025915, 0.180438889544847, -0.0661195066884429, -0.07275205645592842, 0.004345968954523742, -0.003167744466525335, 0.04777900460961781, 0.04814734998173827, 0.03624177642483802, 0.01381266693017311, -0.10053452140219904, -0.0015922352572583075], [0.027454616655039083, 0.045163138469240416, -0.036726693328209874, 0.009761703376372265, -0.09397211247195913, 0.026213382338974172, 0.03329277931791729, -0.02776074108537283, 0.08679656048626148, -0.007673059066596839, 0.08723587905457944, 0.014558508920061683, 0.08591616828097651, -0.015237336017393554, 0.01529987934983241, 0.03016808196039416, -0.1263520997476121, -0.00504511981861901, 0.023359427615400344, 0.024330436607843262, 0.04122584931901518, 0.031666377541142064, 0.06077561270834333, 0.008640450570018082, 0.09785175126315088, -0.02573149738616288, -0.01410350626069447, -0.03360735288392489, 0.08498883330782192, 0.05905597121792576, -0.11531556712656153, 0.01638096515046967], [-0.027705511597421927, -0.028097525924517454, -0.005840383130304784, -0.12764660400363725, 0.05042454013202917, 0.017422247016822084, -0.045624341691742815, -0.0449882910086294, -0.019999528151901983, 0.042795193160951324, -0.0051817462287932605, -0.11501131596808394, 0.0075301246789747, 0.08872139885530758, 0.0553592753082515, 0.058413470106604845, 0.08462577898486091, 0.011021604999442257, 0.051261359526808103, -0.012141702726379626, 0.024112481135806347, -0.0412320310715303, -0.006145930282088153, -0.040520910597652754, -0.028544281520271084, 0.010671485764200206, 0.058514924122589, 0.06023320849404662, 0.00812980491481729, -0.03295697168187615, -0.02560875136995903, 0.09366811733785733], [-0.04184661444819854, -0.04472887232829442, 0.14111848584766717, 0.03212720748253856, 0.07947816966333174, 0.0007572741498303101, 0.03871919733968537, -0.027652800888308134, 0.010768511457272426, 0.0414428367461199, 0.07682771146900222, -0.010289898426725024, 0.027158969345073725, 0.034593446357912346, 0.009630888573142784, 0.0937530960496207, 0.025393003885362763, 0.01149716564085229, -0.006819622539513177, 0.022056269336191623, 0.01713324433346255, 0.024447243476682156, -0.061880806587947874, -0.055444542823886105, 0.09822518812905144, 0.030646915219987053, -0.04720824816913375, 0.04130854784500006, 0.06944244249618423, 0.030540861615319694, 0.04282635191759794, -0.010235679234742771], [-0.05760569847850418, 0.07314974414555046, -0.02085703418805353, 0.002968855790499332, 0.048508117679274286, 0.09924676327403684, -0.009568530205611742, -0.035652611481448104, 0.022473901561764473, -0.03303210210054605, 0.06457980170885096, -0.13035524860601305, -0.014272943714732316, -0.05966738317644355, 0.038566752978254765, 0.08835505072831197, -0.010442373789812269, -0.014699201811101101, -0.12711338630728466, 0.09554314618147582, -0.03551394813757771, 0.012351691871682599, 0.012226712388050537, -0.027805475645929917, 0.06961301154062204, -0.09109839431282289, 0.03442853308101437, -0.08028517224952171, -0.04906110156366247, -0.01414492020679265, 0.0411340678692382, -0.013383774131037139], [0.07746432841519457, -0.10719641717422886, 0.023665516489588347, 0.11945694423193307, 0.016866208448656453, -0.05107579909788572, 0.058804652120574556, -0.01377488216100056, -0.08877207388330814, 0.05081028199170163, -0.08225401976169672, -0.013942663054220965, -0.018476112423132355, 0.15655073098423583, 0.018708026784196353, -0.054684924568009996, -0.04973435315291007, 0.0072159244490528724, -0.01678565281137953, -0.07480828718658306, 0.12727529326549944, -0.012095536311618037, -0.03983502725057329, -0.040509974280229705, 0.031024136667732547, 0.01835689408975378, -0.005295688373229256, -0.008898967940471389, -0.053231315219943384, 0.055857224141385185, 0.03077853708111143, 0.09427770562041421], [0.0706813989353559, -0.06208278985223954, 0.002851189934774473, 0.023042080748832, 0.09509247166258866, 0.011700506516597192, -0.036577775444480785, -0.00809647644626661, -0.06982120305201017, 0.045192549675042853, -0.004130628915764799, 0.012209708674716074, -0.12553668384981873, -0.08585149223330375, 0.014634692100063159, 0.06083471077429363, 0.06899738761626793, 0.07481529534399833, -0.04801479256725576, 0.08309807517804382, 0.046613356545883784, 0.031987770235403175, -0.04789414007434784, 0.05166529659832057, -0.05819581624971484, 0.0395295520479189, -0.00035621278938664715, 0.07391452426263222, 0.014619022435156894, 0.035244005169520885, -0.17878279324438787, -0.05370077403967196], [-0.03282318155333924, -0.002067650127850686, -0.029705752599229272, 0.050491275880244435, 0.034707601564799476, 0.005058049936040942, -0.10259544570195879, -0.1152961826964815, 0.010408113661010118, 0.022551408509797987, -0.08194063088996588, -0.11039382136068487, 0.02957762919939429, 0.07431136812467162, -0.032973469299870245, -0.02003484463261863, -0.02391210536876551, -0.03177199976145614, 0.037567818807453336, 0.061306169712594775, -0.08398464255043818, 0.07473831775856948, 0.07527839077776877, -0.01996011328914064, -0.08259392476310083, -0.09680210759491494, -0.019662900561848353, 0.004758265070491717, 0.01911970950073856, -0.027837548613446554, -0.016681164067642328, -0.015478018440357564], [0.018602283593004355, 0.0008564883952480434, -0.04135473552318464, 0.013924867845551315, 0.042757563190706935, -0.008381138550448487, -0.06061211191112345, 0.01933365273882476, 0.14143265372853364, 0.008694408539696798, 0.002287915226859445, -0.04334918488303167, -0.051024180879785164, 0.013328998068826158, -0.07100424260480087, 0.07343228459981781, -0.029824136853770698, -0.1474699978028743, 0.032817593407735046, -0.020276964064788613, 0.01920032960082759, 0.01823350265668506, 0.03797502594710379, 0.028410061618971454, 0.016821361320029753, 0.02052448743852878, 0.0938929442682832, 0.04774514422674882, -0.09632578371095424, 0.00916009805703956, -0.06651480224676791, -0.03778085483574809], [0.008841103233014081, 0.05902201591729238, 0.040561719617791515, -0.10216276789957938, 0.040925133595268455, 0.03606759155502809, -0.02601181028449859, -0.03643510366952835, 0.03318712374938685, 0.026780123147105015, -0.03366181598349755, -0.030225473221449885, 0.0010237955357952598, 0.0076902972663182205, 0.024958094795983238, 0.026119426156783043, 0.07265497808628006, -0.009347333700383063, 0.03627049902233504, -0.027745250543723916, -0.04370614814809089, 0.010034679539019958, 0.05562933742088687, -0.049065054428182056, 0.00598240604057922, -0.11493046592145996, 0.030367814393356386, -0.10254191414921576, 0.033514462349734896, -0.07964571353893743, 0.0640354708018056, 0.08090225147425081], [-0.0628075260033802, -0.06055904085300689, 0.0006268433752076545, -0.018132036765085013, 0.03775149535197725, -0.0009950459527707709, -0.040842423355247716, 0.022066007132178784, -0.0684837433142507, -0.03469846129123258, 0.03973076442559863, 0.0016511150986151242, 0.057824629858316545, -0.1107866743754001, -0.0016893712743430759, -0.05757324485038012, 0.09126239014172659, 0.029848833928697197, 0.07831065924975625, -0.042615291545307646, -0.06302235405840997, -0.11075230733706068, 0.0699315284267837, 0.02996749227461102, -0.02064339725667579, 0.003822473167886633, 0.08551591568855534, 0.06652784371574327, -0.036621769108228716, 0.030713854551976585, -0.008955872173841665, 0.08355300949196222], [0.1112626291641027, 0.02873504168356784, -0.0191844061780867, -0.06375922514167255, -0.004245369508279277, -0.08685742866239861, -0.04308753303592485, -0.01683717169859908, 0.007389056707439061, 0.012833237101342801, -0.008155501844195877, 0.014223572677605418, -0.04704325863664714, 0.026055751357222396, 0.018693800354536945, -0.020950351334406876, -0.0554995236868734, 0.020748110836490412, -0.050876499522893366, -0.003187572245235835, 0.07365886575108399, -0.02306205024853504, 0.11639765653510646, 0.07796793551939693, 0.022733859014739496, -0.009465119898776842, 0.07953093634510511, -0.018086013459055937, -0.11121383344486017, 0.07415635455395049, -0.0018752639930357169, -0.008555474494938337], [-0.05949125202059591, -0.04544833199338377, -0.03883007130992885, -0.028540535645692526, -0.008501082633736542, -0.04391671524609377, 0.028229445541454335, 0.06430510932144284, 0.041715433924425685, -0.039661846344891324, 0.012669098764148441, -0.05802986609911206, -0.048008900458184255, 0.002028038280438759, 0.04467107440432682, -0.04103527246679423, 0.08149858325790248, 0.04050301732670235, 0.006349614335043245, -0.07428580028528768, -0.04897945828736085, 0.0005978008372675723, -0.06485726929643279, -0.13696509694844985, 0.11537991727250559, -0.049698148033385424, 0.1292367560456422, 0.0416240694216439, -0.043840783101298894, -0.06923581868767972, 0.06182764611872255, 0.04644019139255125], [0.04966956763485675, -0.06165697331537241, 0.07251530001991824, 0.0726801757897899, 0.09323171531751871, 0.06821785167387873, -0.003968523201224909, -0.04141958163605444, 0.07685358275732258, -0.10496495413273589, 0.07763228346895062, -0.037758912014525844, -0.09196811130001548, -0.021591795653293066, -0.06862368706405739, 0.045569309080561636, 0.03400754811692435, 0.002601762825303143, 0.03219612704513003, 0.01686058903444896, -0.0832535093728634, 0.06702870084306496, -0.02993502898624773, 0.09114783947356535, -0.01755437272228077, -0.11358133637677273, 0.00040657629961514884, -0.059539029090961065, -0.09594332002659678, -0.03176383989163061, -0.020520349418264687, 0.02833249340112788], [0.0067108315201505645, -0.032632642333008936, 0.02909138175358881, -0.13387885127648655, 0.07713814532077662, 0.06994149704361446, 0.008914195635704055, 0.0032232429884471595, 0.052087112309659636, -0.010719584927366885, 0.007474554565895736, -0.06388965997225826, -0.043373716934255686, 0.01906354244901527, 0.04604390264430139, -0.035071532222654356, -0.006201165112013977, -0.03642922627471756, 0.09508407271260488, 0.010074890159178122, -0.016090443654770623, -0.023224329216151737, -0.05812492654952961, 0.01075499146194852, 0.03372382614172128, 0.003467310140377956, -0.025300559275354344, 0.15670918653118038, 0.08937261450080139, -0.05107704438790306, -0.023571882954149873, -0.03154225820942026], [-0.15842487911755626, -0.07419721148868545, 0.02279533073826312, 0.033191556390308505, -0.045218946491533844, 0.0023196362271387925, 0.02932184755590802, -0.03110453883025566, 0.03443571557081745, -0.07674387264470842, -0.15226056887135536, 0.006612348748289178, -0.04357686914307538, 0.04145743299301115, 0.04039472778411098, 0.08486345856561961, -0.047691530764744514, 0.026992226978214285, 0.03652099751368112, 0.08943009400535096, 0.03624973019317344, -0.040004103746812666, 0.0024103733362968735, 0.03287489659350065, 0.10800043174299577, 0.06115266318412904, 0.056670073459886644, -0.03283356573478924, -0.03251313804266271, 0.016273348814725253, -0.05379117457060693, 0.054146255449797086], [0.02898941065691388, -0.1133185850157681, 0.010053193485382401, -0.07278250669077867, -0.038590377450191664, -0.020786552222632645, -0.027737668459207342, -0.16212292596995692, -0.017964518930088526, -0.02943170575399853, 0.05804544567385765, -0.02556946166539481, -0.017695930825136957, 0.07543794624479715, 0.06061766277517685, -0.05577658981635972, 0.18085775182244565, -0.019293022226362193, 0.18800977144313305, 0.0934561462134076, 0.003571453201183864, 0.09311841153199703, -0.05346851513941783, -0.10106507838498592, 0.06348812264870847, -0.012762510121381127, 0.031559765245405116, 0.0292776621020998, 0.0011986994161931426, -0.05566911602616081, 0.007397809036906907, 0.038386794735301905], [-0.06856395488535415, 0.04929200407464756, -0.07311374319171789, 0.0187217471832068, -0.08732040139379856, 0.09689504864834421, -0.1316173565946842, -0.01539546028858793, -0.05527803188688797, -0.015724750229982612, 0.07066990661725792, -0.13790424766177242, -0.050330585087797294, 0.029367434279444285, -0.0934191663701008, -0.053355885854156584, -0.04939498503981965, -0.023507092892090246, -0.07315074276365856, -0.0012581033957360438, 0.03910119785395776, -0.026287877616488462, -0.030186284838967056, 0.03123138899101703, 0.0007984129089907731, 0.06390076414719921, -0.002289807076552543, -0.046069496713369434, -0.04572143423288222, 0.07714736237943498, -0.01819235428899108, -0.01501382394467507], [-0.010915382872353354, -0.10429252766198405, 0.015684839902987805, -0.035711291847715584, 0.11272244472846277, -0.025813119224174987, 0.10221237621850927, 0.054460962956669974, -0.10960260757741942, -0.07471616631567668, 0.051427308324327556, -0.02238172794517053, -0.13323729540336623, -0.024758638677789983, -0.0822438470785973, -0.02462208609086872, 0.06627886611058156, 0.06382287607351901, 0.04514111764606528, 0.08285938013091126, -0.007390191122436113, 0.033257560739689426, -0.08680970417431509, -0.004124925560803723, 0.044152363579181335, 0.056005846058757296, 0.03576487284388209, 0.03191637944116108, 0.04967670236437106, 0.020618435309802736, -0.0251830868358408, -0.07503518518034695], [-0.03430586065707984, -0.016671263305189556, -0.08890101401684838, 0.11758191725173107, -0.10561202973336738, -0.02109298718094416, 0.06817449154403878, 0.0471976941963478, 0.04841913798281344, -0.06376500988052632, -0.018683338367788037, 0.022316286212230134, 0.013270441028976367, -0.09941791612770771, -0.014530980614606292, -0.041575140630208694, -0.028502468748253715, 0.0013004658581656837, 0.025820867657187264, -0.1108685406140906, 0.15053536573602902, -0.06385984097280488, 0.08256692740963012, 0.08867641918943744, -0.03786039120402289, -0.01827062580445606, -0.008823468015422227, 0.020742512925847733, 0.03271564460853988, -0.049768699916326695, 0.03774334152349697, -0.016260530294921794], [-0.04989221015843474, 0.12482160127727109, 0.023916554352717837, 0.023433108275650604, -0.05763310834149343, -0.02074143938551099, 0.006021581418004325, 0.020622801016788594, 0.015936871194349996, -0.04224548603383186, 0.01732502778277687, 0.0733487240062306, 0.07559935183678626, 0.024731238883752484, 0.10698483706473531, -0.07981125647328623, 0.019581512579765262, 0.01054638976903789, 0.010854599221378491, -0.08388952691347479, 0.10594461480256195, 0.05723235355019089, -0.08898780740375808, -0.04399529828213728, 0.03007892525565938, 0.08885427912636643, -0.020348364326063517, 0.0062273663890166945, 0.10156735980106521, 0.08923573198559276, -0.022377345938456767, 0.07866996718585301], [0.0846621474255253, 0.004610589444941461, -0.06960735336767133, -0.06053549161724635, -0.0304425599298555, 0.03669579918687428, 0.04797730436463902, 0.09475912146598374, -0.008078443119207983, -0.005385366510643614, 0.020748632779836178, -0.002664807376026825, -0.06931240303329773, 0.022917572221664087, -0.03619690169325782, 0.04070239166073051, -0.16393148893778386, 0.032992575673529215, -0.042626550910032694, 0.006240430049042543, 0.11974560682090976, -0.07602188256761581, -0.014760871233410616, 0.031767885138107854, -0.00606369479883843, 0.04803579393672269, -0.06350549570716808, -0.0024938671020945705, -0.08493422772583319, -0.04698539520915435, -0.026784453568027906, -0.07887789542012633], [-0.009716960465451478, 0.027405184283010857, 0.0026288107778135762, -0.09193363138997392, 0.023336555649917445, -0.0393159579999834, -0.0028494554643555985, -0.028401131426343203, 0.07020286717406966, -0.1230437119297838, 0.03498018400688262, 0.04684460583181069, -0.0031712414723855395, 0.041946940626351674, 0.04632810023608661, 0.02217676623244509, -0.002199653435570932, 0.01777831017980602, -0.018745914760417957, 0.07326593737011362, -0.03822963107300786, 0.02344037934936222, 0.0033938334429705528, 0.09470356327048579, -0.001050022495005378, 0.04114667262455763, -0.023876004884548132, 0.002296456138249809, -0.11673356426907475, -0.00041765440453480734, -0.016009140318746, -0.12622978349851455], [-0.0998354931632517, 0.01967870579787146, 0.07013110623749372, -0.00881738424205707, 0.02307352340082792, 0.08628647496179397, 0.1090861764714508, 0.06289366424479449, 0.02559506317426045, 0.03352987166726918, 0.0018491217617241534, -0.003040116061908061, 0.08390470970793151, -0.04506680683465732, 0.05593016587495879, 0.04929697417989055, 0.1132289795647353, -0.00475788787991924, -0.017621331480844105, 0.008679163147089044, -0.050207150232309206, -0.03687296811320348, -0.00019756555944400444, 0.01727123471603443, 0.03859898961160664, -0.04849747898403468, -0.034288933939185175, -0.02579587185854781, -0.04837384333869719, 0.02662280547716262, 0.07836696297208537, -0.0775324014181204], [-0.08614853892405085, 0.06569060806171205, 0.002843459592995349, -0.06463759614488783, 0.02035889668383711, 0.057457288718249754, -0.012839348534028313, -0.09031829377308428, -0.026334812479093847, -0.01112195900838079, 0.013592451426746454, 0.0641195163101349, 0.003909144589932491, -0.07710277246080206, 0.09028176278655314, 0.13275907939474446, -0.026948748359287865, 0.07374056498445052, -0.017882343351164048, 0.0724035851122831, 0.04543806250927934, -0.034452140205174404, 0.028746655934301674, -0.03407475313557055, 0.12335043514217675, -0.07112896728041795, 0.0073735733620746225, -0.11614841603241276, 0.0016062431781102501, -0.03587559121362879, 0.011086879309799897, 0.08957910937947211], [-0.049975425730265984, -0.05554661318393102, -0.07311498273939156, 0.062175733584635, 0.013314735750592653, 0.0531227777078357, 0.06602091652642507, -0.06856794577871195, -0.03185565246605883, -0.11358783026901442, 0.022749418204810842, 0.0013577604404559306, 0.016013283639935674, -0.05660397875454633, 0.09471127575173033, 0.014148594790385096, 0.007861664888900777, -0.11017272689870962, 0.0562141264203843, 0.09992643876515854, -0.05041469478355762, 0.005494610915759598, 0.06075438967253872, -0.07855202807065298, 0.021658239874203795, -0.007897554226807433, -0.013404532945503242, 0.024574289840585736, -0.11439158167171234, -0.07864325981809944, 0.0692469834882361, -0.0497746739235893], [-0.04685978134941867, -0.03642821516478828, 0.10662703217542305, 0.04297038309746327, 0.056025019301601496, 0.03964309595871637, 0.0023411173472891534, -0.0738406984093986, 0.02363108962581579, 0.03785922407006344, 0.025988390692131286, 0.07995792274192368, -0.024842438060424004, 0.11752744427787962, -0.04823935280647293, -0.038316754191774265, 0.028089723734252735, 0.10922053040083184, -0.06532456043998468, -0.08217138869992754, -0.12657506157736498, -0.002231675075138582, 0.08276481130489124, -0.03296887477906124, 0.0005847416000444001, 0.030927364677093824, -0.031387483466277545, 0.00730331775341829, 0.04309669121756202, 0.08979019395504907, -0.0573682417571502, -0.12138255995883285], [0.023313566737642087, -0.11259453529613554, 0.03444092962060871, -0.09295272704713346, -0.051575691437293396, -0.10171001707111754, -0.022798229465211806, 0.11977747686282811, -0.08560920548894294, 0.07259264011606253, 0.08597651376034261, -0.06501508226122797, 0.08391279487837086, 0.039994442835596465, 0.0368974308359421, -0.03765709981992396, 0.057276587971785094, 0.06624046947868538, 0.14408847658432034, -0.016558170633818477, -0.02987011957486778, 0.024463068109962596, 0.028007941190705786, 0.09166619640114539, -0.0222528485252705, -0.05013530942822513, -0.043052897969823964, 0.029684874642371416, 0.008770750411990144, 0.07890470501237863, -0.03477247555877052, 8.68499143757052e-05], [-0.01583281856326297, 0.14941593945330894, -0.0652036662824949, -0.027672738276026447, -0.13402057185801808, -0.050067174935882745, -0.001301207762196976, -0.09236686932740856, 0.13944150300864888, 0.04412116422144596, 0.03587125679359926, 0.0010035559642855496, -0.12239796423827182, 0.019454171843824773, -0.020719403450632366, 0.08676357862785658, 0.007920523033156525, -0.03491359348283641, -0.09698570717316182, 0.02323959296172001, -0.011860932607128427, 0.012549162799672244, -0.03922782350384839, -0.052952820668048406, 0.08287235035703137, -0.07587996077193453, 0.013782299315050232, -0.03578188404341936, -0.017523432278628386, 0.05680760456406002, -0.08000997393731067, 0.010043916383808823], [-0.036830750797139246, 0.05594650547545207, 0.05472560960813575, -0.03880113692260209, -0.028606451187548735, 0.016289246645804615, 0.07839321019106384, 0.018908252304383966, -0.008603489914676783, 0.10341177896134743, 0.035528691833774745, -0.14327299935251842, 0.0323366075620033, -0.018833982607112408, 0.08193899003098562, 0.008318675778954301, 0.05254575503069539, 0.023898540644213245, 0.017784960637468483, 0.057850267689564465, 0.011507700687400023, -0.016583451285751276, -0.06148188906875023, -0.07412245661003466, 0.011509691639809756, 0.10122914860218914, -0.0593060542391183, 0.04455911086968243, 0.032383710007421615, 0.0331648060518198, -0.0010500715784531748, -0.013005260789478659], [-0.11678893913252382, 0.06624667149694705, 0.007275883979399069, 0.013411124147802508, -0.019812635816344088, -0.0753737347101826, 0.10435435413456084, -0.09911875924782186, 0.0644857613521437, 0.005218605018520971, -0.04035488824052806, 0.042985570503506466, -0.0120648075896299, -0.08789470426443269, 0.012526752904178193, -0.015454493368896049, 0.006925842256532066, 0.019803440779719336, -0.07572067117929408, -0.05123005533052613, -0.013029262526448093, 0.06592888517319628, -0.01734706337520304, -0.0842616287100036, -0.07419858742215112, -0.003330845286105067, -0.04598170313604346, -0.0992980821936813, 0.05850464701394402, -0.01687766640573763, 0.07261010936784928, -0.06941111817978937], [0.08220736334150866, 0.012575971333707818, 0.04145853945735211, -0.010550778104245533, -0.07861232568917978, -0.012464505262736347, -0.05348903916823862, 0.02914366709076003, 0.010438716810661965, 0.008586904611493836, 0.019167273010893812, -0.034723649226923434, 0.05124389988916577, -0.02100992260232352, 0.0033542527768792166, 0.04366358673221042, -0.05982117858813852, -0.12202685012059433, -0.05707234639017006, -0.04520083613150644, -0.059761917110031725, -0.15373787842671147, 0.04892375148865505, 0.019870222203933127, -0.1292675710279962, 0.027719396691177654, -0.06122699335482951, -0.05354452647992338, 0.003888868935071148, -0.06179765103979307, 0.04513238666659823, -0.007201085252149517], [0.058367016167897745, 0.10975435132425682, 0.011516298135779203, 0.06121678450319161, 0.011252633548421733, -0.059176412151701184, 0.0475686757165959, -0.14260759988193278, 0.02054884237683095, -0.03700378944340951, -0.018773622221559205, -0.011151294541282362, -0.09685548710033617, -0.020210008986110327, -0.10946220590910755, -0.006512223132085051, -0.053743266300400744, 0.010302993041070506, -0.040832712180664664, 0.07465349409215423, 0.09092231667891312, 0.08775945892142539, 0.03878807109553762, -0.13476177823853036, 0.03723878053593487, 0.042965927618954694, -0.018311304002479108, 0.0651830002610467, 0.038969297249491136, -0.05235910642981402, 0.03600342528317732, -0.054280221791986494], [0.0467850324882836, 0.019094552884703207, -0.001453101753851647, 0.018578136265471282, -0.08002868683461732, 0.020722915710706957, 0.06232745401276112, -0.11042769258066636, 0.04215599841108504, 0.04222051277696843, 0.0686717391408826, -0.03342298336887485, 0.08589648843651876, -0.050216778264550094, -0.02393590362062314, -0.019471497637998998, 0.002642460782954715, -0.03636331659379114, 0.06464651028076095, -0.04825511169490782, -0.010564012003496962, -0.054343820875142376, 0.02746843747488765, -0.0344860633889879, 0.0031588701583123097, -0.07572221410440444, 0.047335109605874094, -0.04237696321068522, 0.03044828704213701, -0.005406754508550347, -0.03692020409633262, 0.00319091102229746], [0.034055404143721615, -0.011188926366447995, -0.015836379345255766, -0.06438784015874825, 0.0049057234220267944, -0.022979975710554882, 0.0224950356913676, 0.021181683933703063, 0.1405198218522406, 0.11958124977228109, -0.07353665169025511, -0.02770340388115794, -0.042570465657025706, -0.041171005355337284, 0.058000375084221754, -0.030886147457887377, -0.07397845417990623, 0.1097823391757379, 0.054005365089981855, 0.06482132270916159, 0.02956741093843756, 0.020678944463019412, -0.06159722654497795, -0.0768348221253008, 0.002334551996417611, -0.05921528915480346, -0.023616264261429355, 0.10517787934760493, 0.005490393484312027, -0.028866415949049377, -0.02717819814610751, -0.04541038423756781], [-0.014869820858606959, 0.04188882309601558, -0.02432663482713434, 0.006115414369102088, 0.17201059979581426, -0.049701499720366325, 0.010158904751311345, -0.08879156840168358, 0.027311999795535016, 0.07233690184109279, -0.024905869779007692, 0.028008209813596256, -0.048797057224064425, -0.02914439964639207, 0.02442885091955259, -0.018188123568284108, 0.012133946280521297, -0.09614681258540698, 0.07553493571030508, 0.010696173736321582, -0.01654105874595861, 0.1715481591268587, 0.12139946633443154, -0.026556813391482744, -0.05543184015484488, -0.029545970611856983, 0.06972718231042747, -0.05433800887836418, -0.10565384468847369, 0.02632033297653813, -0.06326017112983752, 0.0730025860378376], [0.03368543674833469, -0.041466815486777935, -0.013889629618534193, 0.11290087601199361, -0.08293824906547576, -0.07100951807014323, -0.04114301044547379, 0.0003565019637614503, 0.14214297196824216, -0.07999541976395862, -0.08082322309506858, 0.023408964510924796, 0.05239187333403592, -0.03231109129992203, -0.01275936638877789, 0.013567873493697043, 0.10820501300176957, -0.036522814250541574, -0.010244348807256947, 0.027316157324273647, -0.05607111448145518, -0.15101505219039113, -0.12971542610739598, -0.10129852306666669, 0.04017676898028504, 0.026654972945581727, 0.055738103714606656, -0.045039710738755935, -0.050245247644949774, -0.06940282159235732, -0.08008704114527697, 0.08420297335090014], [-0.15100958220875785, -0.040829403905475, -0.03819709276716713, -0.02521264697073742, -0.011569155969191017, 0.030331670031337188, -0.050644582605744, 0.10640276811363485, -0.04341760519796343, -0.1194366852135541, -0.0943928777498228, -0.05547232164721979, -0.05741710129277505, -0.012078926285524923, 0.036276543979406106, 0.11961839859372429, -0.0340182386655211, -0.03543438722778228, -0.08605215268086759, 0.05225512119062007, 0.0010277113938249498, -0.04185830200509241, 0.03737993831063357, -0.0223199939037217, 0.08067916687581209, -0.005911993981915995, 0.046698518322343334, -0.12915363598663185, 0.06302400400839914, 0.00920729322192641, -0.07927001385801997, -0.053804436381592956], [-0.0738734201278048, 0.06588182567397999, -0.04139944693648118, 0.18063536196862115, 0.11788215333600705, 0.04986678379406772, 0.13159761141808857, -0.10297943693910398, -0.06255282635694405, -0.004662898480290949, 0.031697549095797216, -0.047416119843254174, -0.016314279299492286, 0.020469967584259743, 0.07411260395701823, -0.056301863871725706, -0.11232145322094923, -0.031093390277585828, -0.060304587802863734, 0.06734374247743363, -0.025539090180967006, 0.026394494633170253, -0.01525603551892673, -0.033266194803059854, 0.020183227076441303, -0.025303087589375828, -0.04532153651254094, 0.025245040603610276, 0.07748234287945589, -0.04955905426133917, -0.03195479099804328, -0.07782517018652411], [-0.06994948304110585, 0.08524019489265598, 0.04530379937307288, -0.008688068841497835, 0.0376081139674812, 0.06944149140081224, 0.06901225814847331, -0.02811343207401107, -0.08084084430894908, 0.028118233945107627, 0.003284345463903008, -0.05985337724056497, 0.05291035283045466, 0.02798842471978147, 0.039326746661307616, -0.019786112369242076, -0.03427496959685401, -0.01943442197649966, 0.028174895008840375, 0.046574732497658956, 0.0032727053899047815, 0.07218523958550684, -0.14162173964841368, -0.1275831486334549, -0.013299462548952054, -0.020354455501359434, 0.0036574889621194206, 0.13350488439077773, 0.023165459292861974, 0.054199419477152434, -0.02253229606102744, -0.06464086393138672], [0.05679538516321571, 0.09087556316855243, -0.03615833096846463, 0.02797572175308868, -0.041826151532334765, -0.024992557676916223, -0.0996809324263848, 0.09015906915301299, -0.04883864318535008, 0.02388702355625489, -0.03277726200079376, 0.029366686320642536, -0.03209226092913839, -0.06541206982858759, -0.097975349391845, 0.06393834191727465, -0.10520910458628062, 0.020216426536460746, 0.048794349561929434, 0.09961407892550166, -0.09665705338336888, 0.09132571318663721, 0.05014266449417721, 0.0730802956189953, 0.06327579911631553, 0.002969190113411948, 0.02868318610093085, 0.028357903046820773, -0.005735848652674185, -0.14423783021955494, 0.101228176082885, 0.00860974667146827], [0.020801765616528273, 0.0011654267658976272, -0.10095558239477757, -0.04627452061328209, 0.07586288487583746, 0.027590411091629637, 0.026935869526090346, -0.05234090030408476, -0.06463949785761092, -0.011997336636831621, -0.010169907873553595, 0.03225834367890594, -0.0421212724928409, -0.15020931981995328, -0.02466119298936027, -0.06518340937080651, -0.050075618886153646, 0.0032698581836593803, 0.0028173257532175737, 0.12854173500861996, -0.06382588665410333, 0.009173250470984207, 0.0008707930116381035, -0.16655017983958745, -0.014547728966655044, -0.08409266492310202, -0.06389150249102603, 0.010893510929513628, -0.02713274179467889, 0.014268853781742702, 0.013192333813568878, -0.13568194473450096], [0.0826551698531235, -0.03484107605520247, 0.04300803084708377, 0.0090346427888022, 0.02063614190073799, 0.022111126549094612, -0.0028954601837879773, 0.10227142729748043, 0.02872081532363276, 0.02476505487532968, 0.06571324675536665, 0.04389849115476627, 0.01894921071012907, -0.03019078859930164, 0.05505843860077275, -0.07089037672367364, 0.018677295604344533, 0.011065642981942465, -0.0047173481574730464, 0.05377259339348852, 0.059913405245451835, 0.10184823206639618, 0.0572278817199344, 0.05078558195417712, 0.05722377155235343, 0.10705584483269145, -0.019737967852380144, -0.09415658157149391, 0.02171800205350051, -0.012130828890351962, 0.0956197077748279, -0.023530647553656], [-0.018514608531646597, -0.00016193035162431207, 0.006504296902876449, -0.06023686016382032, 0.022835134474088623, -0.10209478070346509, 0.08066485868323439, 0.02373678999861917, 0.07121679108197168, -0.07788326806074784, 0.05035394977006051, -0.11213000458929313, 0.0362679777851651, -0.026057979366137473, 0.030678961229126847, -0.0198614738404251, -0.15492559046090856, 0.08530220143345364, -0.02195380211776697, 0.03797919347069847, 0.05871797191073353, -0.12971511543655, -0.02039126346915855, 0.180098200695912, 0.0477788272282946, 0.008638315276609944, 0.1059418440194367, -0.02459412030009296, 0.01920016025479856, 0.016720953636060864, -0.029724011139310964, -0.009188392042455562], [-0.07936822535279865, -0.0137341558627233, -0.02770725946422653, -0.009592319802486862, -0.1296970230981184, 0.043372220821838614, -0.08280678419711412, 0.14793706770928639, 0.006332201880830842, 0.07680368197778592, -0.005799033707740364, 0.059830153432165654, 0.006965484719065289, -0.04825127819193458, 0.03707660050634975, 0.003455961401058092, -0.02310841109941387, 0.05702413067747695, -0.021356432468264405, 0.04910960536879558, -0.06494692244439969, 0.08615583735253367, -0.09500124075604639, 0.030340096888894635, 0.015598062667679529, -0.0025786678938929577, 0.08256785029033668, -0.08848708413549619, 0.03436746192807979, 0.023417128610534015, 0.00518448353432208, 0.06368579914016856], [0.10750592271712268, 0.07278208104211807, -0.005634784591127775, -0.150506194544356, 0.10313888874396561, 0.07845296483873407, -0.02066896315007778, 0.05215090912174071, 0.033700587009532816, -0.12224108527849077, -0.0159159132170298, -0.06321040023529971, 0.1301831950451465, -0.04658464502637624, 0.04212687151406242, -0.08049082078228283, 0.08951945285403871, 0.06295246069317181, -0.04639696971453886, 0.04499793848965739, -0.033209602142990034, 0.042284007698748106, 0.05803290598185714, -0.04967026387979663, 0.010220313796528742, 0.015141726905685635, -0.016261477077758713, 0.04079768529513552, 0.017913628289552966, 0.03907429498790688, -0.042043031517764486, -0.06196262587268348], [0.04142850350503528, -0.018707027563624672, -0.02001193387081566, -0.11360736175669327, 0.09015008551513065, 0.0036122149772816288, -0.12252374318951566, -0.04486536429974734, -0.0051612496026752054, 0.005554386236311322, 0.05632565771776736, 0.0726486546885614, -0.10153678259433972, -0.07427984998914539, -0.03886401074808557, -0.0010817607248965401, -0.029458163499095434, 0.034489748346000076, 0.034010263993887395, 0.03512392547289424, 0.009126562601686128, -0.05297861210670543, 0.007027972498310857, 0.009054420246656114, -0.027090022976466354, -0.008471812321545927, -0.010384098129637758, 0.01735318210195364, -0.005826828961682892, -0.041920770015891715, -0.018191368286463873, 0.017509112324841425], [-0.1922611240878815, -0.053344703928243524, 0.0027633534371903426, -0.02562914739780921, -0.038770013040020625, -0.1210701354552006, -0.06636647489110445, -0.000797309536405116, -0.026124812708900765, 0.00393246273673225, -0.012578994407382403, 0.17177268138553523, 0.06006927959878055, -0.0333390487088816, -0.057602074261594076, -0.09247409063236459, -0.04726148491703463, -0.0002283288977422423, 0.015816149195366006, -0.05573244013850186, -0.03338483347232396, -0.006028809335573092, -0.03289748946903924, 0.027010413799563485, 0.008461548384191522, 0.017075463709559636, 0.0566996497353801, -0.08537516187834909, -0.09855756956281293, 0.008914453555962208, -0.09063934203103612, -0.05721250100032555], [0.0363721959359388, 0.006732475715019962, -0.0986211176457008, -0.05479250835533446, 0.026531112070793353, 0.047195377235982744, -0.0485282618569301, 0.02858070795496955, -0.036608253350952726, 0.014407562693989037, -0.028737882674723634, 0.010523669224964958, -0.05192138665861123, 0.02161929630798569, 0.014449235752056748, 0.01904114133762713, -0.03200325036880211, -0.10311525594602813, -0.11957789807753251, 0.07753568192935456, 0.13691973285327008, 0.040590664112750474, -0.022103205039628992, 0.009703651679415795, 0.07596760070818562, 0.011204657947416933, 0.10336931618069309, 0.06809942635369672, 0.03469791975133769, 0.05151457078466108, -0.008989705726075966, 0.06662239815062843], [0.015012467414490123, -0.03991164690459608, 0.047541367163638576, -0.019604326382499274, 0.004017841577788205, 0.04727430736360244, 0.07935729607156465, 0.11415510904030968, -0.033957771563790706, -0.0033089278515079394, 0.06987686601601828, -0.006724263857082446, 0.00518240974561139, 0.024024840131196323, 0.011853073843703306, -0.06643965083627754, 0.024490433270884945, 0.03385430617981152, -0.12178339199785576, -0.00856649435017035, 0.029247123701209972, 0.09268828322238302, 0.0719897940003951, 0.09187842341742848, -0.019417960172795744, -0.07064786970457662, 0.02617440231170708, -0.0071456695335729795, -0.038830957504603594, 0.10635664138682933, -0.046147558462661054, 0.05096107543482207], [-0.011487511899809101, -0.006729978380853243, 0.08354370304269859, 0.0307071458283832, 0.002721498804548543, -0.1318295958699984, -0.027044673393960567, 0.0006870238561080132, 